,ft0,ft1,ft2,ft3,ft4,ft5,ft6,ft7,ft8,ft9,ft10,ft11,ft12,ft13,ft14,ft15,ft16,ft17,ft18,ft19,ft20,ft21,ft22,ft23,ft24,ft25,ft26,ft27,ft28,ft29,ft30,ft31
abalone,0.43546706438064575,-2.0153138637542725,1.423627257347107,0.8217571377754211,-0.22828486561775208,0.3479122519493103,-1.0542376041412354,0.7407533526420593,0.14826054871082306,0.35979971289634705,0.20409102737903595,0.26468706130981445,-1.758310317993164,1.592771291732788,-0.7579983472824097,2.2898075580596924,0.6667678952217102,1.7036724090576172,-0.9399486780166626,-1.1257914304733276,-0.1742781698703766,2.141286849975586,-0.9999483823776245,-0.37736836075782776,1.1276365518569946,0.8689184188842773,-0.530291736125946,0.9688644409179688,2.560429811477661,2.5339112281799316,1.4503051042556763,-2.896406650543213
adult,481.75115966796875,-2426.498779296875,105.0815658569336,1200.9095458984375,-73.0903091430664,12.985888481140137,-2133.88720703125,266.05987548828125,-977.6171875,1257.529052734375,-226.94161987304688,964.56884765625,-1980.325927734375,117.11408996582031,-680.6080322265625,2055.067138671875,-304.3475036621094,2406.952392578125,-989.62841796875,-151.640869140625,-409.1387634277344,2759.04541015625,-2200.935546875,-1225.006591796875,1042.085205078125,2144.527099609375,-113.06303405761719,1162.356689453125,3015.106201171875,1992.8687744140625,1861.468017578125,-3179.580810546875
balance_scale,0.48152947425842285,-2.8828887939453125,1.086158037185669,0.9961478114128113,-0.01877603493630886,-0.06929881870746613,-1.8653743267059326,1.008636236190796,-0.39509016275405884,0.7475635409355164,0.3609887659549713,1.2288271188735962,-2.090149402618408,1.2345774173736572,-0.7200577855110168,2.6997692584991455,0.3822181522846222,2.4373486042022705,-1.0501009225845337,-1.2460345029830933,-0.7332937121391296,3.222543239593506,-1.8344749212265015,-0.9501662254333496,1.5802805423736572,1.4606415033340454,0.0066065071150660515,0.8444775342941284,3.2979419231414795,3.037435531616211,1.8449795246124268,-3.8660285472869873
breast_cancer,0.743541955947876,-2.4861226081848145,1.2861825227737427,0.7590353488922119,0.17641669511795044,1.0449765920639038,-1.2072765827178955,0.28288593888282776,-0.4573097825050354,0.9845883250236511,-0.2839093804359436,-0.4179655909538269,-1.73089599609375,1.699819564819336,-0.9413287043571472,2.8237271308898926,0.36808326840400696,2.8891913890838623,-1.0915193557739258,-1.048234224319458,0.28330332040786743,2.403285503387451,-0.9836328625679016,-0.9607919454574585,0.6683743000030518,1.518470048904419,-0.9777165651321411,1.7563066482543945,3.5031940937042236,2.8247666358947754,2.3764212131500244,-3.4277615547180176
breast_cancer_wisconsin_original,0.5941601991653442,-3.085338830947876,1.0995426177978516,1.076751708984375,0.24942746758460999,0.1600978672504425,-2.184474468231201,0.8118909597396851,-0.7262874841690063,1.1893177032470703,0.20882287621498108,0.9725907444953918,-1.9646923542022705,1.269977331161499,-0.9135328531265259,2.820789098739624,0.0656098872423172,3.033946990966797,-0.9896718859672546,-0.9075795412063599,-0.4683079719543457,3.646928071975708,-1.8238604068756104,-1.3609243631362915,1.3012537956237793,1.795104742050171,-0.273824542760849,1.3226505517959595,3.801203966140747,3.4711289405822754,2.339503765106201,-4.172323226928711
breast_cancer_wisconsin_prognostic,6.546849250793457,-116.86180114746094,14.146382331848145,49.85859298706055,-10.36457633972168,-10.092107772827148,-104.88236999511719,22.84834861755371,-25.757030487060547,50.85884475708008,-3.0337777137756348,60.29643630981445,-101.42530059814453,4.193691253662109,-30.50558853149414,105.0069351196289,-5.728806495666504,108.61790466308594,-53.25988006591797,-19.75172233581543,-37.583587646484375,121.56474304199219,-107.5600814819336,-54.086090087890625,68.02055358886719,90.23405456542969,1.1782211065292358,43.92102813720703,140.07424926757812,103.59489440917969,74.87210845947266,-156.7638397216797
car_evaluation,0.5355579257011414,-2.0454916954040527,1.40425443649292,0.7895873188972473,-0.0432620644569397,0.514159619808197,-0.8354758024215698,0.6814737915992737,0.05973405763506889,0.3304872214794159,0.21048250794410706,0.000978755997493863,-1.6986802816390991,1.6060158014297485,-0.7902061343193054,2.3542613983154297,0.7317602038383484,1.7183856964111328,-0.8852411508560181,-1.203383207321167,0.0010322332382202148,1.8560001850128174,-0.8753610849380493,-0.2013346403837204,0.9972230195999146,0.9162020683288574,-0.5608779191970825,0.8888254165649414,2.5518038272857666,2.462047576904297,1.5455986261367798,-2.8363804817199707
credit_approval,4.458151817321777,-38.767967224121094,3.674340009689331,16.787181854248047,-2.999333381652832,-1.5720596313476562,-33.63826370239258,5.864283561706543,-11.076445579528809,17.614110946655273,-2.4927022457122803,18.780086517333984,-32.821571350097656,2.872410535812378,-9.89396858215332,34.43531036376953,-1.2954089641571045,36.213348388671875,-17.524089813232422,-6.3356523513793945,-10.49122428894043,41.49906539916992,-35.08171844482422,-18.42861557006836,20.356216430664062,30.3436222076416,0.22041550278663635,15.331872940063477,46.65672302246094,32.33252716064453,26.98809242248535,-51.53410720825195
contraceptive_method_choice,0.4298841059207916,-6.615317344665527,1.7213566303253174,2.5607171058654785,-0.6121073961257935,-0.4643983840942383,-5.591760635375977,1.581078290939331,-0.9677683115005493,2.3955330848693848,0.18579454720020294,3.463507890701294,-5.475699424743652,1.4239952564239502,-1.8234407901763916,6.227078914642334,0.3702295422554016,5.902442455291748,-2.969823122024536,-1.9259456396102905,-2.121088981628418,7.131594181060791,-5.4966816902160645,-2.6943867206573486,3.984778881072998,4.337147235870361,0.03480977937579155,2.3335938453674316,7.879505157470703,6.486611843109131,4.227270126342773,-9.07143783569336
dermatology,0.3319874405860901,-3.1736555099487305,1.5698952674865723,1.2084081172943115,-0.308694452047348,0.1562318354845047,-2.1111645698547363,0.990829586982727,0.03602857515215874,0.6111686825752258,0.20610137283802032,1.0084930658340454,-2.6932451725006104,1.4653868675231934,-1.0618571043014526,3.346501588821411,0.5854471325874329,2.728672504425049,-1.4525079727172852,-1.5272607803344727,-0.7888666987419128,3.193721294403076,-2.0350327491760254,-0.9004745483398438,1.989590048789978,1.768256425857544,-0.40010157227516174,1.264064073562622,3.9044833183288574,3.5941505432128906,2.110668659210205,-4.483617782592773
ecoli,0.462216854095459,-1.940966248512268,1.390199065208435,0.766351044178009,-0.12997926771640778,0.22683143615722656,-0.8151284456253052,0.9605679512023926,0.04001176357269287,0.2299855649471283,0.2806096076965332,0.21225281059741974,-1.5274012088775635,1.3779981136322021,-0.552566647529602,1.9940478801727295,0.40145736932754517,1.6590007543563843,-0.8016645312309265,-1.2424973249435425,-0.30181533098220825,2.167846202850342,-0.8542383909225464,-0.4929637014865875,1.0998804569244385,0.7855502963066101,-0.48270344734191895,0.8197369575500488,2.3632519245147705,2.4523026943206787,1.2938296794891357,-2.658149242401123
glass_identification,0.5262958407402039,-14.692380905151367,2.7415878772735596,5.859601020812988,-1.5929211378097534,-1.3546905517578125,-12.965051651000977,3.208859920501709,-2.3079514503479004,5.692724704742432,-0.1521969735622406,7.989526271820068,-12.685476303100586,1.5924872159957886,-3.912947177886963,13.625646591186523,0.009702300652861595,13.367311477661133,-6.822404384613037,-3.5204367637634277,-5.206589698791504,15.380497932434082,-12.976434707641602,-6.569779396057129,9.06190299987793,10.461923599243164,0.20244064927101135,5.348822593688965,17.532413482666016,13.751981735229492,9.252589225769043,-20.098569869995117
heart_disease,3.8187928199768066,-61.743675231933594,8.07990837097168,26.036712646484375,-5.600062370300293,-5.579916954040527,-54.75354766845703,12.587899208068848,-13.308558464050293,26.178674697875977,-1.3660087585449219,32.47639846801758,-53.416900634765625,3.3082821369171143,-15.765551567077637,55.384849548339844,-2.4650330543518066,56.74547576904297,-27.998065948486328,-11.400876998901367,-20.33718490600586,64.40245819091797,-56.06850051879883,-28.32928466796875,36.14580154418945,46.688819885253906,0.9502899050712585,22.551162719726562,73.45015716552734,55.186622619628906,39.4930419921875,-83.0516357421875
hepatitis,2.248163938522339,-22.12771224975586,3.1129047870635986,9.741998672485352,-1.4385408163070679,-1.259071707725525,-19.42078399658203,4.160667896270752,-5.694037437438965,9.74315071105957,-0.5718177556991577,10.804914474487305,-18.476381301879883,1.8707225322723389,-5.957508087158203,19.662155151367188,-0.9360753893852234,20.7662296295166,-9.706815719604492,-3.8491339683532715,-5.996760845184326,23.943485260009766,-19.767616271972656,-10.151086807250977,11.87850284576416,17.076940536499023,-0.08504752814769745,8.74962043762207,26.724950790405273,19.706104278564453,14.94810676574707,-29.564342498779297
image_segmentation,1.9044978618621826,-36.791603088378906,5.615797519683838,15.165857315063477,-3.6603732109069824,-3.8582000732421875,-32.619876861572266,8.126494407653809,-7.340271949768066,15.222681045532227,-0.4145282804965973,19.885351181030273,-31.796367645263672,2.169363021850586,-9.128085136413574,32.93292999267578,-1.2961552143096924,33.47504806518555,-16.82575225830078,-7.431610107421875,-12.98505687713623,38.53929138183594,-33.25183868408203,-16.96038055419922,22.20608901977539,27.05584716796875,0.6648712158203125,12.909917831420898,43.454708099365234,33.590171813964844,23.011611938476562,-49.6224250793457
ionosphere,0.9721838235855103,-2.8448238372802734,1.8601347208023071,0.6070162057876587,0.30486634373664856,1.1799031496047974,-0.9090994596481323,0.5799859762191772,-0.5386599898338318,1.074904441833496,-0.12944664061069489,-0.5949168801307678,-1.760870337486267,2.1949305534362793,-0.7951105833053589,3.0938849449157715,0.6662575006484985,3.2213664054870605,-1.2710844278335571,-1.5993460416793823,0.27455586194992065,2.5241637229919434,-0.7487050294876099,-0.9898124933242798,0.6185764074325562,1.2433974742889404,-1.20735764503479,1.6036040782928467,3.768522262573242,3.3382503986358643,2.518432140350342,-3.787787675857544
iris,0.35922762751579285,-3.6155292987823486,1.311702013015747,1.2343757152557373,-0.24121113121509552,-0.2036350667476654,-2.620832920074463,1.1431607007980347,-0.3117744028568268,0.9780435562133789,0.33565521240234375,1.7441718578338623,-2.8461899757385254,1.3184996843338013,-0.9539400339126587,3.4818549156188965,0.49457424879074097,3.060509204864502,-1.490243673324585,-1.4895665645599365,-1.1465070247650146,3.907318115234375,-2.538296699523926,-1.2647900581359863,2.200026035308838,1.9211457967758179,-0.0010992049938067794,1.107007622718811,4.190173149108887,3.7833518981933594,2.2290451526641846,-4.9697160720825195
isolet,0.33410683274269104,-1.9452667236328125,1.5400093793869019,0.6786268353462219,-0.3140183985233307,0.18729624152183533,-1.0637810230255127,0.8515766859054565,0.1489122211933136,0.5248231887817383,0.34831348061561584,0.39153197407722473,-1.6672279834747314,1.6315538883209229,-0.5867232084274292,2.106438159942627,0.7871707081794739,1.5602519512176514,-1.0015089511871338,-1.0678925514221191,-0.2901979386806488,2.2451210021972656,-1.0185308456420898,-0.4772590100765228,1.1414663791656494,0.4967689514160156,-0.4799603521823883,0.7617849111557007,2.3832008838653564,2.519014358520508,1.196106195449829,-2.7512221336364746
letter_recognition,-0.10878338664770126,-6.672175407409668,1.8086249828338623,2.2907283306121826,-1.015425682067871,-0.8836873173713684,-5.615609645843506,1.891645073890686,-0.23056712746620178,2.0581042766571045,0.2423565685749054,4.101004600524902,-5.885828495025635,1.3012259006500244,-1.6379539966583252,6.495512962341309,0.5782246589660645,5.707254409790039,-3.2310073375701904,-2.3926665782928467,-2.934724807739258,6.755248069763184,-5.61294412612915,-2.7102324962615967,4.669354438781738,3.9675140380859375,0.32161861658096313,1.9760313034057617,7.680713653564453,6.6272711753845215,3.790421962738037,-9.32597827911377
lung_cancer,1.0628330707550049,-2.2437660694122314,1.460395336151123,1.1518173217773438,0.3844384253025055,0.25651949644088745,-0.6227403879165649,1.1710059642791748,-0.6450066566467285,0.36240455508232117,0.6361509561538696,0.0031846046913415194,-1.3706499338150024,1.4584757089614868,-0.5755813717842102,1.9114668369293213,0.34387555718421936,1.7397000789642334,-0.5078849792480469,-1.275994062423706,0.10049760341644287,2.581742763519287,-0.8698675036430359,-0.28761884570121765,0.8140283823013306,1.0419596433639526,-0.47733765840530396,0.5491675138473511,2.4956207275390625,2.6226534843444824,1.6111494302749634,-2.8012821674346924
mushroom,0.7400556802749634,-2.489075183868408,1.235304355621338,0.7551718950271606,0.1684848517179489,1.0706030130386353,-1.2322957515716553,0.21773724257946014,-0.49624642729759216,1.0140966176986694,-0.3460688292980194,-0.4287368357181549,-1.7321321964263916,1.6683648824691772,-0.9489194750785828,2.821049213409424,0.3447563052177429,2.909576892852783,-1.1015901565551758,-1.005981683731079,0.28040754795074463,2.417638063430786,-1.0050675868988037,-1.0070431232452393,0.6428459286689758,1.5673624277114868,-0.9797706604003906,1.7790629863739014,3.519011974334717,2.793199062347412,2.42132306098938,-3.4227404594421387
nursery,0.531442403793335,-2.0282087326049805,1.4072210788726807,0.7862359285354614,-0.04499923065304756,0.4730614721775055,-0.8196302652359009,0.7113549709320068,0.0602680929005146,0.31549257040023804,0.2392703741788864,0.037325333803892136,-1.6788971424102783,1.6105464696884155,-0.7704637050628662,2.3001978397369385,0.7431082725524902,1.652814269065857,-0.8614474534988403,-1.1911234855651855,-0.02008838579058647,1.8694814443588257,-0.8602957725524902,-0.19147911667823792,1.0009434223175049,0.8614306449890137,-0.532427191734314,0.8325785398483276,2.4991793632507324,2.4563307762145996,1.5014063119888306,-2.804680824279785
optical_recognition_of_handwritten_digits,0.0021185874938964844,-6.413369655609131,1.829511046409607,2.3148865699768066,-0.9119316339492798,-0.42289096117019653,-5.432897090911865,1.4888193607330322,-0.2807534337043762,2.0138111114501953,0.036806583404541016,3.4173331260681152,-5.673829078674316,1.4513185024261475,-1.86772882938385,6.432447910308838,0.6536684036254883,5.636322021484375,-3.148007392883301,-2.1728579998016357,-2.407207489013672,6.494307518005371,-5.310534954071045,-2.570124864578247,4.28524112701416,4.060788154602051,-0.01695089414715767,2.298352003097534,7.71877908706665,6.407366752624512,3.9765560626983643,-9.035161972045898
pen-based_recognition_of_handwritten_digits,3.971553087234497,-67.67842102050781,8.651528358459473,28.410053253173828,-6.255719184875488,-6.187936305999756,-60.069793701171875,13.725982666015625,-14.44764518737793,28.734874725341797,-1.5731914043426514,35.757591247558594,-58.710166931152344,3.509258985519409,-17.23924446105957,60.81220245361328,-2.5716538429260254,62.14109420776367,-30.82749366760254,-12.490228652954102,-22.463329315185547,70.33131408691406,-61.61165237426758,-31.032054901123047,39.771202087402344,51.11314010620117,1.1936973333358765,24.624319076538086,80.45980072021484,60.259552001953125,43.17235565185547,-91.02374267578125
soybean_large,0.4662548005580902,-2.1382930278778076,1.3320176601409912,0.8532981872558594,-0.18764528632164001,0.43862786889076233,-1.0902042388916016,0.6637805104255676,0.014482712373137474,0.3937652111053467,0.1029520034790039,0.2020403891801834,-1.8076279163360596,1.5072431564331055,-0.787765383720398,2.3784449100494385,0.6176865696907043,1.8516916036605835,-1.0034513473510742,-1.1595126390457153,-0.16752736270427704,2.1788976192474365,-1.0971750020980835,-0.4656556248664856,1.1390910148620605,1.0493881702423096,-0.5374592542648315,1.039732575416565,2.7304470539093018,2.501962184906006,1.6053669452667236,-3.0038046836853027
congressional_voting_records,1.0346239805221558,-2.8522725105285645,1.9365888833999634,0.620406448841095,0.34250402450561523,1.1919692754745483,-0.863132119178772,0.621368408203125,-0.5804387927055359,1.1294304132461548,-0.06844231486320496,-0.6342689394950867,-1.73542058467865,2.2551732063293457,-0.7725024223327637,3.0879757404327393,0.6993293762207031,3.243169069290161,-1.262355089187622,-1.6267192363739014,0.34737467765808105,2.542043685913086,-0.7258538007736206,-0.9516593813896179,0.5583158731460571,1.2006676197052002,-1.2559094429016113,1.580717921257019,3.7726471424102783,3.3663487434387207,2.507187604904175,-3.7947793006896973
wine,6.201329231262207,-93.28568267822266,11.502196311950684,39.737586975097656,-8.138107299804688,-8.357826232910156,-82.79671478271484,18.778926849365234,-21.056076049804688,40.1012077331543,-2.2206826210021973,48.79974365234375,-80.5319595336914,4.227266311645508,-23.698589324951172,83.22016906738281,-4.374960422515869,85.99382019042969,-42.070098876953125,-16.506162643432617,-30.24909019470215,97.51081085205078,-85.07391357421875,-43.03748321533203,54.03914260864258,71.2491683959961,1.4201186895370483,34.19146728515625,110.9767837524414,82.77191925048828,59.92351150512695,-125.10917663574219
yeast,0.4929448962211609,-2.020273208618164,1.2753007411956787,0.832586407661438,-0.09418733417987823,0.34537169337272644,-0.9435077905654907,0.7895448207855225,0.019661808386445045,0.2370898723602295,0.156790092587471,0.21239161491394043,-1.6163060665130615,1.3716670274734497,-0.6955852508544922,2.1861329078674316,0.37474873661994934,1.8024883270263672,-0.8020890951156616,-1.201678991317749,-0.23258642852306366,2.157407760620117,-0.927842915058136,-0.46192169189453125,1.0892512798309326,1.0525528192520142,-0.4869963228702545,0.9721179008483887,2.5377793312072754,2.4786510467529297,1.5136855840682983,-2.825840473175049
zoo,0.5117220282554626,-2.0959365367889404,1.4213218688964844,0.8048383593559265,-0.12667138874530792,0.3924349546432495,-0.9716668128967285,0.7496723532676697,-0.03052382543683052,0.4243159890174866,0.22210636734962463,0.16314597427845,-1.7088531255722046,1.575026512145996,-0.7131516337394714,2.2635695934295654,0.6828397512435913,1.7443097829818726,-0.9571806192398071,-1.1696903705596924,-0.13557621836662292,2.1607658863067627,-1.0067285299301147,-0.40637487173080444,1.0729529857635498,0.8637584447860718,-0.5334197282791138,0.8833754658699036,2.6056830883026123,2.5050899982452393,1.5076115131378174,-2.893979787826538
statlog_heart,4.15811014175415,-61.95537185668945,7.879700660705566,26.370370864868164,-5.33465051651001,-5.233494758605957,-54.9799919128418,12.321269035339355,-13.92448616027832,26.647552490234375,-1.5168769359588623,32.09232711791992,-53.3836555480957,3.2175469398498535,-15.961288452148438,55.44316482543945,-2.679973602294922,57.2545280456543,-27.990009307861328,-11.009971618652344,-19.73989486694336,64.85835266113281,-56.34442901611328,-28.529117584228516,35.722801208496094,47.264015197753906,0.7524551153182983,23.024398803710938,73.95182037353516,55.077911376953125,39.978267669677734,-83.13391876220703
statlog_landsat_satellite,7.093160152435303,-111.9506607055664,13.449682235717773,47.42389678955078,-10.03693962097168,-10.192895889282227,-99.40669250488281,22.434436798095703,-24.963764190673828,48.010284423828125,-2.8554718494415283,58.897254943847656,-96.98338317871094,4.81917667388916,-28.317523956298828,100.0722427368164,-5.095458984375,103.060791015625,-50.7293701171875,-19.93951416015625,-36.786476135253906,116.49925231933594,-102.30882263183594,-51.61186599731445,65.22918701171875,85.4511489868164,1.968957543373108,40.81914520263672,133.05056762695312,98.99647521972656,71.71009826660156,-150.20114135742188
statlog_shuttle,2.359671115875244,-46.381752014160156,6.784568786621094,19.20094871520996,-4.472029685974121,-4.8208770751953125,-41.08720779418945,10.217549324035645,-9.1582612991333,19.124835968017578,-0.5164161920547485,24.971803665161133,-40.23482131958008,2.5601651668548584,-11.627851486206055,41.64012908935547,-1.7358070611953735,42.25107955932617,-21.11231803894043,-9.241334915161133,-16.225969314575195,48.16327667236328,-41.938133239746094,-21.141803741455078,27.971057891845703,34.365318298339844,0.8924789428710938,16.330142974853516,54.81475830078125,42.23737335205078,28.988582611083984,-62.55583953857422
statlog_vehicle_silhouettes,9.952033996582031,-157.93142700195312,19.068622589111328,67.06315612792969,-14.074447631835938,-14.515083312988281,-140.3212432861328,31.86160659790039,-35.16347122192383,67.73567199707031,-3.864109754562378,82.88617706298828,-136.90133666992188,6.447464942932129,-40.00653839111328,141.0741729736328,-7.573341369628906,145.44894409179688,-71.45136260986328,-27.895671844482422,-51.93315505981445,164.2006072998047,-144.3320770263672,-72.7832260131836,92.10403442382812,120.759765625,2.551675319671631,57.60608673095703,187.7322235107422,140.0243682861328,101.02293395996094,-211.9065704345703
"connectionist_bench_sonar,_mines_vs._rocks",0.790075957775116,-2.5493264198303223,1.3215992450714111,0.7879014611244202,0.19729572534561157,1.0379587411880493,-1.2818195819854736,0.3235396444797516,-0.5240088701248169,1.0614914894104004,-0.249830961227417,-0.3937721848487854,-1.7358896732330322,1.7789970636367798,-0.9606765508651733,2.8222665786743164,0.3497113585472107,2.9584810733795166,-1.0789411067962646,-0.999862790107727,0.3219686448574066,2.567894458770752,-1.0114777088165283,-1.0118415355682373,0.6471230387687683,1.5261038541793823,-0.9875001907348633,1.803030014038086,3.588475465774536,2.935645580291748,2.4011383056640625,-3.4922561645507812
magic_gamma_telescope,1.9464454650878906,-53.520606994628906,8.708781242370605,21.970136642456055,-5.473561763763428,-6.724185943603516,-47.795265197753906,13.0206880569458,-10.014009475708008,21.898296356201172,0.32841187715530396,29.554195404052734,-46.50634002685547,1.8727964162826538,-12.818376541137695,47.535430908203125,-2.4454963207244873,48.396331787109375,-24.613393783569336,-11.016098976135254,-20.036787033081055,55.565216064453125,-48.929176330566406,-24.623249053955078,33.36687469482422,39.07793426513672,1.2365188598632812,17.811996459960938,62.753440856933594,49.528717041015625,32.17914581298828,-71.96305847167969
parkinsons,1.7071094512939453,-32.893821716308594,5.009438991546631,13.770349502563477,-2.989173412322998,-2.837838649749756,-29.207256317138672,6.862185001373291,-6.45049524307251,13.508977890014648,-0.569720447063446,16.92610740661621,-28.39809799194336,2.039219617843628,-8.771413803100586,29.837360382080078,-1.264868974685669,30.368534088134766,-14.912544250488281,-6.4409027099609375,-10.906964302062988,34.2534294128418,-29.53987693786621,-14.952557563781738,19.559791564941406,24.809505462646484,0.13526877760887146,12.30988597869873,39.41292953491211,30.16238021850586,20.990514755249023,-44.454715728759766
wine_quality,0.8302768468856812,-20.970142364501953,3.460148572921753,8.479795455932617,-2.1941275596618652,-2.079176664352417,-18.573360443115234,4.554637432098389,-3.6595654487609863,8.358282089233398,-0.27386999130249023,11.45427417755127,-18.12466049194336,1.7360045909881592,-5.43280029296875,19.1678409576416,-0.3320022523403168,19.093143463134766,-9.661873817443848,-4.6446123123168945,-7.463229179382324,21.926124572753906,-18.74076271057129,-9.519678115844727,12.82972240447998,15.191975593566895,0.39887428283691406,7.5208868980407715,24.895450592041016,19.31898307800293,13.162382125854492,-28.51995849609375
thoracic_surgery_data,0.9234986305236816,-4.2915143966674805,1.466310977935791,1.8718982934951782,-0.0026504038833081722,0.642264187335968,-3.145879030227661,0.6935480833053589,-1.0162781476974487,1.590593695640564,-0.19722028076648712,0.8067533373832703,-3.2928085327148438,1.5560606718063354,-1.5565526485443115,4.198948383331299,0.09845204651355743,4.309407711029053,-1.7899290323257446,-1.187271237373352,-0.35006245970726013,4.6980671882629395,-2.9313149452209473,-1.7324752807617188,1.8656165599822998,3.1923604011535645,-0.789120078086853,2.3610968589782715,5.638683319091797,4.461306095123291,3.5183475017547607,-5.836916446685791
wholesale_customers,437.85430908203125,-6536.1376953125,756.1746826171875,2796.90283203125,-568.8001708984375,-593.8839721679688,-5806.166015625,1305.0545654296875,-1501.3804931640625,2826.762451171875,-171.7086944580078,3409.08740234375,-5663.8896484375,230.1753387451172,-1649.553955078125,5816.9404296875,-347.7289123535156,6028.83056640625,-2945.997314453125,-1118.17919921875,-2127.92919921875,6797.82177734375,-5985.322265625,-3022.24609375,3784.94873046875,5035.33837890625,97.3755874633789,2388.94091796875,7769.33984375,5771.50732421875,4197.4013671875,-8756.6953125
diabetes_130-us_hospitals_for_years_1999-2008,0.5370399951934814,-2.2550699710845947,1.160592794418335,0.9215900301933289,-0.08949632942676544,0.6983404159545898,-1.1386775970458984,0.4338477551937103,-0.027004623785614967,0.3530758023262024,-0.11479295790195465,-0.02056879922747612,-1.9405237436294556,1.4203996658325195,-0.9529628753662109,2.6851627826690674,0.506871223449707,2.1352617740631104,-1.0169086456298828,-1.1888889074325562,-0.055600833147764206,2.043945550918579,-1.13965904712677,-0.4467776417732239,1.1090513467788696,1.4963648319244385,-0.6148537993431091,1.2866699695587158,2.9985926151275635,2.501688241958618,1.9440157413482666,-3.184950113296509
student_performance,0.3401651978492737,-2.7657623291015625,1.4658606052398682,1.0230188369750977,-0.24798135459423065,0.11859335750341415,-1.7741657495498657,0.9731529951095581,0.056981395930051804,0.48897942900657654,0.30449461936950684,0.9044157266616821,-2.3023035526275635,1.4604802131652832,-0.8850750923156738,2.9121711254119873,0.6405577659606934,2.311807870864868,-1.2552170753479004,-1.407949686050415,-0.6687713861465454,2.895505428314209,-1.70237135887146,-0.7421497702598572,1.7359707355499268,1.3698641061782837,-0.3061225414276123,1.0185940265655518,3.3693950176239014,3.1735997200012207,1.7724918127059937,-3.8991260528564453
diabetic_retinopathy_debrecen,1.1758432388305664,-21.050277709960938,3.0919814109802246,8.795782089233398,-1.8553203344345093,-1.5905239582061768,-18.76052474975586,4.111767292022705,-4.353119373321533,8.906451225280762,-0.479875385761261,10.880422592163086,-18.01209831237793,1.5634561777114868,-5.661734104156494,19.17426109313965,-0.5240018963813782,19.57275390625,-9.635421752929688,-4.091287612915039,-6.627442836761475,22.156879425048828,-19.03536605834961,-9.596559524536133,12.217690467834473,15.84014892578125,0.20685234665870667,8.035400390625,25.342866897583008,18.91829490661621,13.641899108886719,-28.354129791259766
default_of_credit_card_clients,1180.016357421875,-27956.15234375,3689.533935546875,11695.4716796875,-2612.424560546875,-3080.796875,-24949.740234375,6162.00244140625,-5479.8251953125,11625.849609375,-271.087890625,15114.619140625,-24432.92578125,824.6063232421875,-7015.76416015625,25086.984375,-1375.9154052734375,25559.07421875,-12677.3251953125,-5242.33203125,-9872.572265625,28605.0,-25575.15234375,-12680.345703125,16956.89453125,21097.828125,612.384765625,9752.3935546875,33018.77734375,25303.72265625,17287.98046875,-37637.0546875
online_shoppers_purchasing_intention_dataset,5.071954250335693,-67.70459747314453,8.1475191116333,28.66086196899414,-6.195549964904785,-5.135221004486084,-59.60930252075195,12.652220726013184,-15.820777893066406,29.193395614624023,-2.509575605392456,34.871726989746094,-58.49320602416992,4.024806976318359,-17.164291381835938,60.6427001953125,-2.164781093597412,62.20998001098633,-31.026138305664062,-12.2691650390625,-21.3907413482666,70.88517761230469,-61.58306884765625,-31.410842895507812,38.720458984375,51.507659912109375,0.9125862121582031,25.113677978515625,80.76734924316406,58.99831008911133,44.313392639160156,-90.78041076660156
electrical_grid_stability_simulated_data,0.6068436503410339,-3.0950255393981934,1.09132719039917,1.123781442642212,0.18308377265930176,0.353009968996048,-2.266091823577881,0.6500495672225952,-0.6868249177932739,1.206514596939087,0.08827601373195648,0.7793272137641907,-2.1075992584228516,1.3466764688491821,-1.0384266376495361,2.981820583343506,0.14308814704418182,3.127218723297119,-1.107551097869873,-0.8575652241706848,-0.32075411081314087,3.6015243530273438,-1.89096200466156,-1.3530471324920654,1.291851282119751,1.9427913427352905,-0.3914821147918701,1.5437638759613037,3.9932479858398438,3.4353420734405518,2.4390461444854736,-4.239412307739258
heart_failure_clinical_records,2070.11083984375,-30363.08203125,3518.14453125,13015.908203125,-2631.5947265625,-2723.17529296875,-26968.162109375,6043.6767578125,-7010.2939453125,13152.041015625,-812.8167724609375,15777.8251953125,-26306.447265625,1091.881591796875,-7680.1767578125,27015.958984375,-1627.672119140625,28023.021484375,-13680.6748046875,-5164.08544921875,-9832.4580078125,31603.48828125,-27793.6875,-14047.875,17545.390625,23415.37109375,413.8421936035156,11141.193359375,36118.625,26815.947265625,19531.724609375,-40677.09375
estimation_of_obesity_levels_based_on_eating_habits_and_physical_condition,0.33504772186279297,-6.571158409118652,1.9220054149627686,2.5120885372161865,-0.7184821367263794,-0.38978639245033264,-5.395844459533691,1.639704942703247,-0.6622809171676636,2.1161885261535645,0.12437117099761963,3.280134677886963,-5.585146427154541,1.4569571018218994,-1.8400455713272095,6.3406081199646,0.44439005851745605,5.828904628753662,-3.046029567718506,-2.167492628097534,-2.2423226833343506,6.87655782699585,-5.316267490386963,-2.6305463314056396,4.135931491851807,4.263986110687256,-0.12617921829223633,2.3489742279052734,7.871162414550781,6.589025974273682,4.179136276245117,-9.107708930969238
rice_cammeo_and_osmancik,350.3169860839844,-5132.67236328125,593.9666137695312,2199.76806640625,-445.1061096191406,-460.04193115234375,-4558.3916015625,1020.8343505859375,-1185.763916015625,2223.46142578125,-138.0603790283203,2668.006103515625,-4446.5732421875,185.1757049560547,-1297.7265625,4566.81103515625,-273.9654846191406,4736.71337890625,-2312.98828125,-873.5427856445312,-1662.0699462890625,5342.80224609375,-4698.5537109375,-2374.928955078125,2965.47314453125,3957.617919921875,70.922119140625,1882.84765625,6105.171875,4531.23828125,3302.173828125,-6875.8701171875
bone_marrow_transplant:_children,2419.52294921875,-29510.00390625,3327.399169921875,12654.7138671875,-2595.914794921875,-2463.6171875,-25910.228515625,5713.900390625,-7170.36181640625,12787.4609375,-1005.1300048828125,15284.5,-25513.74609375,1411.844482421875,-7301.74072265625,26129.822265625,-1349.8675537109375,27044.244140625,-13327.349609375,-5127.08984375,-9402.06640625,30865.025390625,-26866.837890625,-13702.46875,16809.966796875,22617.830078125,448.8687438964844,10748.173828125,34992.05078125,25729.734375,19242.384765625,-39488.0859375
hcv_data,2.4126038551330566,-44.28433609008789,5.81191873550415,18.434675216674805,-4.177828788757324,-4.147119045257568,-39.3272819519043,9.063928604125977,-9.191938400268555,18.654394149780273,-0.954820454120636,23.693998336791992,-38.36285400390625,2.4592223167419434,-11.262018203735352,39.898963928222656,-1.4945876598358154,40.62378692626953,-20.217687606811523,-8.461030006408691,-14.9053316116333,46.07802200317383,-40.284019470214844,-20.283742904663086,26.194726943969727,33.20335006713867,0.9407501220703125,16.02132797241211,52.59051513671875,39.500274658203125,28.136600494384766,-59.62880325317383
myocardial_infarction_complications,0.6645758748054504,-8.961044311523438,2.010183095932007,3.5937657356262207,-0.9230341911315918,-0.30111581087112427,-7.3920578956604,1.819286584854126,-1.343242883682251,3.129379987716675,-0.26986783742904663,4.199005126953125,-7.702439308166504,1.5842127799987793,-2.5361106395721436,8.568053245544434,0.24810628592967987,8.157503128051758,-4.128202438354492,-2.5201001167297363,-2.8330609798431396,9.291157722473145,-7.401252746582031,-3.8113675117492676,5.343063831329346,6.373782157897949,-0.24769553542137146,3.501843214035034,10.838537216186523,8.5383939743042,6.043942451477051,-12.34912395477295
ai4i_2020_predictive_maintenance_dataset,16.047405242919922,-240.7063446044922,28.604761123657227,102.82328796386719,-21.069412231445312,-21.335948944091797,-213.81472778320312,47.854469299316406,-54.79917526245117,103.79866027832031,-6.444491386413574,125.03703308105469,-208.4571990966797,9.574736595153809,-61.24224853515625,214.7196807861328,-12.214208602905273,222.1869354248047,-108.66648864746094,-41.60176467895508,-78.02499389648438,250.70346069335938,-219.9508056640625,-111.2650375366211,139.40240478515625,185.12338256835938,3.143542528152466,88.671630859375,286.6485900878906,213.06045532226562,154.880859375,-322.7859802246094
dry_bean_dataset,628.0020751953125,-9292.896484375,1083.371826171875,3980.59375,-809.0155029296875,-836.4854736328125,-8253.3798828125,1854.2353515625,-2136.38232421875,4020.58642578125,-245.68783569335938,4832.265625,-8054.37890625,337.2998962402344,-2350.03173828125,8271.150390625,-492.58270263671875,8572.498046875,-4190.1962890625,-1586.577880859375,-3015.515380859375,9668.453125,-8505.451171875,-4297.1650390625,5377.1181640625,7159.34375,127.43798828125,3405.66943359375,11052.953125,8211.9462890625,5972.38037109375,-12451.724609375
predict_students_dropout_and_academic_success,45.64710235595703,-391.9525451660156,25.724132537841797,174.4823455810547,-29.150671005249023,-19.624195098876953,-346.3934631347656,57.0487174987793,-120.8618392944336,186.16183471679688,-26.52264404296875,192.56289672851562,-332.7523193359375,14.567828178405762,-98.5751953125,342.69561767578125,-23.032678604125977,369.21014404296875,-175.58688354492188,-52.422607421875,-105.22998046875,421.90887451171875,-363.9448547363281,-190.22714233398438,202.99925231933594,316.49517822265625,4.170794486999512,155.84376525878906,471.361083984375,319.64910888671875,272.17242431640625,-517.8135375976562
glioma_grading_clinical_and_mutation_features,0.5171291828155518,-4.6424384117126465,1.5185348987579346,1.771777868270874,-0.2149999588727951,0.4604007601737976,-3.642566680908203,0.76254802942276,-0.6354827880859375,1.6317460536956787,-0.19241845607757568,1.2998353242874146,-3.7790303230285645,1.4399281740188599,-1.6401941776275635,4.744677543640137,0.23599004745483398,4.611547470092773,-2.0987982749938965,-1.392890214920044,-0.8620916604995728,4.784881591796875,-3.3588593006134033,-1.9060996770858765,2.4050941467285156,3.328697919845581,-0.6375359892845154,2.348600387573242,6.035682678222656,4.857114315032959,3.4967193603515625,-6.444943428039551
sepsis_survival_minimal_clinical_records,2.0724358558654785,-28.95444679260254,4.146695137023926,12.347736358642578,-2.345362424850464,-2.154578447341919,-25.628734588623047,5.750378131866455,-6.4643874168396,12.412602424621582,-0.6150148510932922,14.7103271484375,-24.695613861083984,2.0731091499328613,-7.6864118576049805,26.01875877380371,-1.0314563512802124,26.8890380859375,-13.036234855651855,-5.311192512512207,-8.81015396118164,30.597454071044922,-26.059864044189453,-13.217264175415039,16.457551956176758,21.95273208618164,0.14528770744800568,11.031745910644531,34.76607131958008,26.032352447509766,18.875736236572266,-38.8860969543457
raisin,2407.65673828125,-35235.0703125,4080.783203125,15108.5517578125,-3050.1484375,-3155.981689453125,-31296.203125,7010.60693359375,-8142.0478515625,15266.259765625,-944.9161987304688,18301.78125,-30525.009765625,1266.5789794921875,-8915.4755859375,31349.021484375,-1895.1136474609375,32524.41796875,-15872.5966796875,-5986.22412109375,-11402.1796875,36679.08984375,-32252.42578125,-16303.615234375,20354.06640625,27179.5625,475.33673095703125,12936.09375,41917.94921875,31119.84765625,22671.037109375,-47203.140625
cirrhosis_patient_survival_prediction,-5.687402248382568,-44.200828552246094,11.154767036437988,17.9122257232666,-4.470132827758789,-7.182568550109863,-43.32173538208008,13.72985553741455,0.45925599336624146,16.386920928955078,3.9333431720733643,22.9718074798584,-40.66584396362305,-1.2683570384979248,-14.563613891601562,43.3505973815918,-3.714235305786133,42.531742095947266,-20.578536987304688,-8.699935913085938,-18.38731575012207,41.48389434814453,-41.125118255615234,-17.939708709716797,32.44557571411133,33.37443161010742,-1.453099012374878,16.954914093017578,54.67876052856445,48.357479095458984,22.272918701171875,-61.33649444580078
support2,180.3775634765625,-2316.17236328125,242.94070434570312,1009.703125,-191.20993041992188,-175.8179931640625,-2067.33837890625,424.3385314941406,-578.816162109375,1038.4820556640625,-86.1538314819336,1166.481201171875,-1999.368408203125,78.8499984741211,-598.341796875,2057.134521484375,-134.86410522460938,2162.47900390625,-1044.394775390625,-356.2682189941406,-702.7269897460938,2434.05517578125,-2134.443359375,-1087.365234375,1299.407958984375,1820.8460693359375,14.185449600219727,888.6441650390625,2779.515869140625,2013.98046875,1521.8709716796875,-3092.61474609375
national_health_and_nutrition_health_survey_2013-2014_nhanes_age_prediction_subset,3.1813836097717285,-48.98823165893555,6.2411789894104,20.790945053100586,-4.221071243286133,-4.241016387939453,-43.49542236328125,9.796066284179688,-10.938969612121582,21.036571502685547,-1.1324812173843384,25.622974395751953,-42.11397933959961,2.553633213043213,-12.58594799041748,43.838134765625,-2.0567848682403564,45.2509765625,-22.11153793334961,-8.835626602172852,-15.713360786437988,51.368553161621094,-44.582088470458984,-22.54679298400879,28.29535484313965,37.26563262939453,0.7603248357772827,18.098255157470703,58.39055633544922,43.50714874267578,31.546833038330078,-65.7188949584961
aids_clinical_trials_group_study_175,19.04906463623047,-243.94155883789062,27.855335235595703,105.58442687988281,-20.28788948059082,-19.573986053466797,-216.4042510986328,46.75862121582031,-59.09124755859375,107.09354400634766,-7.777519226074219,124.1176528930664,-210.30813598632812,10.406320571899414,-62.55073165893555,216.67440795898438,-13.368914604187012,226.3432159423828,-109.46456146240234,-40.00215148925781,-75.66241455078125,256.1058654785156,-222.7356719970703,-113.5576400756836,138.14614868164062,189.47682189941406,1.8904235363006592,92.0218734741211,291.56939697265625,214.628662109375,159.41952514648438,-326.47247314453125
cdc_diabetes_health_indicators,0.7027851939201355,-4.521328926086426,1.3692556619644165,1.846185326576233,-0.1162782683968544,0.3436209559440613,-3.6817703247070312,0.7591527104377747,-0.9198566675186157,1.7324860095977783,-0.09241149574518204,1.460981011390686,-3.5214202404022217,1.4972314834594727,-1.5963232517242432,4.403364181518555,0.15378060936927795,4.428722858428955,-1.8918240070343018,-1.1443336009979248,-0.7076390981674194,5.052137851715088,-3.3273463249206543,-1.900651216506958,2.2016031742095947,3.2364602088928223,-0.4946939945220947,2.2876808643341064,5.840488433837891,4.6997880935668945,3.4645469188690186,-6.246402263641357
national_poll_on_healthy_aging_npha,0.7734165191650391,-2.262798309326172,1.2544492483139038,1.0110043287277222,0.18068936467170715,0.26509860157966614,-0.9811214208602905,0.9420552253723145,-0.3718958795070648,0.3571009337902069,0.39945119619369507,0.2848612368106842,-1.5771422386169434,1.4043529033660889,-0.7011222839355469,2.1509530544281006,0.3880850672721863,1.8439006805419922,-0.6683977246284485,-1.1820558309555054,-0.10831908881664276,2.5020194053649902,-1.0363080501556396,-0.4203619062900543,1.020611047744751,1.1485462188720703,-0.35834887623786926,0.7714962959289551,2.6578450202941895,2.6098246574401855,1.639177918434143,-2.9903159141540527
regensburg_pediatric_appendicitis,0.21525296568870544,-8.062807083129883,2.2027764320373535,3.13895845413208,-0.7962579727172852,-0.4337301254272461,-6.784626007080078,1.9674609899520874,-0.6462141871452332,2.5820324420928955,0.10335149616003036,3.7863082885742188,-7.0009002685546875,1.4010562896728516,-2.429698944091797,7.905638694763184,0.22130736708641052,7.374330997467041,-3.7194786071777344,-2.4340858459472656,-2.7391088008880615,8.099607467651367,-6.597441673278809,-3.2295939922332764,5.155311584472656,5.606625556945801,-0.27257823944091797,3.1009809970855713,9.820085525512695,8.214815139770508,5.103817939758301,-11.204343795776367
olivetti_faces,0.5103933215141296,-1.8676137924194336,1.4378491640090942,0.8020392656326294,-0.1356053501367569,0.19685399532318115,-0.8149547576904297,0.9412501454353333,0.024440431967377663,0.24795059859752655,0.31997543573379517,0.23149466514587402,-1.4784128665924072,1.4438140392303467,-0.5694797039031982,1.917646050453186,0.4418719410896301,1.5449453592300415,-0.7577780485153198,-1.1803758144378662,-0.23218372464179993,2.1842026710510254,-0.8291999101638794,-0.41415995359420776,1.0440266132354736,0.7275406718254089,-0.49247875809669495,0.7879099249839783,2.27559757232666,2.433419704437256,1.272757649421692,-2.593763828277588
20newsgroups_vectorized,,,,,,,,,,,,,,,,,,,,,,,,,,,,,,,,
covtype,8.402978897094727,-209.4068603515625,29.25893211364746,88.4866943359375,-20.114398956298828,-19.986059188842773,-188.40753173828125,44.02432632446289,-40.763153076171875,88.71138763427734,-3.3226089477539062,108.4483871459961,-183.80819702148438,7.86843204498291,-55.16395950317383,189.6025390625,-9.479756355285645,193.3666229248047,-96.5029525756836,-37.35301971435547,-70.6052474975586,215.2955322265625,-192.08847045898438,-95.7140121459961,126.0604019165039,159.34945678710938,1.060095191001892,77.6070785522461,250.9681854248047,190.24691772460938,130.9419403076172,-282.43939208984375
credit-g,6.489597320556641,-72.05657958984375,7.687915802001953,29.90200424194336,-7.052715301513672,-4.9878249168396,-61.976966857910156,12.67093276977539,-18.040889739990234,31.133087158203125,-3.6547164916992188,37.829833984375,-62.25603103637695,5.225702285766602,-16.933979034423828,64.22486877441406,-0.5322036743164062,65.04586791992188,-33.65711212158203,-14.088647842407227,-22.8444766998291,75.18306732177734,-65.47325134277344,-33.54432678222656,40.605979919433594,53.66069793701172,2.1063742637634277,25.334794998168945,84.9067611694336,60.13806915283203,47.74073028564453,-96.11878967285156
blood-transfusion-service-center,32.31855392456055,-472.00408935546875,54.121498107910156,202.01986694335938,-41.022804260253906,-41.93602752685547,-419.27642822265625,93.11790466308594,-109.51905822753906,204.8535614013672,-13.204602241516113,245.7224578857422,-408.5445251464844,17.450241088867188,-119.29823303222656,420.09393310546875,-24.557708740234375,435.75640869140625,-212.9306182861328,-80.44581604003906,-152.5380401611328,491.924072265625,-432.3277893066406,-218.70840454101562,272.2655334472656,363.7957458496094,6.960113525390625,173.37994384765625,561.5304565429688,415.6168518066406,304.143310546875,-632.148681640625
monks-problems-2,0.9513967633247375,-2.7825729846954346,1.698254942893982,0.5929848551750183,0.33102652430534363,1.2389981746673584,-0.9748493432998657,0.43349939584732056,-0.6093939542770386,1.2023684978485107,-0.2204173505306244,-0.6419046521186829,-1.7108895778656006,2.135171413421631,-0.8245519399642944,3.0520899295806885,0.5983749628067017,3.2539162635803223,-1.2296535968780518,-1.3992706537246704,0.36859339475631714,2.5026237964630127,-0.7614263296127319,-1.057489275932312,0.502456784248352,1.30312979221344,-1.2037543058395386,1.7094147205352783,3.765489101409912,3.2266910076141357,2.5702853202819824,-3.717799425125122
tic-tac-toe,0.9327252507209778,-2.7574689388275146,1.6361280679702759,0.6068248748779297,0.32182133197784424,1.230263113975525,-1.0090017318725586,0.403494268655777,-0.6122965812683105,1.200269341468811,-0.24152548611164093,-0.6287933588027954,-1.7102060317993164,2.0912702083587646,-0.8403147459030151,3.0302364826202393,0.5651646852493286,3.234304428100586,-1.2177531719207764,-1.344469666481018,0.3714069426059723,2.4998385906219482,-0.7882868647575378,-1.0676324367523193,0.5094794631004333,1.3345708847045898,-1.1782852411270142,1.7354971170425415,3.753420352935791,3.1781857013702393,2.5677008628845215,-3.6884219646453857
monks-problems-1,0.9503464698791504,-2.7923035621643066,1.7136732339859009,0.5827568769454956,0.32871609926223755,1.243120789527893,-0.9630457162857056,0.445966899394989,-0.5993412733078003,1.2006410360336304,-0.21343457698822021,-0.6421161890029907,-1.719773530960083,2.1485142707824707,-0.8175004720687866,3.069308042526245,0.6144590973854065,3.2633042335510254,-1.2401955127716064,-1.4262148141860962,0.36324381828308105,2.492105007171631,-0.7585085034370422,-1.0469553470611572,0.5097047686576843,1.2920734882354736,-1.207385540008545,1.701185941696167,3.7718002796173096,3.2362513542175293,2.564690113067627,-3.7300848960876465
steel-plates-fault,16847.890625,-145260.09375,13392.2939453125,65257.2734375,-10962.390625,-6989.64697265625,-127963.765625,23180.97265625,-42558.80078125,67659.296875,-8461.2001953125,68722.1484375,-124152.546875,7684.32958984375,-37760.01953125,127490.5234375,-8634.1044921875,136463.03125,-65028.6171875,-19830.244140625,-38567.6640625,155984.90625,-132949.546875,-69604.4375,76241.984375,116318.828125,-1151.042236328125,58886.6875,175716.796875,123057.1015625,100181.9765625,-193039.03125
kr-vs-kp,0.9859954714775085,-2.5595602989196777,1.5900661945343018,0.8798373937606812,0.3158336877822876,0.9671672582626343,-0.952995777130127,0.5537761449813843,-0.6456491947174072,0.8554288744926453,-0.02876739203929901,-0.5496780872344971,-1.6192514896392822,1.7837982177734375,-0.847764790058136,2.6729512214660645,0.41110295057296753,2.76171612739563,-1.0409460067749023,-1.3072819709777832,0.3308282196521759,2.5125279426574707,-0.8984168767929077,-0.8169957995414734,0.6548008322715759,1.425101399421692,-1.0196754932403564,1.4719767570495605,3.414069414138794,2.940995931625366,2.347569227218628,-3.3750290870666504
qsar-biodeg,0.704245924949646,-4.019796848297119,1.2452375888824463,1.6512655019760132,-0.0034105777740478516,0.43645185232162476,-3.0960865020751953,0.6869045495986938,-0.809850811958313,1.43050217628479,-0.08130653202533722,1.088709831237793,-3.084865093231201,1.4043470621109009,-1.436570405960083,3.970968246459961,0.14831557869911194,3.9688315391540527,-1.625281572341919,-1.111414909362793,-0.5193181037902832,4.422548294067383,-2.813047170639038,-1.6376888751983643,1.8883317708969116,2.906386375427246,-0.4885833263397217,2.06059193611145,5.2157511711120605,4.1785712242126465,3.158362627029419,-5.53010368347168
wdbc,5.793920040130615,-83.73258972167969,10.729138374328613,35.939910888671875,-7.1616411209106445,-6.774061679840088,-74.36241149902344,16.537708282470703,-18.906478881835938,36.01284408569336,-2.223015308380127,42.508602142333984,-72.33143615722656,4.244561672210693,-21.908639907836914,74.9881362915039,-4.108890533447266,77.6156234741211,-37.736854553222656,-14.474931716918945,-26.359094619750977,87.6177978515625,-76.01834106445312,-38.608924865722656,48.183555603027344,64.45640563964844,0.3678787350654602,31.71051597595215,100.34269714355469,74.85780334472656,54.290000915527344,-112.47737121582031
phoneme,1.001038908958435,-3.017314910888672,1.97012460231781,0.503008246421814,0.3579816222190857,1.2850061655044556,-0.8446024656295776,0.6151937246322632,-0.5883253216743469,1.2171484231948853,-0.1501283347606659,-0.665846586227417,-1.811867356300354,2.321829319000244,-0.7208636403083801,3.280198335647583,0.7723740339279175,3.468285322189331,-1.3946738243103027,-1.7655322551727295,0.2606673240661621,2.5477631092071533,-0.7213677167892456,-1.1049926280975342,0.5874752402305603,1.1809877157211304,-1.279096245765686,1.6027990579605103,3.9447579383850098,3.4700589179992676,2.6323628425598145,-3.9724249839782715
diabetes,3.56489634513855,-61.02266311645508,7.784863471984863,25.66473960876465,-5.600243091583252,-5.423370361328125,-54.289588928222656,12.202667236328125,-13.141528129577637,26.104095458984375,-1.486471176147461,32.10054397583008,-52.8541145324707,3.175445318222046,-15.649879455566406,54.8633918762207,-2.2873902320861816,56.193206787109375,-27.846750259399414,-11.106949806213379,-20.01877784729004,63.56695556640625,-55.646392822265625,-28.071239471435547,35.70500946044922,46.17365646362305,0.9870666265487671,22.424076080322266,72.72213745117188,54.23280715942383,39.042503356933594,-82.03227996826172
ozone-level-8hr,-6.321118354797363,-397.72222900390625,72.05452728271484,156.90676879882812,-44.283782958984375,-61.39570236206055,-357.44573974609375,108.684326171875,-43.892601013183594,147.9083251953125,12.48352336883545,231.6707763671875,-355.26385498046875,10.926485061645508,-98.88810729980469,364.6653747558594,-13.11761474609375,354.3065185546875,-183.8657684326172,-92.39668273925781,-166.48892211914062,391.1479187011719,-360.70758056640625,-171.22555541992188,268.2247619628906,282.180419921875,13.746545791625977,123.10758209228516,462.9266052246094,383.8015441894531,223.1659393310547,-542.7940063476562
hill-valley,779.4357299804688,-11557.900390625,1333.4649658203125,4960.7685546875,-993.1029052734375,-1037.5478515625,-10281.416015625,2298.9755859375,-2668.65185546875,5015.67724609375,-305.20556640625,5998.6220703125,-10010.205078125,395.5210266113281,-2934.274658203125,10285.6005859375,-640.7506103515625,10685.35546875,-5200.6591796875,-1948.364501953125,-3735.803466796875,12032.4150390625,-10588.0283203125,-5349.68701171875,6675.80322265625,8933.6689453125,151.1208953857422,4255.96728515625,13759.232421875,10216.619140625,7434.0419921875,-15482.609375
kc2,70.90119934082031,-1378.7584228515625,178.07301330566406,588.837890625,-118.3895034790039,-138.76132202148438,-1235.6668701171875,294.8435363769531,-287.90936279296875,586.046875,-17.917444229125977,721.132080078125,-1198.3721923828125,39.254398345947266,-357.1113586425781,1234.1207275390625,-85.24517822265625,1276.905029296875,-617.1450805664062,-238.21572875976562,-462.3904724121094,1424.111083984375,-1260.0357666015625,-630.249755859375,817.5604248046875,1061.4930419921875,14.244384765625,504.947021484375,1642.476318359375,1252.421142578125,867.3855590820312,-1854.1881103515625
eeg-eye-state,399.35113525390625,-5861.37646484375,679.9321899414062,2512.44287109375,-508.028564453125,-525.6769409179688,-5206.06494140625,1167.0169677734375,-1352.552978515625,2538.514404296875,-156.6064453125,3045.700927734375,-5078.15966796875,211.56027221679688,-1482.982177734375,5215.5810546875,-314.02325439453125,5409.74169921875,-2640.875732421875,-997.279296875,-1898.116943359375,6101.001953125,-5364.88916015625,-2711.625732421875,3387.26953125,4519.79296875,79.64424133300781,2151.087646484375,6972.66015625,5177.58447265625,3770.34521484375,-7852.72119140625
climate-model-simulation-crashes,1.9128261804580688,-26.48016357421875,3.9842941761016846,11.268102645874023,-2.073700428009033,-1.9278671741485596,-23.454023361206055,5.327698707580566,-5.828615665435791,11.364416122436523,-0.4567331373691559,13.356225967407227,-22.50863265991211,2.085190534591675,-7.096681118011475,23.843852996826172,-0.9693697094917297,24.72239112854004,-11.861261367797852,-4.844503879547119,-7.961935520172119,28.064233779907227,-23.668312072753906,-12.087797164916992,14.988690376281738,20.005290985107422,0.010447311215102673,10.209742546081543,31.874725341796875,24.110490798950195,17.26907730102539,-35.62122344970703
spambase,0.223103329539299,-9.911211013793945,2.531832695007324,3.915381669998169,-0.707293689250946,-0.4168582856655121,-8.548064231872559,2.318315267562866,-1.0318084955215454,3.6149230003356934,0.08222170174121857,4.240054130554199,-8.472114562988281,1.3658109903335571,-3.1247334480285645,9.629280090332031,-0.2469450980424881,9.53034496307373,-4.431554794311523,-2.444784641265869,-3.0660202503204346,9.923639297485352,-8.132338523864746,-4.176443576812744,6.029728412628174,7.249855041503906,-0.6113762855529785,4.198146820068359,12.300817489624023,10.274541854858398,6.367619514465332,-13.67637825012207
kc1,18.98479652404785,-412.7168884277344,52.786376953125,172.5963897705078,-39.37327194213867,-42.67607498168945,-368.0212707519531,87.39092254638672,-83.76547241210938,173.7887420654297,-6.785626411437988,221.8522491455078,-360.62078857421875,14.149765014648438,-103.4326400756836,370.60662841796875,-17.345407485961914,377.3355407714844,-188.95379638671875,-76.72061920166016,-143.0499267578125,423.82330322265625,-378.6976318359375,-188.42715454101562,247.9613800048828,311.3336486816406,9.084216117858887,145.368896484375,488.46881103515625,368.7283630371094,257.63372802734375,-554.8865966796875
ilpd,4.236793518066406,-68.38187408447266,8.638352394104004,28.957653045654297,-6.038249969482422,-6.114031791687012,-60.79510498046875,13.769383430480957,-15.05817699432373,29.30341148376465,-1.5720329284667969,35.858863830566406,-59.04441452026367,3.2731375694274902,-17.489477157592773,61.234031677246094,-2.958630323410034,63.0802116394043,-30.965694427490234,-12.281686782836914,-22.274555206298828,71.38646697998047,-62.338661193847656,-31.49480628967285,39.797401428222656,52.0205078125,1.0604842901229858,25.123075485229492,81.45124816894531,60.81304931640625,43.81964874267578,-91.80277252197266
pc1,-47.87885665893555,-2445.0498046875,419.78839111328125,969.7394409179688,-266.449951171875,-375.88323974609375,-2215.37548828125,654.3060302734375,-279.8624572753906,927.2806396484375,71.53944396972656,1421.98095703125,-2182.99658203125,36.80025863647461,-613.9556884765625,2242.97412109375,-97.115478515625,2196.081298828125,-1129.188720703125,-545.4383544921875,-1015.4850463867188,2404.25732421875,-2237.69921875,-1059.310302734375,1642.008056640625,1759.8792724609375,86.1195297241211,768.7685546875,2854.75439453125,2343.550537109375,1374.0252685546875,-3330.381591796875
pc3,133.63427734375,-1748.020751953125,159.56326293945312,741.5699462890625,-158.28280639648438,-148.04598999023438,-1544.51416015625,315.3475341796875,-439.60302734375,774.0909423828125,-74.26280975341797,931.3282470703125,-1510.1968994140625,57.627197265625,-421.5729064941406,1548.22216796875,-70.48653411865234,1604.5347900390625,-799.328369140625,-298.62744140625,-563.1719360351562,1825.6715087890625,-1619.40576171875,-820.9928588867188,991.8699340820312,1346.6265869140625,53.28559494018555,625.5369873046875,2066.03759765625,1472.8189697265625,1141.04931640625,-2327.666259765625
SpeedDating,0.5835797786712646,-3.0637013912200928,1.211098551750183,1.1976733207702637,0.0367460735142231,0.6850187182426453,-2.103257894515991,0.4657476544380188,-0.3976288139820099,0.907159686088562,-0.16392752528190613,0.3486272394657135,-2.380746364593506,1.4226418733596802,-1.2341787815093994,3.3068442344665527,0.24181342124938965,3.161771297454834,-1.29897940158844,-1.074636459350586,-0.19725218415260315,3.1433022022247314,-1.8337433338165283,-1.1317476034164429,1.381119966506958,2.2031712532043457,-0.6477696895599365,1.8117268085479736,4.148399353027344,3.3759841918945312,2.58898663520813,-4.283663749694824
mnist_784,2.1897354125976562,-44.4304313659668,6.817480564117432,18.474811553955078,-4.396312713623047,-3.750401258468628,-39.429786682128906,9.094377517700195,-8.381458282470703,18.299480438232422,-1.021242380142212,22.794696807861328,-38.77063751220703,3.2170538902282715,-11.92812442779541,40.5827522277832,-1.3107688426971436,40.83578872680664,-20.41737937927246,-8.648235321044922,-14.881098747253418,46.026100158691406,-39.77570343017578,-20.212488174438477,26.607812881469727,33.198081970214844,-0.04310760647058487,16.753833770751953,53.3216667175293,40.849815368652344,28.393840789794922,-60.35021209716797
banknote-authentication,0.2568265497684479,-3.836437225341797,2.10556697845459,1.4294198751449585,-0.34388381242752075,-0.5321358442306519,-3.0144150257110596,1.7277787923812866,-0.04850301891565323,0.9322671890258789,0.733197033405304,1.913527250289917,-2.9804046154022217,1.4619412422180176,-1.0955429077148438,3.536769390106201,0.21473035216331482,3.197990894317627,-1.5318001508712769,-1.602762222290039,-1.4665321111679077,4.406668663024902,-2.567183017730713,-1.3409370183944702,2.651148796081543,1.8950427770614624,-0.2837160527706146,1.1834046840667725,4.443451404571533,4.992905139923096,2.1543636322021484,-5.404587745666504
Titanic,0.7612605690956116,-2.306849718093872,1.1328504085540771,0.824314296245575,0.2847074568271637,0.9421893954277039,-1.1720993518829346,0.35963281989097595,-0.5825634002685547,1.0026500225067139,-0.16050167381763458,-0.48139142990112305,-1.523729920387268,1.4612617492675781,-0.8729466199874878,2.5062851905822754,0.11837704479694366,2.777470111846924,-0.9016904830932617,-0.842746913433075,0.38037601113319397,2.4341893196105957,-0.9772499799728394,-0.9778833389282227,0.5649954676628113,1.5209312438964844,-0.912336528301239,1.7237880229949951,3.3119819164276123,2.6419105529785156,2.20623779296875,-3.123178005218506
Satellite,7.048821449279785,-114.38370513916016,13.694650650024414,48.41387176513672,-10.275636672973633,-10.477033615112305,-101.69610595703125,22.903528213500977,-25.40129280090332,49.1064453125,-2.891458034515381,60.277366638183594,-99.11616516113281,4.753207683563232,-28.9522647857666,102.30433654785156,-5.1985883712768555,105.348388671875,-51.89019012451172,-20.33631134033203,-37.668190002441406,118.9472427368164,-104.6688461303711,-52.740577697753906,66.7366943359375,87.32645416259766,2.0693633556365967,41.6820182800293,135.96389770507812,101.10400390625,73.17753601074219,-153.45187377929688
bank-marketing,3.154205322265625,-43.41495895385742,6.5455780029296875,18.519351959228516,-3.4996707439422607,-3.4747512340545654,-38.1092414855957,9.159323692321777,-9.240840911865234,17.955120086669922,-0.7623996734619141,21.650728225708008,-37.27652359008789,2.913006544113159,-11.51941967010498,39.025672912597656,-2.268524169921875,40.24413299560547,-19.230119705200195,-8.146246910095215,-13.779574394226074,45.37224578857422,-38.492584228515625,-19.72811508178711,25.159353256225586,33.09238052368164,-0.21818847954273224,16.48468780517578,52.027000427246094,40.092220306396484,28.14554214477539,-58.594757080078125
one-hundred-plants-texture,0.5657750368118286,-2.2584826946258545,1.2058171033859253,1.0103965997695923,-0.0994613915681839,0.7099332809448242,-1.1755332946777344,0.42447710037231445,-0.0539761558175087,0.3616580069065094,-0.13113372027873993,-0.041207455098629,-1.923750638961792,1.4488896131515503,-1.0066564083099365,2.6642489433288574,0.4469258785247803,2.1679155826568604,-0.9855245351791382,-1.1463960409164429,-0.01499850768595934,2.170964002609253,-1.130845308303833,-0.49863356351852417,1.1003614664077759,1.5401748418807983,-0.6977816224098206,1.400959849357605,3.067345380783081,2.5826430320739746,2.005837917327881,-3.2445857524871826
arrhythmia,0.18549498915672302,-14.527275085449219,3.318129062652588,5.553219318389893,-1.7773704528808594,-1.8537105321884155,-12.67757797241211,3.7951560020446777,-1.73123037815094,5.144427299499512,0.2763131260871887,8.287846565246582,-12.597006797790527,1.437872290611267,-3.5864734649658203,13.383338928222656,0.08495521545410156,12.78887939453125,-6.795362949371338,-4.046544551849365,-5.9722089767456055,15.000097274780273,-12.681445121765137,-6.3844733238220215,9.618932723999023,9.816973686218262,0.30825576186180115,4.579312801361084,16.940248489379883,14.168322563171387,8.617975234985352,-19.930503845214844
amazon-commerce-reviews,0.5439300537109375,-2.3950235843658447,1.2194757461547852,1.003000020980835,-0.16550514101982117,0.5985767245292664,-1.300264596939087,0.515470564365387,-0.09821178764104843,0.45060309767723083,-0.08075957745313644,0.19215039908885956,-2.0341544151306152,1.4816638231277466,-0.9415603876113892,2.704489231109619,0.5507292747497559,2.1810355186462402,-1.095149278640747,-1.1892492771148682,-0.14132201671600342,2.363349199295044,-1.3042343854904175,-0.581814169883728,1.2075453996658325,1.4778848886489868,-0.5752792358398438,1.293224573135376,3.1310882568359375,2.620821475982666,1.9773439168930054,-3.3819994926452637
one-hundred-plants-shape,0.5748737454414368,-2.264864683151245,1.2331044673919678,1.025994062423706,-0.10157939046621323,0.6994561553001404,-1.1676288843154907,0.44886571168899536,-0.045682333409786224,0.3382755517959595,-0.11763507127761841,-0.036643315106630325,-1.9241338968276978,1.4615103006362915,-1.01138436794281,2.661181926727295,0.44327759742736816,2.160916566848755,-0.9764555096626282,-1.166220784187317,-0.02085559442639351,2.188528537750244,-1.1181093454360962,-0.4927992820739746,1.1133407354354858,1.5362486839294434,-0.7063275575637817,1.4018709659576416,3.068737030029297,2.612293004989624,2.0036187171936035,-3.2584025859832764
Bioresponse,0.6744439005851746,-2.464542865753174,1.14070725440979,0.7280672788619995,0.12528644502162933,1.0629985332489014,-1.2912677526474,0.1421925574541092,-0.46809205412864685,1.0262556076049805,-0.4178466796875,-0.3572380542755127,-1.7547168731689453,1.614241600036621,-0.952010989189148,2.8250699043273926,0.3335285782814026,2.891632080078125,-1.1152766942977905,-0.9428356289863586,0.22552748024463654,2.3994486331939697,-1.0462214946746826,-1.042999505996704,0.6527779698371887,1.5947580337524414,-0.9359748959541321,1.784813642501831,3.500619888305664,2.7371554374694824,2.4223926067352295,-3.4139504432678223
