,ft0,ft1,ft2,ft3,ft4,ft5,ft6,ft7,ft8,ft9,ft10,ft11,ft12,ft13,ft14,ft15,ft16,ft17,ft18,ft19,ft20,ft21,ft22,ft23,ft24,ft25,ft26,ft27,ft28,ft29,ft30,ft31
abalone,0.43354416,-2.0158906,1.4248252,0.82372916,-0.23406088,0.349488,-1.0592045,0.7381699,0.15006669,0.3610205,0.20025718,0.2636544,-1.7634561,1.5921866,-0.7596354,2.29284,0.6669668,1.7058895,-0.94484854,-1.1252048,-0.17532444,2.144912,-1.0051259,-0.38098237,1.1308768,0.87235487,-0.5337738,0.97493315,2.5653994,2.533751,1.4515953,-2.8995454
adult,-75.25256,-2298.8098,372.0329,909.3667,-234.24747,-385.87762,-2108.1333,629.8591,-248.73154,870.5563,87.38452,1371.3038,-2041.7942,-25.075895,-579.3221,2107.7207,-135.89389,2086.672,-1039.697,-502.2981,-981.95215,2250.1313,-2119.9207,-993.8275,1559.082,1681.6061,101.66331,712.94324,2675.6292,2217.8774,1270.8463,-3127.7556
balance_scale,0.48335546,-2.8754287,1.0865033,0.992894,-0.013818169,-0.063497506,-1.8554497,1.0061768,-0.39712623,0.7468418,0.36009544,1.2186029,-2.0791507,1.2373642,-0.7184094,2.6923823,0.38011175,2.4348085,-1.0461742,-1.2431266,-0.725737,3.2142937,-1.823055,-0.9470173,1.5703197,1.455281,0.0023722171,0.8449377,3.291422,3.034081,1.8447012,-3.8554127
breast_cancer,0.7426866,-2.486125,1.284509,0.7613118,0.17809221,1.0469663,-1.207289,0.28332305,-0.45541066,0.9816238,-0.2831547,-0.42370525,-1.7326905,1.6951685,-0.9437044,2.8259044,0.36462492,2.8911176,-1.0898892,-1.0477197,0.2850359,2.4000049,-0.98407954,-0.959634,0.6698662,1.5242262,-0.9788988,1.7590977,3.5052466,2.8251204,2.3763802,-3.4274013
breast_cancer_wisconsin_original,0.6025845,-3.099016,1.0880477,1.0814655,0.25248876,0.16475351,-2.1962352,0.80319774,-0.743996,1.2036736,0.19998385,0.9791713,-1.9702914,1.2709438,-0.91628456,2.8295512,0.06275499,3.0502617,-0.9926735,-0.90247095,-0.46506113,3.6651103,-1.8362808,-1.3722408,1.2973788,1.8105729,-0.27022213,1.3316866,3.8176486,3.4711766,2.3585756,-4.187385
breast_cancer_wisconsin_prognostic,8.461029,-117.85256,14.291684,50.528004,-10.288042,-9.530548,-104.50979,22.82975,-27.33907,51.09543,-3.5907943,60.257812,-101.89485,5.7208185,-30.327713,105.2579,-5.4814467,108.958984,-53.37309,-20.236319,-37.1542,123.34589,-107.42688,-54.612617,67.55452,90.66045,0.99156797,44.2172,140.89381,104.09973,76.57571,-158.0441
car_evaluation,0.5421384,-2.050627,1.4048165,0.7887126,-0.034031294,0.5227258,-0.8341255,0.67704725,0.048780225,0.3364325,0.20471573,-0.0118974205,-1.6928699,1.6090176,-0.7923263,2.355304,0.72440463,1.731069,-0.8825778,-1.2007717,0.0072033643,1.8627136,-0.8687128,-0.21092384,0.98795825,0.9227349,-0.5684349,0.8969671,2.561955,2.4707325,1.559108,-2.8410196
credit_approval,4.1536813,-38.239357,4.1808195,16.464315,-2.8608384,-2.1067486,-33.025536,6.593404,-10.224528,16.719738,-1.8656204,18.886961,-32.330997,2.8192446,-9.729236,33.955757,-1.598624,35.541252,-16.940928,-6.7240043,-10.970564,40.66445,-34.15081,-17.83876,20.615646,29.648895,0.26748163,14.714053,45.708588,32.924076,26.147537,-51.037815
contraceptive_method_choice,0.4346485,-6.6452723,1.7236973,2.574744,-0.6155859,-0.46587858,-5.6185923,1.5845243,-0.97893745,2.4113598,0.1835304,3.479721,-5.5013556,1.4262426,-1.8301071,6.252361,0.37114972,5.9292665,-2.984382,-1.9301335,-2.1281953,7.166272,-5.5262885,-2.709206,3.999204,4.360223,0.03582325,2.344424,7.914913,6.508254,4.248309,-9.11055
dermatology,0.39149445,-3.3414388,1.5365504,1.281419,-0.32101947,0.1632644,-2.250897,0.97584283,-0.07177882,0.699389,0.1634168,1.1160798,-2.8189797,1.4936817,-1.0922725,3.4749532,0.6013096,2.8656633,-1.5252489,-1.548819,-0.81632316,3.4027011,-2.195537,-0.99122715,2.0467114,1.9030943,-0.36572558,1.3232906,4.0960627,3.6631083,2.261742,-4.695539
ecoli,0.45551595,-1.9448973,1.3969855,0.7640335,-0.13686617,0.22443481,-0.8244766,0.96258324,0.04811888,0.23538208,0.28389195,0.21941738,-1.5361469,1.384733,-0.55332035,2.002087,0.41182894,1.6601493,-0.81035584,-1.2422811,-0.3063313,2.1719918,-0.86094797,-0.49543756,1.1075518,0.77849805,-0.4819041,0.8197562,2.3686516,2.4597688,1.2900852,-2.6661072
glass_identification,0.5357355,-14.699994,2.742093,5.869336,-1.5886209,-1.350901,-12.97418,3.2098575,-2.3214495,5.7072535,-0.15090695,7.9855986,-12.688618,1.598572,-3.9168983,13.627008,0.005589676,13.378992,-6.8230424,-3.5096397,-5.194028,15.3994465,-12.983854,-6.5760927,9.054281,10.470082,0.19794635,5.359753,17.545816,13.75929,9.261484,-20.105885
heart_disease,3.8397584,-61.72431,8.069499,26.03897,-5.5876245,-5.565074,-54.735474,12.574191,-13.334755,26.191168,-1.3687298,32.45215,-53.390797,3.3148026,-15.760831,55.3567,-2.4664092,56.733604,-27.984467,-11.378023,-20.301033,64.399826,-56.052696,-28.32427,36.10697,46.681644,0.9459999,22.553125,73.43144,55.156883,39.495384,-83.01644
hepatitis,1.7965631,-21.807302,3.3654404,9.4202385,-1.5252931,-1.6014607,-19.174528,4.490711,-5.0123334,9.271746,-0.25303602,11.029026,-18.324469,1.7697785,-5.822223,19.499828,-0.83097994,20.289759,-9.596683,-4.134444,-6.423397,23.296011,-19.435923,-9.825354,12.196762,16.517887,0.07178955,8.275665,26.163488,19.814016,14.306234,-29.25624
image_segmentation,1.1371326,-36.66254,6.113092,14.867923,-3.817099,-4.344136,-32.692585,8.667444,-6.298873,14.738721,0.07055149,20.243008,-31.918,2.0122294,-9.152576,33.08584,-1.1955036,33.196064,-16.855404,-7.7964616,-13.645494,37.916695,-33.117435,-16.63916,22.903385,26.563244,0.76563454,12.510295,43.185646,34.19327,22.262249,-49.659634
ionosphere,0.9832002,-2.8556323,1.8827223,0.6038512,0.3119101,1.1870155,-0.8961865,0.5902679,-0.54209155,1.0821337,-0.11956475,-0.60461146,-1.7619445,2.2137504,-0.7901084,3.1052938,0.68067163,3.233123,-1.2768252,-1.6187763,0.28274053,2.522885,-0.74163103,-0.9831916,0.6128256,1.2329475,-1.2179348,1.5970732,3.776879,3.3529878,2.521997,-3.7993894
iris,0.36145228,-3.5922065,1.3087288,1.2252192,-0.23735516,-0.20276527,-2.5946543,1.1427896,-0.30914494,0.9660927,0.3388639,1.7307949,-2.8241017,1.3190944,-0.9453761,3.457428,0.49588814,3.0359151,-1.4775337,-1.4870156,-1.1380847,3.8845935,-2.5140004,-1.2534406,2.1854453,1.9000056,0.00013883114,1.0950667,4.159297,3.7610326,2.2124038,-4.9355974
isolet,0.3340735,-1.9512818,1.5386015,0.6784792,-0.31803,0.1918731,-1.0657604,0.8495843,0.14162526,0.5300191,0.34107947,0.38541108,-1.6729378,1.6263634,-0.5835285,2.109522,0.7846855,1.5697132,-1.0119983,-1.072075,-0.29323125,2.2512856,-1.0277152,-0.48884663,1.1446657,0.50270635,-0.4838613,0.7674857,2.3940456,2.514728,1.2007244,-2.7550554
letter_recognition,-0.10629239,-6.6794558,1.8103911,2.2944412,-1.0156734,-0.8838515,-5.6204443,1.8937979,-0.23268457,2.0597196,0.24202251,4.103779,-5.8918853,1.3033934,-1.6398723,6.501548,0.5772969,5.7134852,-3.233363,-2.39494,-2.9365344,6.763257,-5.617626,-2.7131095,4.6730423,3.973166,0.32093114,1.979119,7.689195,6.6350274,3.7960296,-9.336237
lung_cancer,1.0708195,-2.2533543,1.4753497,1.1627094,0.39292088,0.2527761,-0.61931473,1.185475,-0.6472558,0.35829782,0.6522895,0.0025325299,-1.3742824,1.4677566,-0.5781727,1.9141045,0.35213476,1.7336156,-0.50440806,-1.280568,0.103877924,2.590829,-0.8691311,-0.2781159,0.8163473,1.039064,-0.4770288,0.5351905,2.4978774,2.6406887,1.612038,-2.809822
mushroom,0.7415855,-2.488933,1.2361232,0.7539636,0.16845858,1.0711514,-1.2302263,0.21693662,-0.49848622,1.0158508,-0.34683713,-0.43045503,-1.7306242,1.668511,-0.9470539,2.8201303,0.34488043,2.9107075,-1.1022028,-1.0071623,0.28059512,2.417944,-1.0040424,-1.0086982,0.6408533,1.5661972,-0.98115367,1.7786491,3.5180047,2.791552,2.4219213,-3.4216125
optical_recognition_of_handwritten_digits,-0.05143013,-6.427437,1.8767073,2.300532,-0.92867005,-0.47015214,-5.452039,1.5466106,-0.20517921,1.9822067,0.078761175,3.4651732,-5.7025948,1.4487298,-1.8687779,6.459504,0.663002,5.6285033,-3.1600814,-2.2130866,-2.4721527,6.4754944,-5.3160853,-2.555593,4.356255,4.0279713,-0.0054163933,2.2679172,7.718412,6.478756,3.9284623,-9.070165
pen-based_recognition_of_handwritten_digits,4.015226,-67.68796,8.618504,28.423569,-6.2537756,-6.1556945,-60.064827,13.68649,-14.509928,28.766724,-1.6087319,35.742264,-58.70893,3.5248024,-17.23417,60.808002,-2.5605416,62.152313,-30.836414,-12.473677,-22.426165,70.36678,-61.62617,-31.05283,39.731956,51.13494,1.1936371,24.643238,80.47598,60.208984,43.218872,-91.02298
congressional_voting_records,1.0324643,-2.8529947,1.9367183,0.61476845,0.34193602,1.1949875,-0.86195946,0.6186091,-0.58061314,1.1332048,-0.0724429,-0.63664,-1.7345005,2.2555091,-0.77004254,3.089844,0.7001437,3.2483754,-1.2658968,-1.6284859,0.34573978,2.5395265,-0.7242512,-0.9568723,0.55661714,1.1982188,-1.2579615,1.5821977,3.7745533,3.365631,2.5083454,-3.7951493
wine,6.174109,-92.90122,11.458492,39.572304,-8.106302,-8.324626,-82.45372,18.704063,-20.965204,39.93143,-2.210462,48.600945,-80.2002,4.212957,-23.599916,82.878265,-4.354399,85.637146,-41.897667,-16.443913,-30.128422,97.10976,-84.72168,-42.859882,53.820168,70.95174,1.4155105,34.048306,110.51821,82.4328,59.675392,-124.594765
yeast,0.49385405,-2.0208287,1.2726345,0.8314104,-0.09103591,0.3455853,-0.94072646,0.7901325,0.017358948,0.23681128,0.15767291,0.21131477,-1.6146181,1.3696324,-0.69439065,2.1849086,0.3742517,1.8022645,-0.80048597,-1.2021465,-0.23179725,2.1543212,-0.9268295,-0.4611385,1.0878012,1.0524266,-0.4845252,0.96911097,2.5361972,2.476224,1.5132879,-2.823667
zoo,0.51524097,-2.0896368,1.4270875,0.8058918,-0.12274085,0.39173728,-0.9643692,0.7519984,-0.027468324,0.42009917,0.22849968,0.15886977,-1.7030165,1.5802932,-0.71485984,2.2584138,0.68558985,1.7351135,-0.9493248,-1.1683656,-0.128689,2.1534991,-0.9969145,-0.39530057,1.0675688,0.85748464,-0.53581667,0.8790053,2.5967572,2.5071118,1.5033718,-2.8874996
statlog_heart,4.159523,-62.0709,7.89616,26.416235,-5.3473015,-5.250186,-55.083344,12.349823,-13.942604,26.693518,-1.5159309,32.161034,-53.48575,3.2203097,-15.987895,55.547527,-2.6837883,57.358448,-28.043753,-11.035297,-19.786478,64.974365,-56.450703,-28.581049,35.79726,47.346977,0.7580284,23.06032,74.08572,55.18357,40.04541,-83.29039
statlog_landsat_satellite,6.7896547,-112.05415,13.653735,47.319496,-10.15143,-10.4600315,-99.5203,22.714394,-24.558914,47.82459,-2.6615615,59.249092,-97.173386,4.7727156,-28.287378,100.25514,-4.9942,103.0074,-50.831024,-20.213919,-37.208656,116.37891,-102.39167,-51.545025,65.653,85.28161,2.1060867,40.588146,133.03781,99.31447,71.46806,-150.41948
statlog_shuttle,2.4808693,-45.81541,6.734483,19.017857,-4.389268,-4.6335497,-40.523125,10.028591,-9.13203,18.910145,-0.57156867,24.511087,-39.72535,2.7334452,-11.545466,41.135704,-1.6850761,41.747013,-20.823284,-9.081162,-15.859657,47.653893,-41.313572,-20.879816,27.50169,33.956127,0.77605593,16.262194,54.210754,41.759583,28.772415,-61.825275
statlog_vehicle_silhouettes,9.813764,-158.16354,19.199291,67.04582,-14.190106,-14.687384,-140.48578,32.04989,-34.978893,67.676636,-3.781386,83.23232,-137.17024,6.48195,-39.98176,141.32504,-7.4400663,145.50928,-71.61773,-28.148777,-52.269073,164.29996,-144.52487,-72.821915,92.45851,120.72146,2.6811416,57.466747,187.88113,140.29082,100.99669,-212.26079
connectionist_bench_sonar_mines_vs_rocks,0.78735983,-2.5489821,1.3223618,0.7887751,0.1944176,1.0363619,-1.2857424,0.3252185,-0.5196508,1.0593876,-0.2501377,-0.39159864,-1.7383417,1.7794163,-0.962578,2.8232539,0.34846765,2.958429,-1.079204,-0.99921167,0.3202303,2.5700111,-1.0125443,-1.0133649,0.6512711,1.5262252,-0.9882223,1.8075645,3.5911682,2.9380193,2.398888,-3.4946704
magic_gamma_telescope,1.8625634,-53.581867,8.68359,21.95451,-5.498246,-6.7928987,-47.881195,13.047958,-9.962677,21.908955,0.34834403,29.696482,-46.571968,1.804393,-12.811102,47.61036,-2.428468,48.438107,-24.657272,-11.059662,-20.147648,55.576073,-49.031757,-24.641327,33.469643,39.099194,1.3124214,17.764679,62.788597,49.552498,32.156406,-72.04272
parkinsons,2.6165836,-31.496557,4.307486,13.5375,-2.5981023,-2.0219562,-27.725138,5.899309,-7.3780136,13.431808,-1.1079693,15.490091,-26.880682,2.2754707,-8.449669,28.279638,-1.3886871,29.342426,-14.105707,-5.65416,-9.456236,33.4367,-28.17104,-14.601484,17.72988,24.283281,-0.16247901,12.379527,37.981915,28.230001,20.987904,-42.365852
wine_quality,0.8582346,-20.96669,3.4267013,8.492414,-2.1857896,-2.0487754,-18.573277,4.5145493,-3.7095547,8.388224,-0.3040104,11.424709,-18.110962,1.7319424,-5.4367266,19.15729,-0.3403555,19.11031,-9.660554,-4.6136336,-7.420971,21.947947,-18.74985,-9.537147,12.787516,15.220886,0.3889517,7.551516,24.908764,19.27261,13.195981,-28.503717
thoracic_surgery_data,0.8580632,-4.3182697,1.4531987,1.834527,-0.01545403,0.60074174,-3.203875,0.7044231,-0.9811239,1.6278107,-0.1769233,0.88073075,-3.3286583,1.5199524,-1.541347,4.238313,0.12275724,4.328785,-1.8210894,-1.190019,-0.41704446,4.6902213,-2.9882994,-1.7571309,1.919899,3.1703632,-0.745491,2.3192933,5.6523657,4.47894,3.485604,-5.8757963
wholesale_customers,450.8122,-6474.191,743.4878,2779.6475,-558.495,-571.5132,-5750.0586,1278.9248,-1508.645,2812.6008,-180.56323,3354.6868,-5606.331,234.96948,-1639.5061,5758.256,-348.65546,5979.997,-2916.6003,-1092.8716,-2083.5151,6746.133,-5927.7686,-2999.43,3729.2593,5000.3228,84.22197,2384.6492,7706.3125,5708.5103,4174.8506,-8670.609
student_performance,0.28947863,-2.7569666,1.50354,1.0097021,-0.25842962,0.07652326,-1.7794243,1.0162127,0.12230484,0.4561297,0.34019318,0.9328844,-2.3063757,1.4356096,-0.8833054,2.9132128,0.63157976,2.2944832,-1.252445,-1.4324052,-0.720317,2.8612175,-1.6956733,-0.72388387,1.7840054,1.3432146,-0.30271843,0.98795617,3.345489,3.2215843,1.7214721,-3.9004397
diabetic_retinopathy_debrecen,1.0794891,-20.936483,3.1465719,8.701256,-1.8856338,-1.6508083,-18.661335,4.16343,-4.199331,8.790285,-0.42297164,10.902369,-17.94892,1.5603005,-5.614766,19.101076,-0.47100562,19.415037,-9.610204,-4.1523757,-6.7042494,21.973312,-18.925587,-9.512115,12.260913,15.666382,0.23894882,7.9136505,25.168745,18.883757,13.479075,-28.227497
default_of_credit_card_clients,2428.017,-27279.441,2942.3408,11928.975,-2239.0386,-1976.9156,-24113.387,5016.7007,-6988.003,12151.852,-1071.8496,13632.381,-23502.574,1226.1334,-6975.8,24127.547,-1521.0543,25338.596,-12248.658,-4288.8916,-8178.0757,28771.62,-24922.582,-12794.689,15170.161,21340.104,107.68359,10435.948,32668.125,23737.398,18073.594,-36438.348
online_shoppers_purchasing_intention_dataset,4.0473824,-67.25115,8.777865,28.614502,-5.750224,-5.824519,-59.93563,13.5596695,-14.515383,28.630518,-1.4859276,34.605762,-58.074898,3.0791373,-17.655191,60.46982,-3.4095445,62.43116,-30.247213,-11.9266205,-21.734488,70.049416,-61.075844,-30.86675,39.199905,51.67234,0.5029785,25.24618,80.501076,60.546326,43.21728,-90.452446
electrical_grid_stability_simulated_data,0.6041521,-3.092608,1.0941541,1.1233441,0.1827962,0.35099727,-2.2644682,0.6529635,-0.6815498,1.2025942,0.091385916,0.7789172,-2.1073012,1.3457572,-1.0387236,2.98097,0.14311537,3.1240144,-1.1064317,-0.85903895,-0.32219917,3.5968971,-1.8888355,-1.3493437,1.294092,1.9403881,-0.39189333,1.5414883,3.990085,3.4372222,2.4343631,-4.2373815
heart_failure_clinical_records,2019.2981,-29984.168,3496.086,12845.783,-2603.621,-2708.2798,-26636.535,5992.4106,-6886.108,12969.834,-783.13654,15594.955,-25985.549,1074.2328,-7586.2607,26686.797,-1607.0859,27667.115,-13510.627,-5114.807,-9735.53,31192.725,-27442.73,-13862.497,17354.559,23108.705,410.5367,10989.339,35662.957,26512.84,19263.633,-40177.773
estimation_of_obesity_levels_based_on_eating_habits_and_physical_condition,0.17928791,-6.201467,2.023727,2.3368895,-0.7174448,-0.40222389,-5.1027937,1.6711966,-0.37715977,1.8807131,0.22154462,3.0555253,-5.3313994,1.4372857,-1.7919697,6.081556,0.47237357,5.4869947,-2.912888,-2.150308,-2.1995318,6.406623,-4.962028,-2.4171348,4.0547256,3.9312637,-0.19201922,2.2149084,7.4654846,6.4404116,3.8292909,-8.6609535
rice_cammeo_and_osmancik,346.71298,-5124.053,595.6652,2195.0938,-445.10458,-461.44037,-4551.2744,1021.9162,-1179.3287,2217.5815,-135.59453,2665.1558,-4440.1177,184.59496,-1295.7467,4560.1763,-273.1298,4727.8804,-2309.4058,-873.9857,-1662.3461,5331.8247,-4690.2246,-2369.7449,2963.899,3949.0437,71.01372,1878.1234,6094.363,4527.2183,3293.714,-6865.3296
bone_marrow_transplant_children,3089.6577,-30532.166,2922.0854,13433.713,-2404.1235,-2030.9348,-26878.809,5324.713,-8355.34,13798.862,-1445.3379,15201.467,-26151.86,1370.5305,-7716.8374,26845.812,-1765.7012,28419.303,-13627.198,-4642.124,-8886.686,32423.973,-27920.4,-14447.693,16598.8,24081.15,195.85782,11751.518,36532.78,26117.125,20553.262,-40656.543
hcv_data,2.4260116,-44.54023,5.8565745,18.540417,-4.206001,-4.172906,-39.55027,9.12323,-9.236844,18.755716,-0.9567903,23.828144,-38.59043,2.4803174,-11.32604,40.130684,-1.4974953,40.85076,-20.337727,-8.515859,-14.996394,46.338676,-40.511932,-20.397295,26.353199,33.38689,0.9418419,16.10897,52.892864,39.73795,28.294535,-59.976906
ai4i_2020_predictive_maintenance_dataset,16.137787,-240.76701,28.536396,102.87671,-21.053495,-21.281353,-213.85208,47.78922,-54.938526,103.88373,-6.5086718,125.0238,-208.4805,9.585314,-61.251087,214.7435,-12.2293,222.26704,-108.68402,-41.55957,-77.95982,250.8239,-220.01665,-111.32692,139.34184,185.22372,3.1385987,88.737,286.73505,213.0149,155.00217,-322.83936
dry_bean_dataset,627.27795,-9247.149,1077.6514,3965.1355,-799.6638,-831.6922,-8215.4375,1846.1207,-2128.9985,4002.767,-242.5315,4802.6934,-8011.5,331.6404,-2342.5312,8228.843,-500.96503,8536.862,-4163.6465,-1572.263,-2995.649,9624.256,-8461.922,-4276.4214,5346.6255,7132.418,122.04873,3395.5867,11001.958,8178.7446,5945.406,-12390.396
predict_students_dropout_and_academic_success,28.09372,-345.7962,35.474434,150.23862,-28.233404,-26.685877,-307.5052,63.365013,-87.38863,154.34834,-13.08564,175.90599,-297.45923,12.405292,-88.31383,306.4786,-19.959396,322.2342,-155.13998,-54.419678,-105.6094,364.07358,-317.8172,-162.34175,193.49014,271.21622,3.556848,131.37442,413.6303,299.78964,227.81282,-461.5495
glioma_grading_clinical_and_mutation_features,0.72969645,-4.37281,1.4056723,1.7456471,-0.1442444,0.71844184,-3.367014,0.52926815,-0.8571485,1.7263567,-0.3513745,0.8693468,-3.5011725,1.5475867,-1.6166618,4.471402,0.19150133,4.5132194,-1.9729544,-1.1664884,-0.45650834,4.660853,-3.0866215,-1.8812361,1.9726098,3.257248,-0.82113683,2.5235245,5.8601656,4.497884,3.5500565,-6.0475388
sepsis_survival_minimal_clinical_records,2.038961,-28.920639,4.1740365,12.325315,-2.3471458,-2.1751716,-25.605423,5.7762475,-6.409064,12.37475,-0.58774394,14.706331,-24.674973,2.0680344,-7.682912,25.998783,-1.0325215,26.852139,-13.02014,-5.3230867,-8.829633,30.542927,-26.021282,-13.188585,16.47304,21.909687,0.14294204,11.006956,34.722004,26.048573,18.823492,-38.852444
raisin,2443.2212,-35145.336,4042.4011,15085.315,-3032.7053,-3115.5112,-31208.719,6957.3047,-8178.1484,15255.175,-971.15466,18224.574,-30435.34,1273.5872,-8893.852,31256.697,-1894.691,32453.719,-15828.811,-5944.6235,-11327.757,36613.477,-32172.363,-16277.067,20256.48,27135.121,463.73633,12929.419,41822.906,31000.912,22653.086,-47071.656
cirrhosis_patient_survival_prediction,11.67613,-60.804504,1.1282488,27.93105,-4.1483297,1.0200241,-51.632214,4.61109,-24.36996,31.097635,-7.7722063,26.918789,-50.66814,4.7366157,-14.814288,52.503216,-1.9196174,57.59496,-27.694138,-7.0355477,-11.8050585,67.63865,-56.322365,-30.640528,26.862844,50.446438,0.20018463,26.04366,73.82447,43.91306,46.696785,-79.07394
support2,-20.827099,-2303.2588,403.51468,941.0039,-225.9163,-333.02313,-2096.559,613.4095,-287.6619,889.59296,69.67261,1284.1272,-2043.1432,34.3172,-605.8833,2106.3164,-138.08023,2102.784,-1039.5908,-474.5423,-910.4881,2289.7112,-2094.3457,-1002.20917,1515.4089,1700.0074,39.352245,774.74695,2718.6843,2245.4243,1318.3036,-3138.5896
national_health_and_nutrition_health_survey_2013-2014_nhanes_age_prediction_subset,3.2361114,-49.111034,6.222535,20.860012,-4.216768,-4.224057,-43.595196,9.787959,-11.029372,21.11626,-1.162164,25.661255,-42.2031,2.5631146,-12.615848,43.930187,-2.0776055,45.378216,-22.15535,-8.829129,-15.709867,51.5271,-44.693596,-22.618649,28.317719,37.38945,0.7551277,18.166613,58.543785,43.57849,31.666998,-65.87113
aids_clinical_trials_group_study_175,15.814642,-240.24756,29.093206,103.40165,-20.333252,-20.974117,-214.38383,47.940018,-54.709644,104.37173,-5.867877,123.3137,-207.87363,9.00223,-62.191967,214.38518,-13.543216,223.01997,-107.98464,-40.090332,-76.64229,250.66553,-219.69095,-111.07993,138.64409,185.96709,1.8883026,90.02385,287.21594,214.1372,154.63158,-322.18524
national_poll_on_healthy_aging_npha,0.7712761,-2.2659688,1.2530683,1.0103921,0.1794444,0.26476902,-0.986344,0.94133174,-0.37103567,0.35930252,0.39860797,0.28894335,-1.5811013,1.4043739,-0.7016641,2.1551023,0.3897488,1.8469957,-0.6717091,-1.1819619,-0.11084266,2.5046797,-1.0409381,-0.42317048,1.0235978,1.1500156,-0.3562343,0.7724352,2.6624174,2.6113698,1.6403103,-2.995266
regensburg_pediatric_appendicitis,0.7092219,-7.948161,1.8769236,3.320066,-0.6478131,0.016048526,-6.6376905,1.5059849,-1.3100406,2.914301,-0.24186358,3.23733,-6.765513,1.5196271,-2.4852903,7.671098,0.11147337,7.4895697,-3.620842,-2.0142627,-2.0668008,8.341784,-6.5232263,-3.3680782,4.5089755,5.8875823,-0.49371034,3.5045238,9.915294,7.700293,5.5340223,-10.922487
olivetti_faces,0.51532423,-1.864811,1.4324105,0.80252326,-0.13383463,0.19714606,-0.803631,0.94457227,0.008814072,0.2486197,0.3172156,0.22077684,-1.4719664,1.4304291,-0.5586063,1.9026191,0.43268687,1.5419836,-0.7605065,-1.1846579,-0.23202607,2.1846337,-0.8331253,-0.42178637,1.041454,0.7277434,-0.49143973,0.782518,2.2704585,2.4148679,1.2698882,-2.578521
credit-g,12.624166,-85.541855,4.158637,38.499245,-6.2489953,-1.0356919,-74.58881,9.229169,-29.869284,42.549217,-8.345598,39.382984,-72.09432,5.268958,-21.577566,74.74496,-3.3197594,81.080055,-39.150208,-10.490074,-19.43212,93.54947,-79.52382,-42.465645,41.144505,69.748085,0.15951233,35.865547,104.00148,66.00888,62.413013,-112.22298
blood-transfusion-service-center,31.82716,-484.12305,56.648712,206.73555,-42.457424,-43.973907,-430.23383,96.70464,-110.39336,209.16338,-12.605151,252.8269,-419.50766,17.79643,-122.37936,431.32983,-24.914692,446.47906,-218.58862,-83.41054,-157.85455,503.63702,-443.26556,-223.80362,280.7727,372.21573,7.3072996,177.05008,575.6437,427.72784,310.66196,-648.8057
monks-problems-2,0.95037365,-2.7815099,1.6979796,0.59230185,0.3299839,1.2385082,-0.9752413,0.43320084,-0.60840213,1.2023485,-0.2206463,-0.6413352,-1.7108009,2.134768,-0.8243065,3.0515141,0.59835196,3.2532268,-1.2298449,-1.3988318,0.36803398,2.5020022,-0.76159453,-1.057575,0.5028802,1.3023183,-1.2036394,1.7096469,3.764644,3.2257702,2.5689614,-3.716858
tic-tac-toe,0.92864704,-2.7549305,1.6407658,0.600148,0.31645882,1.2286581,-1.0060318,0.40386122,-0.60613906,1.1983824,-0.24263403,-0.6267508,-1.7099621,2.092651,-0.8366267,3.030395,0.5690103,3.2326653,-1.2211641,-1.3506453,0.36524907,2.4946542,-0.78541356,-1.0681691,0.5121458,1.3270187,-1.1800107,1.7329977,3.7496934,3.1773262,2.562097,-3.686885
monks-problems-1,0.9509056,-2.7920165,1.7137058,0.58362496,0.32864365,1.2433048,-0.96299285,0.44564158,-0.599378,1.1999323,-0.2132878,-0.6425909,-1.7200737,2.1482787,-0.8181221,3.0692859,0.61445796,3.262558,-1.2400131,-1.4260851,0.36392242,2.4914927,-0.758856,-1.0456705,0.509646,1.2931192,-1.2074038,1.7010437,3.7713864,3.2358367,2.5648212,-3.7295213
steel-plates-fault,7249.6797,-138694.98,20173.932,59408.008,-12297.064,-13551.625,-123800.19,30565.066,-27770.291,58178.168,-1308.2664,71075.08,-121146.98,5816.0386,-36443.508,124496.766,-7889.1826,127889.23,-62422.21,-24514.896,-46228.63,143066.92,-125637.516,-62929.367,82779.61,105763.0,3.746875,51276.24,165737.7,128079.06,87003.3,-187161.77
kr-vs-kp,0.99937934,-2.567367,1.611542,0.89186156,0.32549146,0.9573585,-0.94974864,0.57423115,-0.65084153,0.8494932,-0.007505712,-0.54421157,-1.6153809,1.8005184,-0.84978044,2.6675258,0.416488,2.7529805,-1.0311201,-1.3141224,0.33510846,2.5332794,-0.89214563,-0.8065678,0.65545577,1.4173664,-1.0199698,1.4590175,3.4141488,2.9653077,2.3466437,-3.3847756
qsar-biodeg,0.580269,-3.9632587,1.3191607,1.583079,-0.033083178,0.36256438,-3.073124,0.7628036,-0.64180744,1.3474839,-0.014190936,1.1261141,-3.0762029,1.3754811,-1.4177362,3.9589722,0.1669383,3.894626,-1.6259344,-1.1629069,-0.6214715,4.293439,-2.761682,-1.5923626,1.9780104,2.79036,-0.47632354,1.9831104,5.1302996,4.2346544,3.017667,-5.4875836
wdbc,6.557396,-82.205154,9.276275,34.872368,-7.437987,-6.359082,-72.17716,15.2622175,-19.834522,35.575512,-3.190928,42.730206,-70.89642,4.6239657,-20.474205,73.256836,-2.7403061,75.35453,-37.52361,-14.805536,-25.988018,86.20845,-74.91331,-38.219624,46.727615,62.651054,1.5396035,30.120447,97.69101,70.94804,53.92878,-109.99872
phoneme,1.0024161,-3.0178611,1.9729658,0.50588775,0.35824826,1.2838261,-0.84227544,0.61865956,-0.58645517,1.212355,-0.14661548,-0.66604966,-1.8135372,2.3225455,-0.7218456,3.280992,0.7742318,3.4647942,-1.3941683,-1.7691427,0.26087266,2.5458846,-0.7214582,-1.0993996,0.590094,1.1813545,-1.2785566,1.599683,3.9434662,3.4710987,2.630923,-3.9726918
diabetes,3.558316,-59.920033,7.6110053,25.221437,-5.491573,-5.2570825,-53.304554,11.911115,-12.987032,25.68681,-1.512405,31.459942,-51.882698,3.1570764,-15.380318,53.865906,-2.228681,55.201996,-27.353405,-10.863442,-19.569828,62.470226,-54.64851,-27.590809,34.98391,45.369263,0.9440476,22.078707,71.44311,53.184914,38.406303,-80.535126
ozone-level-8hr,8.411377,-398.7752,62.690357,166.21155,-39.45879,-45.19169,-359.996,92.80995,-66.41649,163.45792,1.0314515,212.13315,-352.28464,13.352481,-104.70715,362.5716,-17.986393,365.37518,-183.65901,-75.885445,-142.91061,404.4729,-364.71014,-178.59348,248.9272,297.96115,3.584961,141.97832,475.187,372.2304,240.62866,-539.93494
hill-valley,752.9059,-11166.602,1295.8513,4782.4033,-971.9364,-1006.10077,-9919.551,2225.338,-2569.1733,4833.757,-296.71542,5810.4233,-9677.891,400.085,-2822.7007,9938.749,-592.5824,10302.353,-5035.4463,-1904.8291,-3624.5273,11617.318,-10224.442,-5164.8174,6460.7217,8605.148,156.87988,4091.1978,13280.697,9861.496,7176.4873,-14960.7295
kc2,71.18362,-1340.6205,163.0027,567.3381,-120.58342,-134.17618,-1196.6628,278.9312,-286.31357,571.4974,-25.113659,712.2564,-1166.2883,39.9591,-338.44995,1198.9017,-69.50942,1233.8151,-606.6641,-237.73874,-453.72452,1383.5065,-1230.3033,-615.1566,793.84875,1025.008,25.316456,480.81903,1590.1078,1195.5985,845.34766,-1799.559
eeg-eye-state,402.50812,-5876.751,678.8299,2519.2983,-509.32318,-525.4092,-5219.1665,1167.2942,-1359.7505,2547.0225,-159.29468,3053.4204,-5090.917,212.22603,-1486.0876,5228.538,-313.98984,5424.057,-2648.2603,-998.87384,-1901.2035,6118.2803,-5379.964,-2719.8455,3393.6667,4532.5654,80.65361,2157.1255,6990.9126,5186.599,3782.4219,-7872.28
climate-model-simulation-crashes,1.6791264,-25.630123,4.119472,10.892731,-2.0366747,-1.8706032,-22.779596,5.275928,-5.3779535,10.950107,-0.32747477,12.797279,-21.855856,2.0842667,-6.9844375,23.187822,-0.92021143,23.975134,-11.53282,-4.710435,-7.7257895,27.090464,-22.868446,-11.652406,14.640726,19.29721,-0.14727478,9.975561,30.965784,23.64294,16.594835,-34.550404
spambase,1.4683163,-10.255629,1.4437864,4.3310885,-0.5508,0.4434719,-8.528357,1.2002757,-2.894759,4.6174536,-0.91413134,3.907856,-8.419485,1.6407216,-2.9974163,9.542393,-0.1339219,10.037296,-4.5947027,-1.8863297,-2.038873,11.016063,-8.627564,-4.8307266,4.8953714,8.06166,-0.5525519,4.782954,12.835645,8.910467,7.759124,-13.727686
kc1,15.854095,-396.39804,47.895557,164.72021,-37.562378,-43.457355,-354.8308,84.121994,-79.75103,166.94034,-5.925238,217.3442,-345.9074,9.429561,-98.32036,355.90894,-17.842453,362.85333,-180.98798,-73.93288,-140.2727,405.91238,-365.73517,-181.06677,239.53116,299.74194,11.89065,137.35669,467.59106,352.3409,245.81827,-532.32025
ilpd,4.2385573,-66.249435,8.294822,28.084568,-5.8175983,-5.8404503,-58.85323,13.249105,-14.752127,28.445942,-1.5999416,34.688187,-57.14635,3.2299018,-16.932316,59.281647,-2.8658433,61.132835,-29.976017,-11.85984,-21.46674,69.2555,-60.37429,-30.550446,38.423473,50.44146,1.0227859,24.389668,78.92003,58.804363,42.572685,-88.90964
pc1,156.65337,-2089.477,227.64458,901.8629,-168.8993,-186.8232,-1854.5852,412.27475,-502.14404,909.94275,-58.135353,1085.104,-1798.4144,66.00004,-528.0203,1850.0476,-132.20839,1937.8597,-926.71075,-345.4707,-668.3525,2185.5066,-1909.4199,-970.0951,1192.4863,1627.7574,30.278393,771.5822,2483.6194,1842.6393,1355.1218,-2795.1748
pc3,100.38023,-1354.7596,176.93413,595.5285,-109.321045,-105.41172,-1209.5045,270.7233,-314.32495,593.4923,-33.05019,663.09503,-1173.2141,60.408386,-363.2321,1208.0394,-88.15157,1266.429,-604.87427,-211.57028,-410.85733,1420.9187,-1230.3699,-626.92584,771.41077,1059.9836,-14.346216,530.432,1634.6744,1227.4609,881.16833,-1819.8818
SpeedDating,0.6420258,-3.0404704,1.1703074,1.2172736,0.04524239,0.71708566,-2.073013,0.4250082,-0.46213728,0.9123766,-0.19505751,0.31750864,-2.349741,1.4357078,-1.2323059,3.265562,0.23277874,3.1409936,-1.2774594,-1.0475261,-0.14127883,3.157515,-1.8183963,-1.1251214,1.3220567,2.224125,-0.6497894,1.8303509,4.127486,3.3058925,2.6213825,-4.2389693
mnist_784,2.6274772,-46.335686,6.353411,19.171864,-4.5248337,-4.013153,-40.891487,9.208786,-9.371522,19.194021,-1.3353173,24.36851,-40.222584,3.0905356,-12.00101,42.039127,-1.3342472,42.428783,-21.193436,-9.100359,-15.653833,48.10113,-41.641335,-21.207155,27.469961,34.670982,0.5650238,17.008923,55.175518,41.671757,29.817743,-62.700726
banknote-authentication,0.25870425,-3.8581243,2.107839,1.4367844,-0.34419495,-0.5460373,-3.0326347,1.7414839,-0.05619316,0.93718374,0.7383159,1.9373195,-2.991798,1.4562323,-1.0953252,3.5465016,0.20311037,3.213347,-1.5336075,-1.6093233,-1.4857118,4.4345675,-2.5838003,-1.3527542,2.667808,1.9091151,-0.27665758,1.1816034,4.459295,5.018227,2.1640046,-5.4314947
Titanic,0.76034504,-2.3084965,1.1350993,0.82379115,0.28443193,0.94196796,-1.1716722,0.36203608,-0.5791684,0.9998398,-0.15936987,-0.48019582,-1.5254723,1.4620186,-0.87306374,2.5098593,0.11917613,2.779292,-0.9028436,-0.84727556,0.37813836,2.4327369,-0.9768012,-0.9765433,0.5679978,1.52116,-0.9123732,1.7237272,3.3135269,2.6449177,2.2059948,-3.1261775
Satellite,7.054222,-115.04866,13.780991,48.68244,-10.33506,-10.579506,-102.29552,23.071766,-25.507504,49.366985,-2.879387,60.67169,-99.69508,4.7478986,-29.11272,102.90137,-5.2450957,105.954,-52.18174,-20.473953,-37.937214,119.613,-105.27854,-53.03474,67.1635,87.82405,2.1036713,41.890247,136.73291,101.72254,73.56569,-154.34933
bank-marketing,3.5162346,-49.53464,6.118595,20.912683,-4.39079,-3.716584,-43.671715,9.351471,-11.371181,21.296204,-1.6871008,25.336048,-42.699574,2.770953,-12.661793,44.50683,-1.7595993,45.771465,-22.641903,-9.046269,-15.632257,51.742058,-45.035545,-22.92474,28.381586,37.81538,0.58028185,18.47086,59.20522,43.405815,32.33155,-66.37985
one-hundred-plants-texture,0.56585276,-2.2586188,1.2065527,1.010695,-0.09968518,0.70951545,-1.1754463,0.42518646,-0.053651236,0.36113292,-0.13070661,-0.040825605,-1.9238212,1.4492447,-1.0066776,2.6641183,0.44698706,2.1676087,-0.98540556,-1.1468917,-0.015291572,2.1714718,-1.1306555,-0.49849048,1.1008135,1.5398409,-0.69787586,1.4008452,3.0672855,2.58335,2.0055478,-3.2449028
arrhythmia,0.4911825,-14.686854,3.300853,5.7858677,-1.6420256,-1.6755774,-12.803673,3.720858,-2.0681145,5.3531256,0.19353238,8.040537,-12.62885,1.5554825,-3.7437851,13.438617,-0.13815041,13.096519,-6.722397,-3.8298926,-5.6772575,15.386671,-12.710981,-6.518079,9.410986,10.166349,0.09496975,4.9343796,17.273514,14.3985,8.97361,-20.134901
amazon-commerce-reviews,0.48991147,-2.388124,1.2420161,0.9965936,-0.1634408,0.5615164,-1.3279483,0.5520277,-0.034572482,0.42262715,-0.044054262,0.21046028,-2.0374985,1.4431667,-0.9581478,2.7138276,0.5185926,2.1859908,-1.0822947,-1.192863,-0.18054092,2.3336663,-1.3049581,-0.5660244,1.254245,1.48054,-0.5750506,1.2890861,3.1276858,2.6781175,1.9315627,-3.3875065
one-hundred-plants-shape,0.5748019,-2.2648342,1.2331161,1.0259352,-0.101570226,0.69945675,-1.1676141,0.44888362,-0.045612954,0.3382509,-0.11761002,-0.036661528,-1.9241104,1.4614462,-1.0113558,2.6611934,0.44327265,2.1609206,-0.976472,-1.1662458,-0.020895815,2.1884348,-1.1180909,-0.49278194,1.1133597,1.5362278,-0.70632195,1.4018289,3.068701,2.6122894,2.0035675,-3.2583592
Bioresponse,0.6744298,-2.466631,1.1416396,0.7256876,0.12527281,1.0661978,-1.2925177,0.14013752,-0.46972504,1.0325512,-0.42038426,-0.35902652,-1.7552474,1.6183742,-0.9519197,2.827847,0.33561054,2.8969338,-1.1178354,-0.9415991,0.22765546,2.4013963,-1.0458477,-1.0471554,0.6502261,1.5927331,-0.9388183,1.7889172,3.5054135,2.738974,2.4252038,-3.4173112
make_classification_500_10_8_1_4_2_1-0,-5.2643003,-106.70341,27.61995,39.576485,-15.586324,-26.14378,-96.24336,39.90255,-9.090129,37.112988,10.224283,68.07356,-94.99233,-3.5232673,-19.711914,92.08093,-7.0761213,90.48796,-51.165916,-30.399525,-56.902824,107.46611,-98.794365,-49.113678,80.81441,69.11471,5.3117495,23.312632,118.29575,109.74034,50.613678,-143.7386
make_classification_1000_20_10_10_5_2_1-0,-11.680136,-195.6954,52.223927,71.475876,-29.75854,-50.603683,-176.89189,75.57762,-15.356268,67.495476,20.421537,126.833786,-174.50513,-9.254236,-34.332714,167.78694,-13.400723,164.49893,-94.61064,-57.06449,-108.118164,196.42331,-182.17305,-90.57718,151.03314,125.06234,10.535912,39.485455,215.27705,202.47307,90.085754,-263.02658
make_classification_2000_30_5_5_6_3_1-0,-4.298172,-99.829575,25.650427,37.079365,-14.323659,-23.821604,-89.77797,36.66222,-9.023129,34.954956,9.111356,63.399742,-88.64766,-2.524681,-18.596502,86.26247,-6.1569376,84.729515,-47.736763,-28.289196,-52.53936,100.73192,-92.022934,-45.839924,74.82371,64.70279,4.825606,22.035542,110.82509,102.37257,48.125298,-134.58063
make_classification_500_40_10_5_5_10_1-0,-8.386339,-119.12439,33.229424,42.657692,-18.720991,-32.282307,-107.83645,47.571636,-8.166481,40.393425,13.593683,78.54018,-106.09322,-6.4871473,-20.032253,101.728745,-8.077289,99.31648,-57.934673,-36.016758,-68.03761,119.450134,-111.05571,-55.243736,93.666626,74.72918,6.9639664,22.239204,130.11145,124.425575,53.26142,-159.89516
make_classification_1000_50_10_10_5_2_0-7,-6.2694383,-109.80774,29.733938,40.117622,-16.770954,-28.009424,-99.03325,42.34569,-8.425517,37.673725,11.350988,70.87233,-97.9449,-4.029801,-19.519232,94.398605,-7.0255256,92.23983,-53.139965,-32.25936,-60.284546,110.46887,-101.74899,-50.70241,84.58952,69.80863,5.663217,22.595491,121.02269,113.90133,50.822166,-147.85396
make_classification_2000_60_5_5_6_3_0-7,-2.9781487,-70.56603,18.704561,26.205683,-10.162734,-16.878597,-63.451294,26.238544,-6.29111,24.638433,6.684802,44.64637,-62.549904,-1.4528363,-13.16908,60.87621,-4.3822174,59.841103,-33.724205,-20.12331,-37.15516,71.53188,-64.84069,-32.435856,52.98516,45.475136,3.1853652,15.63174,78.37839,72.92702,33.93084,-95.155556
make_classification_5000_50_40_5_30_1_1-3,-21.374023,-338.364,90.74314,124.62716,-50.44718,-87.66003,-307.4494,131.28699,-24.868793,116.94585,36.4042,217.86758,-302.15393,-16.755625,-61.483715,291.07254,-25.370882,286.1848,-162.48337,-96.61394,-185.90701,338.92297,-314.81378,-155.93826,261.2918,218.05844,16.667313,70.54506,373.70694,353.20807,155.36641,-455.63483
make_classification_10000_70_50_10_50_1_1-3,-21.642044,-338.4496,88.286156,124.20624,-51.568775,-87.010544,-307.32156,129.43854,-26.218075,117.68716,34.566692,218.59854,-302.79117,-18.160519,-60.364235,291.12048,-23.945286,285.93057,-164.23384,-97.06608,-186.04015,338.60532,-317.08762,-156.96997,261.23154,218.4082,18.172123,70.12288,373.60608,348.26788,155.58003,-454.66547
make_classification_20000_50_30_5_15_2_1-3,-13.801336,-208.68965,57.455254,75.87014,-32.11424,-55.39563,-188.98831,82.55576,-14.709994,71.14872,23.25185,135.6821,-186.28708,-10.743452,-36.39069,178.7141,-15.037485,175.03024,-100.90539,-61.557446,-117.059425,209.0889,-194.16147,-96.50661,162.84825,132.55167,10.99472,41.203777,229.15414,218.23369,94.37777,-280.60168
make_classification_60000_30_10_5_20_3_0-9,-4.7964277,-82.745735,22.426579,30.188929,-12.228395,-20.905155,-74.83673,31.613565,-5.952236,28.430328,8.612061,53.59503,-73.62854,-2.3397377,-15.254626,71.63805,-5.0153327,69.81105,-39.677837,-24.119093,-45.05664,83.140976,-76.235016,-37.764008,63.405632,52.601875,4.2555876,17.327166,91.41333,86.38005,38.630898,-111.8115
make_circles_200_0-3_0-7,0.92278653,-2.8841586,1.8360163,0.51031196,0.28249002,1.2682998,-0.9193505,0.49699783,-0.51328593,1.1579895,-0.22194128,-0.6235893,-1.8022156,2.2321255,-0.7869473,3.2007003,0.7178707,3.3356767,-1.3429574,-1.6111059,0.25827464,2.4622197,-0.7394856,-1.0482299,0.58769405,1.2407438,-1.2362626,1.650884,3.836612,3.350015,2.5724638,-3.8454888
make_circles_800_0-2_0-8,0.8944476,-2.862223,1.7552736,0.52073926,0.24995351,1.2604656,-0.99139655,0.435891,-0.5329116,1.1832371,-0.2729663,-0.5887462,-1.8095496,2.183052,-0.806331,3.1719909,0.6801154,3.320198,-1.3444246,-1.5218804,0.24848847,2.499199,-0.7926173,-1.0910923,0.58607,1.2889693,-1.2085228,1.6883417,3.8356445,3.2979054,2.5814717,-3.820502
make_moons_500_0-3,1.0377266,-2.9950027,2.041366,0.55943394,0.3621559,1.238259,-0.83281547,0.6946906,-0.57121104,1.1660801,-0.06763121,-0.64932203,-1.793721,2.3479495,-0.7333452,3.2299848,0.75803316,3.4127278,-1.3508476,-1.7774649,0.28783542,2.5905094,-0.70714724,-1.032122,0.59709346,1.1642324,-1.2944225,1.5807216,3.9121292,3.520385,2.5734124,-3.9525197
make_moons_900_0-5,1.0534344,-3.0146205,2.0518005,0.55444026,0.38564998,1.2429447,-0.8228637,0.7022377,-0.60936105,1.2060261,-0.06060903,-0.6624197,-1.7762302,2.3557405,-0.71471035,3.2261975,0.75706357,3.4444833,-1.3547869,-1.7779554,0.29810756,2.6222472,-0.7036084,-1.066381,0.57228523,1.1492527,-1.3036181,1.5742697,3.9275162,3.53008,2.5904942,-3.9638565
make_hastie_10_2_1000,0.9982933,-2.9242196,1.9058564,0.49283186,0.41754785,1.2825971,-0.872488,0.55180097,-0.66765213,1.3475697,-0.14140889,-0.70831186,-1.6853768,2.2792234,-0.7106625,3.142191,0.700727,3.4509075,-1.3109903,-1.566753,0.35999528,2.5823991,-0.687679,-1.16729,0.44422865,1.139268,-1.2917736,1.6272293,3.8763385,3.415916,2.607283,-3.8539004
v0_2___lung_cancer,1.0285015,-2.2163901,1.4373412,1.1231298,0.35076666,0.29249185,-0.6348618,1.1161983,-0.62096226,0.37124023,0.5803286,-0.030182123,-1.379926,1.441751,-0.58453006,1.9252205,0.33959076,1.7565253,-0.5435608,-1.2634697,0.10509615,2.5270977,-0.8783344,-0.3014242,0.8142083,1.0571527,-0.49703494,0.6014628,2.5058918,2.5768418,1.6162832,-2.7775028
v1_2___lung_cancer,1.1038637,-2.284333,1.5039718,1.1898918,0.4223445,0.21121618,-0.6195704,1.2414744,-0.6752133,0.36535326,0.7119832,0.04679513,-1.3682144,1.4882909,-0.56454957,1.9003986,0.36228505,1.7215906,-0.4774994,-1.2884675,0.09683137,2.6606717,-0.87199754,-0.27498668,0.81656235,1.016006,-0.45598882,0.48102546,2.4921985,2.6895747,1.6032963,-2.8388832
v0_2___connectionist_bench_sonar_mines_vs_rocks,0.7569277,-2.5209088,1.2940042,0.7755157,0.17589897,1.0326496,-1.2831372,0.29874057,-0.49359664,1.0422704,-0.27775982,-0.38477382,-1.7358387,1.7425442,-0.95887166,2.8142002,0.33962065,2.938776,-1.0796959,-0.99022925,0.29652953,2.5336542,-1.0091155,-1.022492,0.65942895,1.5259387,-0.9842394,1.809614,3.5662162,2.8988562,2.387825,-3.4734318
v1_2___connectionist_bench_sonar_mines_vs_rocks,0.8324226,-2.5907314,1.3723938,0.81197244,0.22854257,1.0418487,-1.2713413,0.37314683,-0.5455659,1.0607643,-0.20365712,-0.40780672,-1.7416556,1.8321121,-0.96946776,2.840742,0.36495075,2.9775498,-1.0723939,-1.0293894,0.34949225,2.6077437,-1.0030429,-0.98535347,0.6448721,1.526855,-0.99405766,1.7910349,3.6197598,3.0031056,2.41746,-3.5283256
v0_2___student_performance,0.37731773,-2.6286447,1.4538051,0.9950552,-0.2312742,0.18084094,-1.6139097,0.9246818,0.04772675,0.45509586,0.279135,0.7529495,-2.1922803,1.4822979,-0.86351377,2.786677,0.64464486,2.1922064,-1.1944076,-1.3659136,-0.5561765,2.7439244,-1.5641235,-0.6628766,1.6117128,1.2871912,-0.35614315,1.0082337,3.2223983,3.035793,1.7271194,-3.7023811
v1_2___student_performance,0.28697133,-2.930829,1.4832264,1.0638372,-0.27580926,0.023565149,-1.9871342,1.038902,0.07341375,0.5322794,0.34492835,1.1187884,-2.4361475,1.4258448,-0.91732484,3.0569463,0.6286794,2.4457014,-1.3194349,-1.4529951,-0.8187963,3.08965,-1.8785139,-0.82792556,1.9016857,1.4683832,-0.24125667,1.0266039,3.5408695,3.3575432,1.8211823,-4.1455584
v0_2___credit_approval,1.3421391,-15.010068,2.5260158,6.461225,-1.0494031,-0.49949265,-13.154859,2.6874065,-3.3549027,6.3286276,-0.4938838,6.809392,-12.637762,1.7211288,-4.412247,13.790746,-0.45043755,14.248334,-6.683623,-2.8210225,-3.9698186,16.028961,-13.076895,-6.7888145,8.213855,11.566172,-0.4421385,6.3847938,18.481861,13.856443,10.292005,-20.29046
v1_2___credit_approval,8.122449,-65.579124,5.5283275,28.817083,-5.348623,-2.1045837,-57.019623,9.122011,-19.883814,30.720255,-4.9450216,31.150883,-55.82177,4.765386,-16.632664,57.912132,-1.9832512,61.216698,-30.115032,-9.819338,-16.941975,70.62346,-59.98567,-31.662342,33.763714,51.70973,0.08471604,26.395885,79.22764,53.421856,46.13511,-86.89666
v0_2___qsar-biodeg,0.679285,-5.1840563,1.3887768,2.0995333,-0.2389079,0.22181058,-4.2813034,0.88204926,-1.0259635,1.967878,-0.12594025,1.9453299,-4.144189,1.4205106,-1.7085876,5.0083137,0.17103843,4.9768686,-2.237543,-1.334198,-1.0508205,5.6970153,-4.0228596,-2.2042649,2.6690772,3.7432487,-0.37821484,2.4157882,6.5651503,5.171747,3.83586,-7.122598
v1_2___qsar-biodeg,0.7518755,-2.7489429,1.075339,1.1561002,0.2481134,0.70124185,-1.789658,0.44966477,-0.60568523,0.876917,-0.07057564,0.13345699,-1.92458,1.4063814,-1.1158322,2.836497,0.1368947,2.8912222,-0.984619,-0.8609169,0.07964778,3.0579486,-1.4920009,-1.0706457,1.0071847,1.9788669,-0.6208903,1.6979803,3.7623837,3.0558763,2.4482455,-3.7890859
v0_2___spambase,1.5724151,-15.294588,2.127578,6.401634,-1.0914633,-0.34120387,-13.0116825,2.461205,-3.733933,6.500473,-0.86476487,6.9696183,-12.825037,1.7205108,-4.184114,14.013104,-0.32134134,14.451944,-6.862643,-3.0206978,-4.1037045,16.162132,-13.249326,-7.0554047,8.166283,11.730707,-0.2396225,6.291339,18.607956,13.476547,10.722886,-20.536684
v1_2___spambase,0.75626385,-4.422331,1.2557238,1.756904,-0.11903884,0.7355639,-3.4062672,0.45457697,-0.9468115,1.7726164,-0.41533446,0.94044894,-3.5206509,1.4938666,-1.6082876,4.507248,0.17190781,4.5647793,-1.9684747,-1.1348907,-0.46380758,4.7018104,-3.1576746,-1.9309947,1.9503521,3.3543115,-0.734563,2.5228338,5.891,4.4114103,3.6453788,-6.0873704
v0_2___bank-marketing,5.9751215,-80.53659,9.803161,34.651684,-6.8800116,-6.1010637,-71.54372,15.299475,-19.021538,35.1622,-2.6315963,40.55942,-69.463104,3.8866267,-20.929165,71.96277,-3.9828324,74.87793,-36.472366,-13.577001,-24.90528,84.58727,-73.461716,-37.52461,45.823788,62.358887,0.31905976,30.75643,96.6701,71.122505,52.652832,-107.908875
v1_2___bank-marketing,1.9969345,-16.52114,2.3387363,7.2375083,-1.1183794,-0.1288929,-14.241054,2.506574,-4.3791056,7.2527328,-0.99617994,7.110057,-13.8556385,1.9706348,-4.7416,15.040952,-0.4800663,15.763382,-7.407347,-2.8740668,-3.9188037,17.831486,-14.416016,-7.688428,8.536287,12.981361,-0.5776621,7.2520003,20.415998,14.573927,11.793739,-22.176954
v0_3___credit-g,0.6867938,-5.1022286,1.4706125,2.1230216,-0.19291195,0.37170878,-4.227141,0.8348349,-0.93708307,1.8904355,-0.14233041,1.6389227,-4.123872,1.4613314,-1.840387,5.0324306,0.1103159,5.009683,-2.1942725,-1.2835004,-0.86569375,5.5222764,-3.8934567,-2.094324,2.5969377,3.8251007,-0.55468863,2.5995185,6.6200905,5.2403464,3.8381112,-7.048304
v1_3___credit-g,14.73913,-217.31216,25.78867,93.00425,-18.073307,-19.918116,-192.84793,44.06826,-49.546078,93.26381,-5.0334153,113.18999,-187.44211,7.8804636,-55.276367,193.42859,-12.592535,201.05127,-96.84917,-37.55426,-70.70299,226.34995,-197.90146,-100.142555,125.70553,167.7259,2.9904938,79.76084,258.33722,193.58461,139.7164,-291.3548
v2_3___credit-g,0.8549407,-2.4018416,1.2127867,0.90762556,0.30671257,1.0077633,-1.0900521,0.30733457,-0.5937583,0.8313614,-0.20960288,-0.5245857,-1.5934132,1.5759666,-0.9802803,2.5971396,0.24599159,2.6661806,-0.90684813,-0.9559053,0.3890026,2.3700836,-0.92358893,-0.8253336,0.59690917,1.6053257,-0.92080915,1.6346734,3.333815,2.7252722,2.3779428,-3.2276008
v0_3___hill-valley,783.4951,-11136.604,1268.8279,4780.971,-963.55115,-975.78674,-9886.979,2188.2292,-2608.2788,4844.6577,-320.98218,5770.273,-9643.73,408.07153,-2815.473,9903.046,-590.3981,10283.459,-5022.333,-1878.718,-3577.7668,11607.882,-10200.933,-5163.7173,6406.625,8600.584,148.82968,4101.1636,13255.002,9798.407,7189.4243,-14910.935
v1_3___hill-valley,749.42053,-11073.878,1288.244,4746.0347,-964.46643,-989.80896,-9838.598,2202.0986,-2550.8735,4798.4873,-297.5175,5749.8765,-9599.25,402.12012,-2803.9016,9857.889,-585.5355,10219.709,-4996.759,-1883.5286,-3584.425,11523.896,-10140.049,-5123.5195,6402.362,8536.289,147.25528,4066.7402,13177.773,9779.624,7121.389,-14836.721
v2_3___hill-valley,748.9172,-11182.854,1272.638,4780.4766,-972.3579,-1023.2205,-9933.446,2226.8716,-2578.368,4839.026,-298.40668,5853.799,-9686.128,379.09903,-2811.8896,9947.818,-595.8049,10313.038,-5038.616,-1915.1575,-3650.2163,11629.335,-10249.007,-5173.919,6474.206,8617.453,185.42168,4073.7407,13281.602,9851.767,7181.578,-14976.273
v0_3___one-hundred-plants-texture,0.56508684,-2.2580256,1.2039281,1.0097951,-0.09973553,0.70995903,-1.1760972,0.42341653,-0.053923298,0.3622213,-0.1313244,-0.040870477,-1.924313,1.44749,-1.006435,2.6645167,0.44756252,2.167357,-0.98585826,-1.1454983,-0.014987851,2.1694005,-1.132172,-0.4979747,1.1003182,1.5406561,-0.69659626,1.4001087,3.0665874,2.5802555,2.0050802,-3.2435467
v1_3___one-hundred-plants-texture,0.56611174,-2.2585535,1.204966,1.0103605,-0.098673955,0.710888,-1.1754259,0.42348385,-0.054604433,0.36205584,-0.13179335,-0.042254113,-1.9236284,1.4484631,-1.0069526,2.664808,0.44650292,2.16879,-0.98549193,-1.146041,-0.0142830135,2.1701725,-1.1308262,-0.49870524,1.0996594,1.5412903,-0.6979478,1.4014763,3.0678952,2.5821624,2.0069451,-3.244526
v2_3___one-hundred-plants-texture,0.5657787,-2.2588203,1.2090865,1.0108482,-0.10029952,0.7086531,-1.1754483,0.42681694,-0.053096104,0.36098272,-0.13010748,-0.040080596,-1.9232771,1.4509223,-1.0064013,2.6632743,0.44672203,2.167725,-0.98542345,-1.1476192,-0.016123509,2.1739335,-1.1296076,-0.49976635,1.1013851,1.5379598,-0.69894755,1.4013903,3.0676875,2.5860734,2.0051003,-3.2458248
v0_3___one-hundred-plants-shape,0.5748365,-2.2647905,1.2330586,1.0259373,-0.10151948,0.6995138,-1.167515,0.44883782,-0.045651913,0.33822557,-0.117651865,-0.036775686,-1.9240723,1.4614289,-1.0113614,2.6611564,0.44325382,2.1608877,-0.976452,-1.166227,-0.020817542,2.1883063,-1.118036,-0.49272984,1.1132805,1.5362523,-0.70633656,1.4018277,3.0686545,2.6121907,2.0035949,-3.2582746
v1_3___one-hundred-plants-shape,0.574814,-2.2648344,1.2328931,1.0258522,-0.10149896,0.69959724,-1.167669,0.44865236,-0.04578247,0.33848852,-0.11777785,-0.036721848,-1.9240776,1.461424,-1.011347,2.661238,0.44325608,2.1610723,-0.9765398,-1.1660818,-0.020784449,2.1883838,-1.118164,-0.49287957,1.113188,1.5363169,-0.7062952,1.401913,3.068779,2.6121066,2.0037374,-3.258323
v2_3___one-hundred-plants-shape,0.57488257,-2.264893,1.2328559,1.025894,-0.10146777,0.6996343,-1.1677139,0.4485999,-0.045858763,0.33853737,-0.11781041,-0.03670597,-1.9241053,1.461453,-1.0113872,2.6612997,0.4432455,2.1611526,-0.9765355,-1.1660746,-0.020742273,2.1884503,-1.1182069,-0.49290085,1.1131725,1.536403,-0.7062913,1.4019705,3.0688696,2.6121278,2.0038447,-3.2584014
v0_3___ozone-level-8hr,78.82237,-857.5433,94.38662,375.21014,-70.69116,-60.296547,-756.12714,157.36855,-220.65935,381.53912,-34.448414,426.5187,-738.5683,42.904564,-219.36996,758.2916,-45.854706,795.5197,-385.35126,-135.80325,-255.24646,905.89014,-781.361,-402.153,475.542,669.23016,2.017505,328.92252,1027.3201,746.6324,569.81494,-1145.869
v1_3___ozone-level-8hr,0.6878115,-10.758189,2.1181998,4.411195,-0.91272604,-0.8018978,-9.462718,2.3271706,-2.0577397,4.398473,0.008295918,5.634991,-9.014101,1.4197783,-2.919188,9.847813,0.011641693,9.915431,-4.8660803,-2.4444168,-3.3259444,11.570315,-9.446226,-4.7599497,6.240466,7.6786766,0.0859067,4.0435853,12.926532,10.065791,6.949547,-14.567461
v2_3___ozone-level-8hr,15.540094,-352.72586,47.608376,147.94505,-31.85943,-39.365246,-314.7173,79.001976,-69.13716,146.0365,-2.3579743,190.4072,-307.0976,10.659922,-88.99785,316.01556,-19.347645,323.2543,-158.32706,-66.1453,-124.44873,362.01514,-321.28506,-159.81279,213.6293,266.71494,7.0984254,123.6225,416.6131,321.9969,218.3082,-475.15204
v0_3___kr-vs-kp,1.0677133,-2.578487,1.7221737,0.9683849,0.3606197,0.8745516,-0.86162585,0.7098589,-0.7221964,0.75873303,0.109182954,-0.55984604,-1.5681887,1.7542194,-0.78994435,2.5592122,0.4015271,2.64899,-1.0152358,-1.4160706,0.2970562,2.6068254,-0.9004154,-0.7711377,0.69623566,1.3890848,-1.0039959,1.2977171,3.3387794,2.9775708,2.3024166,-3.3282413
v1_3___kr-vs-kp,0.8745079,-2.565516,1.4966226,0.79450196,0.23684677,1.0408819,-1.0841517,0.4187805,-0.5242154,0.93789303,-0.16930251,-0.5053431,-1.7070125,1.8202255,-0.91254103,2.8269215,0.42617345,2.9012299,-1.0972211,-1.2257307,0.31384048,2.4642875,-0.91621935,-0.8994357,0.6678036,1.4608252,-1.0500419,1.6693907,3.530386,2.9577403,2.3935766,-3.479634
v2_3___kr-vs-kp,1.0430334,-2.6060944,1.6320076,0.89430314,0.35942507,0.9750527,-0.9228131,0.5990817,-0.7025461,0.8863633,0.007940687,-0.56223726,-1.6094166,1.8351068,-0.82999116,2.6761277,0.4277571,2.7907474,-1.0358044,-1.3374668,0.36106503,2.5654533,-0.8856036,-0.8150614,0.62162316,1.4106709,-1.0263621,1.4415318,3.4389908,2.9900405,2.3739767,-3.4066348
v0_3___optical_recognition_of_handwritten_digits,-0.024847936,-6.25717,1.8292319,2.2368646,-0.9141671,-0.42850056,-5.309121,1.474907,-0.22853895,1.9687893,0.057994176,3.358831,-5.546221,1.4756082,-1.8251387,6.292204,0.6856715,5.479777,-3.0918317,-2.1365097,-2.3640277,6.3398542,-5.173994,-2.5013669,4.209531,3.8941665,-0.012508678,2.235995,7.529367,6.2847795,3.8519912,-8.827097
v1_3___optical_recognition_of_handwritten_digits,0.007181215,-7.1701035,1.9065479,2.6199536,-1.0050255,-0.5191525,-6.1705384,1.6208909,-0.4429411,2.3792355,0.0017191886,3.8739636,-6.3344116,1.44858,-2.060048,7.1042953,0.59550583,6.354862,-3.506495,-2.2807326,-2.694171,7.306189,-6.049752,-2.9652596,4.7438126,4.6436462,0.012313843,2.5867891,8.626287,7.084581,4.4471426,-10.058228
v2_3___optical_recognition_of_handwritten_digits,-0.0011173725,-5.9449434,1.798034,2.1350846,-0.84087056,-0.35813445,-4.9615216,1.4194982,-0.15879945,1.7453274,0.06445122,3.1142845,-5.264022,1.4412485,-1.760396,6.0259614,0.66856354,5.195887,-2.9110866,-2.1289005,-2.2352567,5.9680915,-4.830986,-2.3091788,4.0130877,3.724533,-0.046743345,2.1218798,7.1610765,6.019283,3.6904845,-8.409447
v0_3___support2,505.2666,-5474.4507,567.9365,2416.9756,-442.41943,-348.59064,-4861.0303,956.34015,-1448.36,2489.2993,-246.2915,2673.7185,-4715.463,243.50081,-1425.4244,4846.07,-311.42627,5120.827,-2469.4604,-806.4515,-1573.2411,5800.1143,-5026.0903,-2587.9387,2998.5295,4326.8877,-12.451953,2156.289,6599.975,4728.0435,3664.6743,-7301.604
v1_3___support2,1.9097824,-34.963963,5.3357286,14.58549,-3.370935,-3.027512,-31.000717,7.25894,-6.8776045,14.502205,-0.6818104,18.182413,-30.312916,2.5772905,-9.212074,31.718235,-1.0191593,32.10873,-16.001883,-6.845909,-11.602298,36.526405,-31.383816,-15.950213,20.760387,26.024525,0.19404563,13.032323,41.825947,31.953894,22.31715,-47.34475
v2_3___support2,170.46008,-1389.0409,127.94248,627.92267,-98.795944,-65.50159,-1220.3478,223.33073,-414.19107,646.00385,-80.22355,652.40027,-1181.6365,75.52155,-362.317,1214.8025,-92.26615,1308.1615,-613.57294,-186.88701,-363.67822,1497.66,-1264.2385,-665.7168,722.2956,1117.8318,-14.6095705,567.12964,1680.2582,1183.4192,963.81067,-1846.1194
v0_5___olivetti_faces,0.52138203,-1.8711926,1.436363,0.80235636,-0.1258122,0.19334593,-0.79824007,0.95262784,0.0025628805,0.2463673,0.32655764,0.2244451,-1.46867,1.4335096,-0.55612105,1.9021009,0.43666324,1.5393353,-0.75555813,-1.1918355,-0.23350132,2.1882026,-0.8303747,-0.41589084,1.0414621,0.7243571,-0.4866057,0.76944065,2.2688408,2.4208803,1.269871,-2.581788
v1_5___olivetti_faces,0.5188829,-1.8698524,1.4369658,0.80355376,-0.1273678,0.1939999,-0.79177725,0.95869935,0.0076385736,0.23823544,0.3265429,0.21805272,-1.471188,1.4301755,-0.5548693,1.9008983,0.43290958,1.5377214,-0.756988,-1.1973066,-0.23532596,2.1821485,-0.8287203,-0.41503316,1.0463097,0.72441995,-0.4880395,0.7710334,2.2683709,2.4190829,1.2651247,-2.5783918
v2_5___olivetti_faces,0.5123719,-1.8622488,1.4443818,0.80093396,-0.13142273,0.19060233,-0.8062865,0.94997483,0.026154924,0.24444374,0.3311558,0.23195958,-1.4709737,1.448434,-0.56629086,1.9077823,0.44591507,1.5321592,-0.75075126,-1.1808708,-0.22980055,2.1802204,-0.82082015,-0.40565395,1.0414597,0.71353626,-0.48984283,0.77613884,2.2629237,2.434586,1.2624737,-2.584789
v3_5___olivetti_faces,0.5139047,-1.8651416,1.4388552,0.8010271,-0.13213779,0.19307071,-0.8050151,0.94856423,0.015337801,0.24636996,0.32429382,0.22689363,-1.4705604,1.4366053,-0.56047803,1.9047453,0.4373634,1.5390632,-0.75625277,-1.1852807,-0.23389634,2.1851325,-0.828055,-0.41654468,1.0425802,0.7218788,-0.49037582,0.77778316,2.2677703,2.425358,1.266679,-2.5823483
v4_5___olivetti_faces,0.5174089,-1.8785629,1.4377539,0.8028986,-0.13205108,0.19562836,-0.8045266,0.95388377,0.005939889,0.24631643,0.3207527,0.22533503,-1.4782197,1.4328539,-0.5566361,1.9112669,0.4350058,1.5498168,-0.7645711,-1.1972687,-0.24065451,2.1954505,-0.8370342,-0.425984,1.050031,0.73017275,-0.4893567,0.7782699,2.281419,2.426515,1.274128,-2.5925307
v0_5___cirrhosis_patient_survival_prediction,0.5375294,-2.2773933,1.1588764,0.9297451,-0.08896686,0.69790566,-1.164787,0.43624583,-0.034360267,0.35862142,-0.11854615,-0.00822339,-1.9582224,1.4180356,-0.9582175,2.703813,0.50204265,2.1599047,-1.0311799,-1.1932415,-0.06522305,2.0726833,-1.1635281,-0.46656865,1.1245439,1.5175813,-0.6105021,1.2988466,3.0323284,2.5180037,1.9597332,-3.215255
v1_5___cirrhosis_patient_survival_prediction,-5.296603,-169.13116,32.324028,66.66685,-20.011166,-24.317083,-153.52222,45.11834,-16.08334,63.74241,4.981294,95.59869,-152.91148,5.087043,-43.958992,157.56493,-3.5206695,151.62357,-80.55771,-38.705788,-69.468445,164.85753,-154.83682,-72.51377,115.106544,120.0709,3.7972991,54.676014,199.44511,163.40701,94.29216,-231.177
v2_5___cirrhosis_patient_survival_prediction,0.46874347,-2.985084,1.3436215,1.1891629,-0.2101419,0.552997,-1.8249012,0.64708865,-0.045527507,0.593145,-0.08439708,0.45338565,-2.6074538,1.4443622,-1.1373954,3.3646457,0.5158914,2.7605922,-1.385961,-1.3978181,-0.42547536,2.7664819,-1.8136648,-0.77586997,1.6618621,1.9727806,-0.58512694,1.4930421,3.8503468,3.24137,2.3190532,-4.207661
v3_5___cirrhosis_patient_survival_prediction,3.5868676,-15.637297,2.7907853,7.7878327,-0.44180164,0.95925236,-12.623233,2.396254,-5.1468096,6.881835,-1.1197,4.4705534,-12.878116,2.971514,-5.0331564,13.976842,-1.3390287,15.325679,-6.274609,-2.1374252,-2.0282264,17.51623,-12.473642,-7.063028,6.8678985,13.109303,-2.0743785,8.16104,19.899288,14.812876,12.324605,-21.060734
v4_5___cirrhosis_patient_survival_prediction,0.53494626,-2.2360122,1.160955,0.9124613,-0.08774941,0.701788,-1.1214079,0.4299198,-0.019997071,0.34726325,-0.11694415,-0.036242247,-1.9276476,1.4221833,-0.9499243,2.6705267,0.50542414,2.1206193,-1.0105141,-1.1840149,-0.048371363,2.019229,-1.1210543,-0.43757764,1.0976424,1.482139,-0.61935985,1.2831115,2.9779687,2.4896514,1.9325874,-3.159316
v0_5___arrhythmia,-0.2115883,-14.507892,3.660279,5.4717994,-1.7723576,-2.080044,-12.756097,4.140273,-1.0757914,4.8420653,0.59820545,8.399988,-12.697845,1.4811807,-3.7588227,13.583753,0.07696895,12.749277,-6.7220583,-4.2095833,-6.227328,14.681795,-12.513756,-6.125403,9.985739,9.643593,0.26678544,4.5175643,16.930674,14.762949,8.283679,-20.1003
v1_5___arrhythmia,-0.09695301,-13.065676,3.29485,4.8954706,-1.7425034,-1.8740629,-11.543164,3.6356723,-1.3325658,4.581941,0.42023173,7.5666137,-11.355797,1.1224772,-3.151504,12.012627,0.053111173,11.4574375,-6.2399697,-3.775399,-5.6968536,13.530276,-11.522586,-5.8295135,8.958212,8.663174,0.24970932,3.9698322,15.204435,12.989046,7.48201,-17.917984
v2_5___arrhythmia,1.9320625,-20.714682,2.9291768,8.610788,-2.1082408,-1.2040975,-17.863123,3.6135247,-4.9502325,8.707194,-1.0513761,10.575586,-17.680834,2.1790473,-5.208556,18.654726,-0.061779596,18.82487,-9.615316,-4.3228207,-6.4708023,22.210865,-18.431847,-9.713593,11.691475,15.321253,0.16315345,7.7367887,24.708105,18.00335,14.007632,-27.91033
v3_5___arrhythmia,0.022386074,-8.917223,2.5723212,3.3186798,-1.1550121,-1.0006574,-7.647822,2.4382644,-0.5847697,2.8144557,0.28366336,4.94192,-7.7460785,1.4560231,-2.3972974,8.520122,0.37302533,7.7996764,-4.1925654,-2.877372,-3.6595123,9.175052,-7.4431167,-3.7144141,6.0608826,5.753591,0.00083141326,2.918116,10.517544,9.168988,5.305936,-12.450507
v4_5___arrhythmia,0.29756087,-16.332226,3.6025472,6.3427134,-1.9510708,-2.191462,-14.453596,4.284375,-2.3471494,6.1317244,0.32955503,9.291605,-14.063275,1.2315016,-3.9150062,14.7452345,-0.24513741,14.498159,-7.630309,-4.2052145,-6.674951,17.139353,-14.509863,-7.433287,10.685086,11.209963,0.31788293,5.169992,19.041891,15.83597,9.652758,-22.22881
v0_5___regensburg_pediatric_appendicitis,0.4863495,-10.518431,2.2607932,4.2373276,-0.98736554,-0.5865946,-9.118657,2.2199833,-1.529745,3.8933194,-0.12293939,5.1054564,-9.026565,1.4293721,-3.0655434,9.992654,0.034852505,9.7495165,-4.8319993,-2.6337898,-3.3819878,10.907052,-8.9938965,-4.539573,6.37118,7.6402893,-0.20028487,4.152781,12.8160305,10.133538,6.8516784,-14.436478
v1_5___regensburg_pediatric_appendicitis,0.41797677,-6.4741044,1.7542216,2.5977101,-0.6146161,-0.004832363,-5.399263,1.2625566,-0.76654327,2.1454515,-0.14364639,2.7434294,-5.5378647,1.3712741,-2.0631008,6.4111605,0.28386125,6.028558,-3.0128338,-1.9225918,-1.856053,6.72185,-5.248953,-2.6711776,3.8659554,4.654376,-0.37054795,2.7699387,8.074714,6.4210052,4.4453726,-8.99843
v2_5___regensburg_pediatric_appendicitis,0.5763899,-17.237194,2.97162,6.9045815,-1.7052124,-1.4799942,-15.101156,3.6870606,-2.6967666,6.551791,-0.22281952,9.061652,-14.945215,1.4204077,-4.636243,16.068962,-0.21219845,15.789001,-7.925287,-4.0677977,-6.0787454,17.612682,-15.228391,-7.5788956,10.641325,12.649518,0.19976845,6.2456884,20.583515,16.01157,10.882759,-23.481352
v3_5___regensburg_pediatric_appendicitis,0.40908927,-3.1862721,1.3332859,1.2198151,-0.1839878,0.3716659,-2.266522,0.7147087,-0.14848027,0.7473456,0.019416904,0.84832036,-2.6454058,1.3987901,-1.1650168,3.4255834,0.44761896,2.9812999,-1.4469469,-1.321358,-0.5970659,3.2491767,-2.087995,-1.0484684,1.8082386,2.0671403,-0.42749915,1.526809,4.1137395,3.489771,2.3622842,-4.5057917
v4_5___regensburg_pediatric_appendicitis,0.53072166,-4.7305207,1.5463737,1.9187244,-0.40388995,0.3229541,-3.621395,0.8836647,-0.54238427,1.451945,-0.1597887,1.5713065,-4.0191507,1.454984,-1.5983064,4.829152,0.4034072,4.4131002,-2.1944253,-1.6129987,-1.0513475,4.8591294,-3.5399513,-1.7796905,2.6589847,3.327119,-0.5103702,2.180273,5.989201,4.7828674,3.4576077,-6.588353
v0_5___amazon-commerce-reviews,0.5131788,-2.3129756,1.2284231,0.97332317,-0.15386088,0.59061676,-1.24711,0.5212885,-0.046838045,0.40090027,-0.057481073,0.14589877,-1.9676812,1.4604274,-0.9395828,2.6396058,0.5284382,2.1158948,-1.0486275,-1.1717918,-0.12710612,2.2678993,-1.2289925,-0.53548115,1.1850607,1.4272217,-0.5871703,1.2755159,3.04372,2.593624,1.9063457,-3.280671
v1_5___amazon-commerce-reviews,0.4800287,-2.29319,1.2426409,0.9520005,-0.15417996,0.57366556,-1.2347481,0.53789836,-0.00063023565,0.37557688,-0.03773083,0.1527842,-1.9581226,1.4472047,-0.93391836,2.636458,0.53125393,2.0971532,-1.0422518,-1.1846892,-0.15036397,2.2214131,-1.2089183,-0.5154877,1.2012846,1.3999403,-0.5816638,1.249974,3.0136263,2.6035862,1.868095,-3.2624526
v2_5___amazon-commerce-reviews,0.49310905,-2.5163262,1.2644922,1.0259888,-0.18792488,0.52789676,-1.4195532,0.5959992,-0.04509964,0.450697,-0.0377666,0.32605934,-2.1508422,1.4682095,-0.9616343,2.8238974,0.55091697,2.2650332,-1.1489235,-1.2581887,-0.26314765,2.4529812,-1.4112605,-0.6169005,1.3513119,1.5293192,-0.5366808,1.2810643,3.2455463,2.7806697,1.9929283,-3.5614567
v3_5___amazon-commerce-reviews,0.4462486,-2.3207054,1.2703966,0.95327055,-0.16156428,0.5417408,-1.2731956,0.57318604,0.041433524,0.35550195,-0.00934549,0.19587222,-1.9878563,1.4366405,-0.94271505,2.6701236,0.53461915,2.1120586,-1.0573142,-1.2115676,-0.1983757,2.2369123,-1.2342834,-0.5210473,1.2575203,1.4043113,-0.5680543,1.2369092,3.040031,2.6612167,1.8501213,-3.3105998
v4_5___amazon-commerce-reviews,0.49096337,-2.3438625,1.2373704,0.9717329,-0.16435312,0.56889427,-1.2801571,0.53913677,-0.028752565,0.40621203,-0.04718227,0.19005498,-2.0002751,1.4524491,-0.9385747,2.672874,0.5375809,2.1360676,-1.0697048,-1.1911364,-0.16699004,2.2865443,-1.2629923,-0.54723847,1.225127,1.4325877,-0.5713331,1.2625747,3.0692878,2.6269116,1.9044164,-3.325997
v0_5___Bioresponse,0.67383826,-2.4681396,1.1369863,0.7255331,0.12628753,1.0663459,-1.2974287,0.13699353,-0.47168714,1.0353277,-0.42368904,-0.3562378,-1.7549999,1.6173325,-0.95332116,2.8280957,0.33197486,2.900455,-1.115908,-0.9363537,0.22684972,2.4064143,-1.0466286,-1.0526638,0.6486192,1.5960543,-0.93739355,1.7922783,3.5081112,2.7411723,2.4286046,-3.4199822
v1_5___Bioresponse,0.676169,-2.4723957,1.1446149,0.72844064,0.12388514,1.0637414,-1.2944968,0.1427315,-0.46703464,1.0252184,-0.41913182,-0.35310984,-1.760745,1.6216259,-0.9549328,2.8332503,0.33840427,2.895863,-1.1179218,-0.94795877,0.22261338,2.4049196,-1.0473202,-1.0435629,0.6565199,1.5966954,-0.9361226,1.7857163,3.5079398,2.7459311,2.4276233,-3.4252076
v2_5___Bioresponse,0.6769742,-2.473652,1.1408551,0.72430986,0.12924702,1.0749304,-1.2959961,0.1338071,-0.47530136,1.0409596,-0.42757678,-0.36475945,-1.7565664,1.6241192,-0.95535696,2.8360953,0.3349205,2.9104667,-1.1205223,-0.9393467,0.23243384,2.4053712,-1.0449169,-1.0551935,0.6449834,1.5983489,-0.9433757,1.7987257,3.5178196,2.745902,2.438137,-3.4264464
v3_5___Bioresponse,0.6757201,-2.4619195,1.1462948,0.73532975,0.1249853,1.0516311,-1.286313,0.1542949,-0.46159357,1.0067075,-0.40656453,-0.35187668,-1.7540867,1.6078666,-0.9521899,2.8174977,0.3316838,2.8757386,-1.1072083,-0.95053947,0.21812448,2.399534,-1.0437487,-1.0320653,0.6624497,1.5943921,-0.9313979,1.7718385,3.489592,2.7396698,2.4118004,-3.4103043
v4_5___Bioresponse,0.6814176,-2.4729965,1.1487087,0.7270686,0.13074961,1.0683974,-1.288348,0.14737603,-0.47261667,1.0326326,-0.41491956,-0.36371273,-1.754556,1.6267664,-0.9532196,2.8318524,0.33649716,2.9040742,-1.1154004,-0.9483244,0.23310597,2.4049923,-1.0407668,-1.0449898,0.6488813,1.5921433,-0.9422512,1.7916197,3.5117145,2.7482352,2.4282365,-3.423695
v0_5___isolet,0.32520622,-1.955081,1.5409145,0.6771784,-0.32511774,0.19720319,-1.0802732,0.8410117,0.15801112,0.5345036,0.33639988,0.39212728,-1.6857007,1.6402636,-0.5950929,2.1283956,0.7968689,1.5757977,-1.0183206,-1.0653315,-0.29123437,2.2477944,-1.0300944,-0.48676762,1.1494327,0.50283414,-0.48565632,0.7801234,2.4050312,2.527082,1.2062525,-2.7706923
v1_5___isolet,0.33851314,-1.9555283,1.5283058,0.6822284,-0.3185225,0.20402852,-1.0611765,0.8427308,0.13869426,0.52602136,0.32446948,0.37495643,-1.6795098,1.6264032,-0.58787656,2.1170735,0.7755271,1.5817621,-1.0150425,-1.0756088,-0.2885258,2.2466908,-1.026566,-0.4936835,1.14239,0.5185763,-0.48890877,0.78585,2.4059887,2.5099294,1.21498,-2.760804
v2_5___isolet,0.33779132,-1.9562613,1.5451428,0.67020386,-0.3107199,0.17986074,-1.0639527,0.86195517,0.119016245,0.5398766,0.3497758,0.39230466,-1.6553808,1.6128628,-0.5636201,2.090986,0.77451956,1.5739086,-1.0129616,-1.080464,-0.30883482,2.275306,-1.0313321,-0.5108885,1.1438649,0.4927864,-0.4782195,0.7478329,2.3898191,2.5164948,1.1969172,-2.7483878
v3_5___isolet,0.33781874,-1.9455198,1.5339763,0.68480426,-0.31798106,0.1884045,-1.061234,0.85078984,0.14911774,0.5221602,0.34752154,0.3906233,-1.6756184,1.6337715,-0.5901914,2.10912,0.79085934,1.5552194,-1.0012786,-1.0671041,-0.2849606,2.2417727,-1.0231225,-0.46793947,1.1423461,0.50131667,-0.4791557,0.76429546,2.3829782,2.5106463,1.1944739,-2.751651
v4_5___isolet,0.33770508,-1.9496189,1.551554,0.68274844,-0.3173533,0.18717842,-1.0624735,0.85782874,0.15164728,0.5255136,0.35398015,0.3886557,-1.6758926,1.6454862,-0.5891324,2.1111197,0.7990019,1.5564413,-1.0068444,-1.071963,-0.2861275,2.2491648,-1.019977,-0.4719495,1.1452785,0.48914194,-0.48441178,0.7613835,2.3880935,2.525816,1.1938156,-2.757974
v0_5___mushroom,0.6857968,-2.4463928,1.1546494,0.7468172,0.12390824,1.0398027,-1.2673991,0.16353855,-0.4679719,0.9875692,-0.3915235,-0.35952243,-1.7427706,1.5945876,-0.94616413,2.7904127,0.33205885,2.8411088,-1.0989821,-0.95659983,0.22043543,2.3918586,-1.0414397,-1.0108728,0.6633037,1.5885586,-0.9298727,1.7466364,3.4600074,2.7188292,2.3948228,-3.3817794
v1_5___mushroom,0.70276654,-2.49193,1.2040656,0.72318083,0.14072034,1.0836283,-1.2547503,0.18327305,-0.46719852,1.0367891,-0.3871991,-0.4018585,-1.7586025,1.6692979,-0.947137,2.8574686,0.36193547,2.9323676,-1.1285509,-0.99713075,0.25478798,2.399334,-1.0175717,-1.0308199,0.6500817,1.5647209,-0.9738247,1.7993017,3.5349216,2.7795777,2.4277425,-3.4449449
v2_5___mushroom,0.73966634,-2.466409,1.2268214,0.7723897,0.16488293,1.0408419,-1.2261509,0.2296936,-0.4954926,0.9796667,-0.32856625,-0.40995985,-1.7185091,1.6378609,-0.9453007,2.7795682,0.3317805,2.8559422,-1.0801156,-0.99814355,0.2675196,2.415369,-1.0089592,-0.9849405,0.652767,1.5681708,-0.95810044,1.7434177,3.4745376,2.7701843,2.3935933,-3.3865674
v3_5___mushroom,0.7669532,-2.534122,1.2834295,0.73193574,0.19319855,1.1229982,-1.2261994,0.2235367,-0.51860934,1.0879712,-0.34737617,-0.48771256,-1.7382734,1.7417017,-0.94841063,2.8831515,0.36585122,3.017321,-1.1327021,-1.0315926,0.32955277,2.4380474,-0.98501474,-1.0435215,0.61089575,1.5500256,-1.0350342,1.8436947,3.6017432,2.8504915,2.466355,-3.4823468
v4_5___mushroom,0.81433,-2.5103226,1.3302573,0.7877556,0.22415924,1.065416,-1.1701026,0.30152613,-0.544696,1.0004561,-0.25997204,-0.4974424,-1.6945384,1.7135363,-0.9378174,2.7944553,0.34553075,2.9135501,-1.0782306,-1.064433,0.33344108,2.448214,-0.9684889,-0.9671342,0.6270031,1.5391577,-1.0149195,1.750055,3.522836,2.8481858,2.4129786,-3.4168715
v0_5___SpeedDating,0.6633007,-2.8302267,1.1233121,1.1472616,0.08352163,0.74846065,-1.8396803,0.3962199,-0.4491167,0.8201464,-0.18776482,0.1772995,-2.1636791,1.4320362,-1.1617639,3.0597124,0.2489018,2.9257839,-1.1738198,-1.0086014,-0.041600753,2.9301968,-1.6163113,-1.01609,1.1802837,2.0569491,-0.64265156,1.736166,3.8615944,3.0780368,2.4991384,-3.9324405
v1_5___SpeedDating,0.6300974,-2.9066072,1.1581199,1.15735,0.07148705,0.74354476,-1.928093,0.41127986,-0.42393678,0.8609457,-0.18602969,0.21052785,-2.237513,1.4337319,-1.1941161,3.1541893,0.24269824,3.0224206,-1.2192056,-1.0242523,-0.0805006,2.9850261,-1.6818116,-1.0561097,1.2396673,2.108501,-0.6610392,1.7814903,3.969749,3.1885517,2.5344572,-4.0511217
v2_5___SpeedDating,0.63746774,-3.235759,1.2110398,1.2776425,-0.011305654,0.70724773,-2.2441115,0.44896618,-0.4749654,0.9978693,-0.21985826,0.43433475,-2.5472856,1.45727,-1.2790495,3.4718947,0.25535965,3.3189902,-1.3941001,-1.1206508,-0.22695017,3.3281484,-2.006523,-1.1955167,1.4578086,2.3602366,-0.6572641,1.9036009,4.3597302,3.472144,2.7412677,-4.514653
v3_5___SpeedDating,0.5526361,-3.2759585,1.1907824,1.2993456,-0.00991646,0.58270663,-2.3731422,0.5267789,-0.40649486,0.94625264,-0.13219409,0.6137573,-2.5903194,1.3770195,-1.2881434,3.4925513,0.23893222,3.3028824,-1.3923795,-1.1223755,-0.3502027,3.3954575,-2.104183,-1.2170495,1.5898554,2.3788095,-0.54237336,1.8325752,4.3761377,3.540872,2.6739311,-4.5895944
v4_5___SpeedDating,0.6087544,-2.9907446,1.2282536,1.1646656,0.06889127,0.70520246,-1.9850976,0.47068086,-0.3921485,0.8553568,-0.14792144,0.272818,-2.2917035,1.4464316,-1.2088057,3.2325962,0.25138646,3.0899215,-1.249377,-1.0916138,-0.15080266,3.0448048,-1.719833,-1.0761166,1.3181417,2.128399,-0.66287637,1.7716625,4.0474534,3.321258,2.5497055,-4.1722584
v0_5___adult,0.29503646,-6.511636,1.8823957,2.5479755,-0.73504007,-0.16029367,-5.484713,1.3626711,-0.62752926,2.1078877,-0.07221136,2.9930232,-5.608005,1.3946357,-2.0126555,6.437744,0.3860882,5.9482713,-3.0858006,-2.0409844,-2.081768,6.7836013,-5.31649,-2.6988857,4.0498013,4.504159,-0.3029824,2.63485,8.038603,6.5415483,4.3345475,-9.104681
v1_5___adult,0.51553696,-2.1965027,1.1764433,0.8942934,-0.10359617,0.67572963,-1.0901805,0.4458267,-0.018511582,0.36238948,-0.09175211,-0.022230197,-1.8861492,1.4255202,-0.91906154,2.6046283,0.5311049,2.057178,-1.0045669,-1.166198,-0.047060203,2.0054076,-1.1044571,-0.42873317,1.0814265,1.3981392,-0.6122846,1.2388295,2.9116101,2.4506817,1.8755699,-3.0979574
v2_5___adult,853.92645,-11906.99,1326.9792,5084.225,-1060.7125,-1041.4346,-10534.86,2314.7114,-2809.0215,5172.9155,-375.09824,6220.9834,-10318.925,465.5905,-2965.188,10582.639,-557.78107,10944.538,-5401.6626,-2053.3962,-3851.6978,12402.492,-10915.189,-5526.203,6851.745,9144.529,209.71915,4328.4834,14133.216,10386.485,7693.233,-15932.528
v3_5___adult,0.5179671,-2.2102628,1.1711276,0.91210634,-0.104896106,0.6840509,-1.1131828,0.4370559,-0.015864396,0.3566257,-0.10117664,-0.023794841,-1.9050779,1.4196198,-0.9378872,2.6302972,0.5185726,2.0800016,-1.0056719,-1.1648768,-0.04647138,2.0220497,-1.1187229,-0.43305454,1.0927109,1.4382474,-0.6202806,1.2657924,2.9421093,2.468279,1.8984711,-3.1280272
v4_5___adult,0.5217906,-2.2016563,1.1828959,0.89819556,-0.09838311,0.6775858,-1.0882994,0.44924584,-0.022683954,0.36001822,-0.09190378,-0.023914099,-1.8821853,1.4323815,-0.92184275,2.6056306,0.5270213,2.0635638,-1.0014135,-1.1699183,-0.044486262,2.0132241,-1.0977745,-0.43099642,1.0790325,1.4005202,-0.6174755,1.2447274,2.9181256,2.462646,1.8844831,-3.106072
v0_5___mnist_784,1.662471,-45.08909,6.709081,18.427292,-4.5083957,-4.5290427,-40.092598,9.638061,-7.9925003,18.195814,-0.708976,24.190128,-39.33664,2.6173842,-11.785913,41.183235,-1.4498832,41.251484,-20.61296,-9.21523,-16.05127,46.297905,-40.532738,-20.374676,27.60342,33.48039,0.6431557,16.226717,53.590385,41.465107,28.248205,-61.24015
v1_5___mnist_784,1.7389446,-46.395447,7.246071,18.993052,-4.778581,-4.4350386,-41.219048,9.890394,-8.115416,18.780844,-0.75825274,24.525814,-40.641075,3.1308942,-12.243279,42.48014,-1.151754,42.342976,-21.430653,-9.466006,-16.2827,47.64285,-41.637367,-20.933937,28.394196,34.228447,0.38139573,16.874825,55.332924,42.790024,29.090765,-63.08322
v2_5___mnist_784,2.0662804,-48.918045,7.574725,20.080969,-4.9807353,-4.6458917,-43.331734,10.431649,-8.778479,19.821442,-0.8269974,25.838297,-42.791176,3.382141,-12.824994,44.66005,-1.2440445,44.583134,-22.524876,-9.959047,-17.07166,50.319267,-43.827515,-22.07864,29.791454,36.088493,0.4272774,17.741364,58.26579,45.03053,30.76875,-66.46555
v3_5___mnist_784,2.0214393,-40.693607,5.960986,16.749744,-4.1083345,-3.5143025,-35.99158,8.187422,-7.764722,16.69317,-1.0893621,21.294085,-35.451218,2.9044678,-10.707879,37.152763,-1.0138569,37.263477,-18.736652,-8.151348,-13.876927,42.13193,-36.47727,-18.563246,24.391836,30.280096,0.3084568,15.051791,48.59961,36.988235,26.05177,-55.231956
v4_5___mnist_784,3.0391285,-49.562878,6.7541327,20.75293,-4.8164053,-3.809349,-43.88152,9.465591,-10.423806,20.980167,-1.6776758,25.359882,-43.08268,3.4559817,-13.073637,44.982407,-1.3948548,45.620304,-22.827284,-9.238531,-16.05347,51.68612,-44.70122,-22.840878,28.97141,37.379486,0.18487397,18.772177,59.449512,44.352875,32.214455,-66.98857
