,ft0,ft1,ft2,ft3,ft4,ft5,ft6,ft7,ft8,ft9,ft10,ft11,ft12,ft13,ft14,ft15,ft16,ft17,ft18,ft19,ft20,ft21,ft22,ft23,ft24,ft25,ft26,ft27,ft28,ft29,ft30,ft31
abalone,0.43627500534057617,-2.015551805496216,1.4247204065322876,0.8236943483352661,-0.22964783012866974,0.3480197787284851,-1.0558605194091797,0.7401424050331116,0.14834919571876526,0.3598368167877197,0.20355673134326935,0.2650887072086334,-1.7596771717071533,1.594012975692749,-0.7592787742614746,2.2904953956604004,0.6673738360404968,1.7033277750015259,-0.9404085874557495,-1.125328540802002,-0.17356884479522705,2.143624782562256,-1.0010806322097778,-0.3772270083427429,1.128117561340332,0.8701057434082031,-0.5313546061515808,0.9705215692520142,2.561610221862793,2.5345685482025146,1.4514676332473755,-2.8979179859161377
adult,494.154052734375,-2436.30126953125,96.5640869140625,1210.6656494140625,-69.8233871459961,22.081737518310547,-2142.374267578125,256.6351623535156,-997.6387939453125,1271.788330078125,-235.63375854492188,959.2276611328125,-1984.6962890625,117.776123046875,-684.8250122070312,2060.165283203125,-309.00592041015625,2422.22119140625,-992.1716918945312,-142.70590209960938,-397.2659606933594,2778.13818359375,-2211.853271484375,-1234.5550537109375,1033.12109375,2162.586669921875,-116.9305648803711,1176.090087890625,3031.815673828125,1990.0963134765625,1880.015380859375,-3188.94970703125
balance_scale,0.4783981740474701,-2.8784563541412354,1.0862245559692383,0.9911199808120728,-0.016800235956907272,-0.06470000743865967,-1.8615062236785889,1.0048015117645264,-0.3942676782608032,0.7494789361953735,0.3573358654975891,1.222994327545166,-2.0835254192352295,1.2347418069839478,-0.7188944816589355,2.6971793174743652,0.3794032037258148,2.4397997856140137,-1.050661325454712,-1.2437080144882202,-0.7313552498817444,3.215183973312378,-1.828033208847046,-0.9516971707344055,1.5750399827957153,1.4571545124053955,0.0025913952849805355,0.8472795486450195,3.295987367630005,3.037208080291748,1.8458589315414429,-3.8608551025390625
breast_cancer,0.7445882558822632,-2.487593173980713,1.2867653369903564,0.7589070200920105,0.1772424578666687,1.0460785627365112,-1.2077414989471436,0.28270456194877625,-0.4587565064430237,0.9867212176322937,-0.28375405073165894,-0.4196310043334961,-1.7312980890274048,1.700798749923706,-0.9415715336799622,2.8250765800476074,0.36844950914382935,2.891730546951294,-1.091684103012085,-1.0481464862823486,0.28464871644973755,2.404771327972412,-0.9837453961372375,-0.9619776606559753,0.6674767136573792,1.5189529657363892,-0.9788905382156372,1.757559061050415,3.5054187774658203,2.826022148132324,2.3775832653045654,-3.429372787475586
breast_cancer_wisconsin_original,0.5815712213516235,-3.132744789123535,1.0909055471420288,1.0854270458221436,0.2359073907136917,0.14923258125782013,-2.243896722793579,0.807754397392273,-0.7333827614784241,1.2210509777069092,0.19775032997131348,1.0199106931686401,-2.009035348892212,1.2640306949615479,-0.9250385165214539,2.8669774532318115,0.065465047955513,3.0797953605651855,-1.0177099704742432,-0.9085410237312317,-0.4985097348690033,3.6934943199157715,-1.8803402185440063,-1.3918578624725342,1.3350884914398193,1.8297145366668701,-0.2614820599555969,1.3393476009368896,3.8560523986816406,3.504624605178833,2.3685264587402344,-4.238926410675049
breast_cancer_wisconsin_prognostic,6.629325866699219,-117.9419937133789,14.262540817260742,50.33661651611328,-10.44051742553711,-10.173639297485352,-105.85374450683594,23.052404403686523,-26.02789306640625,51.350616455078125,-3.0599212646484375,60.83280563354492,-102.35395812988281,4.223359107971191,-30.791833877563477,105.9650650024414,-5.7992377281188965,109.63362121582031,-53.739105224609375,-19.90522003173828,-37.896156311035156,122.69792175292969,-108.5588150024414,-54.58494186401367,68.61872863769531,91.09159851074219,1.1833832263946533,44.337257385253906,141.3744659423828,104.54393005371094,75.57747650146484,-158.20083618164062
car_evaluation,0.5349854826927185,-2.045586585998535,1.4051685333251953,0.7884868383407593,-0.04355202987790108,0.5140107870101929,-0.834608256816864,0.6817798614501953,0.06086020544171333,0.3299609422683716,0.21094241738319397,0.0014877557987347245,-1.6988985538482666,1.6066181659698486,-0.7896673679351807,2.355048894882202,0.7334485054016113,1.7177295684814453,-0.8858830332756042,-1.2049132585525513,8.244514174293727e-05,1.8543479442596436,-0.8749125599861145,-0.20034904778003693,0.9978817701339722,0.914799690246582,-0.5604206919670105,0.8871189951896667,2.5509660243988037,2.4621520042419434,1.5450055599212646,-2.836379051208496
credit_approval,4.621694564819336,-36.82342529296875,3.3909194469451904,15.964007377624512,-2.8515312671661377,-1.2586891651153564,-31.69759178161621,5.363187789916992,-10.885719299316406,16.780139923095703,-2.5928635597229004,17.712800979614258,-31.0963134765625,3.0545754432678223,-9.29481029510498,32.6147575378418,-1.0367400646209717,34.29236602783203,-16.665019989013672,-6.072742462158203,-9.737093925476074,39.58478927612305,-33.19249725341797,-17.563720703125,19.051071166992188,28.754261016845703,0.2111869752407074,14.576614379882812,44.27336120605469,30.39108657836914,25.92795753479004,-48.8965950012207
contraceptive_method_choice,0.43235379457473755,-6.6999382972717285,1.729579210281372,2.595769166946411,-0.6231676340103149,-0.47467246651649475,-5.67026424407959,1.5959765911102295,-0.9875974655151367,2.4350268840789795,0.18226034939289093,3.5163230895996094,-5.549896717071533,1.4247314929962158,-1.8423278331756592,6.301430702209473,0.36987432837486267,5.9788103103637695,-3.011436939239502,-1.9418861865997314,-2.1518442630767822,7.221800327301025,-5.5803985595703125,-2.7356619834899902,4.0347089767456055,4.399995803833008,0.04079608991742134,2.361276626586914,7.978146553039551,6.55468225479126,4.279894828796387,-9.184381484985352
dermatology,0.3311363756656647,-3.13746976852417,1.563697338104248,1.1949708461761475,-0.3066486716270447,0.16142845153808594,-2.0799038410186768,0.9820500612258911,0.0436093807220459,0.5951836705207825,0.20488858222961426,0.9890840649604797,-2.662879467010498,1.4633691310882568,-1.0534827709197998,3.3154006004333496,0.5866045951843262,2.6964430809020996,-1.4360573291778564,-1.519646406173706,-0.7757383584976196,3.158592939376831,-2.002359628677368,-0.8842273950576782,1.9675886631011963,1.7441612482070923,-0.4017903208732605,1.254231333732605,3.863063097000122,3.560189723968506,2.089949369430542,-4.436180591583252
ecoli,0.45308083295822144,-1.9476200342178345,1.403028964996338,0.7619068026542664,-0.14411136507987976,0.22667483985424042,-0.8275243639945984,0.9614262580871582,0.04808201640844345,0.24302172660827637,0.2802106738090515,0.2164796143770218,-1.541627287864685,1.390133023262024,-0.5514653921127319,2.004605770111084,0.4176889955997467,1.6636486053466797,-0.8205423355102539,-1.242394208908081,-0.30803927779197693,2.1780617237091064,-0.8651588559150696,-0.504146933555603,1.1097824573516846,0.7723454236984253,-0.4877985119819641,0.8241978883743286,2.3749442100524902,2.4615554809570312,1.2900779247283936,-2.6699912548065186
glass_identification,0.525255560874939,-14.680831909179688,2.739269971847534,5.855121612548828,-1.5932791233062744,-1.3607969284057617,-12.95728874206543,3.2119171619415283,-2.3089041709899902,5.692887306213379,-0.14759941399097443,7.993569850921631,-12.674020767211914,1.58951735496521,-3.9038987159729004,13.60949420928955,0.009552573785185814,13.355035781860352,-6.817762851715088,-3.517159938812256,-5.206140995025635,15.375805854797363,-12.971351623535156,-6.56824254989624,9.055500984191895,10.44758129119873,0.20773105323314667,5.339062690734863,17.514429092407227,13.738424301147461,9.23908805847168,-20.080575942993164
heart_disease,3.8338675498962402,-61.81061935424805,8.087809562683105,26.0712833404541,-5.598904609680176,-5.580474853515625,-54.81108474731445,12.600908279418945,-13.3355131149292,26.214889526367188,-1.3655277490615845,32.5032958984375,-53.47063446044922,3.3150596618652344,-15.78321647644043,55.43956756591797,-2.4701614379882812,56.80965042114258,-28.024831771850586,-11.405108451843262,-20.343887329101562,64.47776794433594,-56.1286506652832,-28.358402252197266,36.17239761352539,46.74330139160156,0.9484115839004517,22.578763961791992,73.53157043457031,55.2444953918457,39.54102325439453,-83.13713073730469
hepatitis,2.276315927505493,-22.460861206054688,3.146338701248169,9.886059761047363,-1.4669063091278076,-1.285274863243103,-19.715557098388672,4.221405982971191,-5.779545307159424,9.892644882202148,-0.5839711427688599,10.977697372436523,-18.762571334838867,1.8843367099761963,-6.0402936935424805,19.955455780029297,-0.9517448544502258,21.073383331298828,-9.85623836517334,-3.901564121246338,-6.099000930786133,24.2957763671875,-20.073287963867188,-10.30778694152832,12.06358528137207,17.334522247314453,-0.07943115383386612,8.872126579284668,27.120174407958984,19.992630004882812,15.166729927062988,-30.00896644592285
image_segmentation,1.90362548828125,-37.073402404785156,5.624570369720459,15.28546142578125,-3.6850833892822266,-3.857487201690674,-32.89301300048828,8.1433744430542,-7.4094390869140625,15.37837028503418,-0.44244861602783203,20.009366989135742,-32.04835510253906,2.1678693294525146,-9.218703269958496,33.20401382446289,-1.2969707250595093,33.75617218017578,-16.971256256103516,-7.449313163757324,-13.04828929901123,38.82017135620117,-33.536319732666016,-17.094478607177734,22.355175018310547,27.29354476928711,0.6615592837333679,13.041549682617188,43.81671142578125,33.8061637878418,23.206958770751953,-49.99449920654297
ionosphere,0.9833114743232727,-2.8565666675567627,1.883770227432251,0.6089707016944885,0.3098406493663788,1.1814767122268677,-0.895760715007782,0.5976318120956421,-0.5376874208450317,1.0725905895233154,-0.1141124814748764,-0.5986166000366211,-1.766257882118225,2.211331844329834,-0.7907930612564087,3.1058802604675293,0.6805776357650757,3.2272582054138184,-1.2756426334381104,-1.6243339776992798,0.2781643867492676,2.523759126663208,-0.7447993755340576,-0.9757652282714844,0.620570957660675,1.235648274421692,-1.2139514684677124,1.5920276641845703,3.7743847370147705,3.3540077209472656,2.517246723175049,-3.8004868030548096
iris,0.36288443207740784,-3.596986770629883,1.3097641468048096,1.2270355224609375,-0.23742178082466125,-0.20390033721923828,-2.59582257270813,1.1449776887893677,-0.310928612947464,0.9666910171508789,0.3393389582633972,1.7339195013046265,-2.8276119232177734,1.319523811340332,-0.9448445439338684,3.460848331451416,0.4969409108161926,3.038564443588257,-1.4796061515808105,-1.4906713962554932,-1.1406593322753906,3.888842821121216,-2.51737904548645,-1.2544574737548828,2.188408613204956,1.9019416570663452,0.0009233951568603516,1.0937697887420654,4.163204669952393,3.7636775970458984,2.215088129043579,-4.941422462463379
isolet,0.3333647847175598,-1.9442107677459717,1.541628122329712,0.6781901717185974,-0.3151853084564209,0.18632540106773376,-1.064270257949829,0.8517802357673645,0.1499430239200592,0.5260813236236572,0.3492880165576935,0.3921315670013428,-1.6670897006988525,1.633233666419983,-0.5864837765693665,2.105473041534424,0.7889769673347473,1.5586378574371338,-1.0020854473114014,-1.0666377544403076,-0.28998368978500366,2.245572566986084,-1.0183652639389038,-0.4772740304470062,1.141321063041687,0.4936355948448181,-0.4803800582885742,0.7612051963806152,2.3818976879119873,2.5192625522613525,1.194250464439392,-2.750439167022705
letter_recognition,-0.10646362602710724,-6.683999061584473,1.8070175647735596,2.296863555908203,-1.016128420829773,-0.8818896412849426,-5.6279096603393555,1.8896007537841797,-0.2366478443145752,2.0661346912384033,0.23893427848815918,4.105183124542236,-5.895880699157715,1.3015691041946411,-1.642428994178772,6.506450653076172,0.5769780874252319,5.7204694747924805,-3.236682176589966,-2.3916258811950684,-2.9350078105926514,6.769017219543457,-5.625453472137451,-2.717512369155884,4.673356056213379,3.9798800945281982,0.32100096344947815,1.9842979907989502,7.697214603424072,6.6345367431640625,3.801318645477295,-9.34150505065918
lung_cancer,1.0617231130599976,-2.2490365505218506,1.4518852233886719,1.1572959423065186,0.38536685705184937,0.2555907070636749,-0.6411069631576538,1.163673996925354,-0.6455716490745544,0.3633856773376465,0.6323655843734741,0.016374969854950905,-1.3757238388061523,1.4588158130645752,-0.5863395929336548,1.9167258739471436,0.34262916445732117,1.7402153015136719,-0.5045790672302246,-1.263283371925354,0.09947466850280762,2.593593120574951,-0.8764020204544067,-0.28947824239730835,0.8159769773483276,1.0542305707931519,-0.47032803297042847,0.5545735955238342,2.50382924079895,2.631690502166748,1.6211345195770264,-2.812385320663452
mushroom,0.740567147731781,-2.4895644187927246,1.2354347705841064,0.755671501159668,0.16848474740982056,1.0703728199005127,-1.2329118251800537,0.21781885623931885,-0.4967941343784332,1.0142443180084229,-0.3458682894706726,-0.4282599985599518,-1.7323449850082397,1.6688454151153564,-0.9492998123168945,2.8210062980651855,0.34483247995376587,2.9094510078430176,-1.1013998985290527,-1.0056476593017578,0.28058332204818726,2.4188199043273926,-1.0054689645767212,-1.0069993734359741,0.6428754925727844,1.5676991939544678,-0.9795724153518677,1.7790502309799194,3.519327163696289,2.7937443256378174,2.4216110706329346,-3.423189878463745
nursery,0.5661171674728394,-2.0634706020355225,1.434020757675171,0.791639506816864,-0.014930034056305885,0.5084238052368164,-0.8170193433761597,0.7103934288024902,0.02367253229022026,0.3398295044898987,0.23420318961143494,-0.01132211647927761,-1.6762250661849976,1.6362568140029907,-0.7814754247665405,2.3284223079681396,0.7335938215255737,1.713815450668335,-0.8638318777084351,-1.2059043645858765,0.011284232139587402,1.8996942043304443,-0.8487008810043335,-0.2100379914045334,0.97618168592453,0.8909996151924133,-0.5679054260253906,0.8639801144599915,2.5546793937683105,2.5024826526641846,1.5497640371322632,-2.8420462608337402
optical_recognition_of_handwritten_digits,0.060883380472660065,-6.392364978790283,1.7973829507827759,2.3330845832824707,-0.8946712613105774,-0.367381751537323,-5.41346549987793,1.433626651763916,-0.354775607585907,2.0497450828552246,-0.002847528550773859,3.347285509109497,-5.639277458190918,1.4752086400985718,-1.876678466796875,6.397380828857422,0.6409544348716736,5.64340353012085,-3.1323845386505127,-2.1188247203826904,-2.322530746459961,6.520626068115234,-5.2911057472229,-2.587144136428833,4.20415735244751,4.084971904754639,-0.045893095433712006,2.349708318710327,7.7251739501953125,6.3510918617248535,4.022768497467041,-8.994644165039062
pen-based_recognition_of_handwritten_digits,3.998940944671631,-67.6592788696289,8.621503829956055,28.410303115844727,-6.250265598297119,-6.161810398101807,-60.047874450683594,13.690150260925293,-14.48780345916748,28.750484466552734,-1.5982601642608643,35.731056213378906,-58.68614959716797,3.5135700702667236,-17.231643676757812,60.7866096496582,-2.5670065879821777,62.1302604675293,-30.821334838867188,-12.468305587768555,-22.425477981567383,70.33067321777344,-61.6020393371582,-31.036413192749023,39.72633361816406,51.1147346496582,1.192047119140625,24.632843017578125,80.44369506835938,60.19963455200195,43.189456939697266,-90.9874267578125
soybean_large,0.4640740752220154,-2.1407322883605957,1.3379746675491333,0.8541392087936401,-0.18889032304286957,0.43410128355026245,-1.0954906940460205,0.6685090661048889,0.015762995928525925,0.3933226466178894,0.10616377741098404,0.2049560546875,-1.808462142944336,1.5050432682037354,-0.7865439653396606,2.3789002895355225,0.6149484515190125,1.8557599782943726,-1.00637686252594,-1.162156105041504,-0.17404595017433167,2.1882996559143066,-1.1001850366592407,-0.4722382128238678,1.1443670988082886,1.0497099161148071,-0.5393186807632446,1.0397529602050781,2.73466157913208,2.5095953941345215,1.603777289390564,-3.008605718612671
congressional_voting_records,1.0335919857025146,-2.852560043334961,1.9353208541870117,0.6192218065261841,0.34280431270599365,1.1933156251907349,-0.8626779317855835,0.620509922504425,-0.5791814923286438,1.1289615631103516,-0.06937456130981445,-0.6349695920944214,-1.7361536026000977,2.254574775695801,-0.7728404998779297,3.090088367462158,0.6997474431991577,3.2444190979003906,-1.2629039287567139,-1.6277058124542236,0.34728461503982544,2.538782835006714,-0.7256331443786621,-0.9509924054145813,0.5587627291679382,1.2014710903167725,-1.2556015253067017,1.5813283920288086,3.7733922004699707,3.365577220916748,2.5076656341552734,-3.795269727706909
wine,6.151087760925293,-92.58644104003906,11.421918869018555,39.436012268066406,-8.0807523727417,-8.297589302062988,-82.17381286621094,18.642101287841797,-20.890079498291016,39.792999267578125,-2.2024619579315186,48.43974304199219,-79.92887115478516,4.2015838623046875,-23.519390106201172,82.59904479980469,-4.3366379737854,85.34569549560547,-41.756988525390625,-16.392620086669922,-30.029653549194336,96.78041076660156,-84.43360900878906,-42.71406555175781,53.64081954956055,70.70768737792969,1.4124435186386108,33.9317512512207,110.1429443359375,82.15463256835938,59.4713249206543,-124.17391204833984
yeast,0.4983385503292084,-2.020850658416748,1.271160364151001,0.8356271982192993,-0.08975742012262344,0.34592539072036743,-0.9414514303207397,0.7884615659713745,0.014419794082641602,0.23584334552288055,0.1567411720752716,0.21252068877220154,-1.6140081882476807,1.3708958625793457,-0.6968956589698792,2.184691905975342,0.3722711503505707,1.8017311096191406,-0.7972177267074585,-1.2008270025253296,-0.2286791056394577,2.1574652194976807,-0.9266180992126465,-0.45860832929611206,1.0855419635772705,1.0573158264160156,-0.4847566485404968,0.9714069366455078,2.5365376472473145,2.4761619567871094,1.517565369606018,-2.8251469135284424
zoo,0.5137545466423035,-2.0794517993927,1.4401954412460327,0.802873969078064,-0.11936257779598236,0.3829234540462494,-0.9555975198745728,0.7625393867492676,-0.01575911045074463,0.41248488426208496,0.2453182190656662,0.16201698780059814,-1.6932862997055054,1.588552713394165,-0.7137224078178406,2.248845100402832,0.6933724284172058,1.7157741785049438,-0.9372563362121582,-1.1678580045700073,-0.1272491216659546,2.144289493560791,-0.9820922613143921,-0.3789978325366974,1.065565824508667,0.8377405405044556,-0.5339177846908569,0.8632612228393555,2.577322483062744,2.515456438064575,1.4877160787582397,-2.8767402172088623
statlog_heart,4.1637468338012695,-62.090370178222656,7.897343635559082,26.426544189453125,-5.349442481994629,-5.2489914894104,-55.10192108154297,12.349746704101562,-13.952052116394043,26.706628799438477,-1.5197490453720093,32.167327880859375,-53.50150680541992,3.2221322059631348,-15.993879318237305,55.56398391723633,-2.686305284500122,57.379356384277344,-28.05299949645996,-11.034554481506348,-19.788633346557617,65.00027465820312,-56.46930694580078,-28.59383201599121,35.80437469482422,47.364402770996094,0.7544891238212585,23.072738647460938,74.11183166503906,55.199073791503906,40.06206130981445,-83.31660461425781
statlog_landsat_satellite,6.811887264251709,-111.86009216308594,13.634282112121582,47.288734436035156,-10.087886810302734,-10.400344848632812,-99.37922668457031,22.65913963317871,-24.561996459960938,47.7837028503418,-2.6564688682556152,59.04351043701172,-96.98212432861328,4.749386787414551,-28.2940616607666,100.07410430908203,-5.073004245758057,102.90205383300781,-50.70366668701172,-20.09514045715332,-37.05427169799805,116.2227783203125,-102.20478820800781,-51.46813201904297,65.47990417480469,85.22207641601562,2.026754856109619,40.619441986083984,132.8697052001953,99.19984436035156,71.38774108886719,-150.1579132080078
statlog_shuttle,2.2822232246398926,-45.93873977661133,6.827395439147949,18.97024917602539,-4.465752601623535,-4.815496921539307,-40.699527740478516,10.1723051071167,-8.949572563171387,18.90249252319336,-0.4629696011543274,24.790950775146484,-39.87221908569336,2.6519851684570312,-11.529040336608887,41.282379150390625,-1.63141667842865,41.78858184814453,-20.925222396850586,-9.203783988952637,-16.140445709228516,47.682456970214844,-41.4776496887207,-20.905054092407227,27.77471923828125,33.90913772583008,0.8815826177597046,16.129491806030273,54.27113723754883,41.96128463745117,28.669097900390625,-62.014183044433594
statlog_vehicle_silhouettes,9.896169662475586,-158.20680236816406,19.160400390625,67.14878845214844,-14.118908882141113,-14.605218887329102,-140.57028198242188,31.991363525390625,-35.11551284790039,67.79209899902344,-3.8142342567443848,83.0939712524414,-137.16293334960938,6.448378086090088,-40.067848205566406,141.340576171875,-7.572425842285156,145.66915893554688,-71.58119201660156,-28.004962921142578,-52.1160774230957,164.43197631835938,-144.571533203125,-72.87812042236328,92.35425567626953,120.91285705566406,2.579472303390503,57.6456184387207,188.0288848876953,140.34645080566406,101.12200927734375,-212.2987060546875
connectionist_bench_sonar_mines_vs_rocks,0.7928889989852905,-2.5516178607940674,1.3261486291885376,0.7888839840888977,0.1986943781375885,1.0366010665893555,-1.2811905145645142,0.32982805371284485,-0.5255578756332397,1.0636703968048096,-0.2439996749162674,-0.3931654095649719,-1.7360481023788452,1.7832181453704834,-0.9591037631034851,2.8223631381988525,0.35115209221839905,2.9601426124572754,-1.0791594982147217,-1.0022757053375244,0.323956161737442,2.57222056388855,-1.012101411819458,-1.0098316669464111,0.6470417976379395,1.5232990980148315,-0.9877195358276367,1.8014055490493774,3.589970350265503,2.939798593521118,2.398642063140869,-3.493709087371826
magic_gamma_telescope,1.8874092102050781,-53.66065216064453,8.708003044128418,21.987655639648438,-5.500453948974609,-6.812827110290527,-47.92847442626953,13.08806324005127,-9.980996131896973,21.918508529663086,0.35764962434768677,29.746257781982422,-46.63262176513672,1.8229477405548096,-12.819811820983887,47.667152404785156,-2.441758394241333,48.49418258666992,-24.676441192626953,-11.093843460083008,-20.18817710876465,55.661415100097656,-49.07700729370117,-24.67017364501953,33.520023345947266,39.146095275878906,1.316632866859436,17.774410247802734,62.86310577392578,49.64695358276367,32.2054557800293,-72.15231323242188
parkinsons,1.6732323169708252,-32.103458404541016,4.915342807769775,13.440023422241211,-2.915212869644165,-2.7514405250549316,-28.499521255493164,6.693933010101318,-6.289417743682861,13.175023078918457,-0.5581270456314087,16.494518280029297,-27.7081241607666,2.020207405090332,-8.57503890991211,29.129512786865234,-1.2268409729003906,29.6448917388916,-14.553326606750488,-6.297208309173584,-10.629404067993164,33.4422492980957,-28.811071395874023,-14.590814590454102,19.08385467529297,24.210512161254883,0.11262359470129013,12.034238815307617,38.48011016845703,29.459035873413086,20.50006866455078,-43.3934211730957
wine_quality,0.8514276742935181,-21.01572608947754,3.4525198936462402,8.511381149291992,-2.1891510486602783,-2.06422758102417,-18.61656379699707,4.5452985763549805,-3.6981606483459473,8.396416664123535,-0.28719061613082886,11.453550338745117,-18.157791137695312,1.7374910116195679,-5.451764106750488,19.203956604003906,-0.3436550199985504,19.149272918701172,-9.679125785827637,-4.630710601806641,-7.447691440582275,21.988361358642578,-18.78652572631836,-9.547922134399414,12.830769538879395,15.24824047088623,0.3878622055053711,7.560107231140137,24.963045120239258,19.344865798950195,13.211889266967773,-28.574748992919922
thoracic_surgery_data,0.923828125,-4.295737266540527,1.4663097858428955,1.8749843835830688,-0.0064064739271998405,0.640973687171936,-3.151878833770752,0.6931682229042053,-1.0192006826400757,1.5949029922485352,-0.20010551810264587,0.8112121820449829,-3.2975029945373535,1.554797887802124,-1.5565392971038818,4.201355457305908,0.09693269431591034,4.313409805297852,-1.7937589883804321,-1.186710000038147,-0.353249728679657,4.707378387451172,-2.9383885860443115,-1.7378555536270142,1.8688844442367554,3.1963400840759277,-0.790073573589325,2.3643362522125244,5.644448280334473,4.463509559631348,3.5221610069274902,-5.84304666519165
wholesale_customers,446.839111328125,-6513.37158203125,753.7969970703125,2794.608154296875,-562.8882446289062,-580.1361083984375,-5786.4052734375,1293.2403564453125,-1508.005126953125,2824.87451171875,-176.2632598876953,3378.530517578125,-5642.0869140625,234.95254516601562,-1650.1744384765625,5795.18896484375,-351.32745361328125,6014.9169921875,-2934.10986328125,-1103.1903076171875,-2102.868408203125,6782.69384765625,-5962.5302734375,-3014.89111328125,3759.228515625,5027.18505859375,85.0287094116211,2395.96240234375,7751.8076171875,5751.9228515625,4193.6201171875,-8725.310546875
diabetes_130-us_hospitals_for_years_1999-2008,0.5367631912231445,-2.253922939300537,1.160810112953186,0.9211680293083191,-0.08952166885137558,0.6985012292861938,-1.1377646923065186,0.4337964653968811,-0.026444006711244583,0.35260605812072754,-0.11456308513879776,-0.021504592150449753,-1.939745306968689,1.4204084873199463,-0.9528085589408875,2.6842916011810303,0.5070387125015259,2.1341910362243652,-1.0165231227874756,-1.1886162757873535,-0.05512523651123047,2.0426268577575684,-1.1386964321136475,-0.4461270868778229,1.1085858345031738,1.4954078197479248,-0.6151345372200012,1.2863718271255493,2.997396945953369,2.500969648361206,1.943047285079956,-3.1834499835968018
student_performance,0.34186384081840515,-2.760314464569092,1.4654390811920166,1.0216270685195923,-0.24643945693969727,0.12093236297369003,-1.7670615911483765,0.9718642234802246,0.05705428123474121,0.4868663251399994,0.3042890131473541,0.8980417251586914,-2.297529697418213,1.4620866775512695,-0.8843350410461426,2.907365322113037,0.6407504081726074,2.307077407836914,-1.2519537210464478,-1.406581163406372,-0.664069414138794,2.889136791229248,-1.695802092552185,-0.7384240031242371,1.7307478189468384,1.3662141561508179,-0.3079313635826111,1.0178606510162354,3.363381862640381,3.1686923503875732,1.7701972723007202,-3.89141583442688
diabetic_retinopathy_debrecen,1.1822509765625,-21.076427459716797,3.0975663661956787,8.80516242980957,-1.8649743795394897,-1.586829423904419,-18.776397705078125,4.111216068267822,-4.360803127288818,8.914210319519043,-0.48946237564086914,10.88953685760498,-18.037874221801758,1.5747226476669312,-5.666022300720215,19.19852066040039,-0.5147552490234375,19.59005355834961,-9.653620719909668,-4.102607250213623,-6.6370134353637695,22.185733795166016,-19.055776596069336,-9.611720085144043,12.233437538146973,15.854229927062988,0.20397110283374786,8.045162200927734,25.373947143554688,18.934083938598633,13.664159774780273,-28.3912353515625
default_of_credit_card_clients,1334.987060546875,-27896.927734375,3542.359375,11716.423828125,-2573.74169921875,-2963.17919921875,-24862.296875,6004.1318359375,-5697.1103515625,11708.033203125,-388.62127685546875,15006.71875,-24330.9609375,844.4573974609375,-6983.7734375,24980.12109375,-1379.9293212890625,25540.6796875,-12639.654296875,-5142.1513671875,-9699.505859375,28645.67578125,-25542.17578125,-12714.5546875,16747.919921875,21141.587890625,607.060546875,9802.3779296875,32970.953125,25056.154296875,17401.1875,-37505.421875
online_shoppers_purchasing_intention_dataset,5.3900628089904785,-68.10557556152344,7.9581732749938965,28.88141441345215,-6.2141289710998535,-4.9731645584106445,-59.855133056640625,12.471715927124023,-16.30947494506836,29.529376983642578,-2.7487802505493164,34.988426208496094,-58.77326583862305,4.1412434577941895,-17.191049575805664,60.90663528442383,-2.09968638420105,62.57210159301758,-31.23014259338379,-12.24718189239502,-21.285999298095703,71.46224975585938,-61.97882843017578,-31.69717788696289,38.666446685791016,51.890594482421875,0.9495353698730469,25.319927215576172,81.24354553222656,58.9495964050293,44.82959747314453,-91.2264404296875
electrical_grid_stability_simulated_data,0.6028662919998169,-3.099151611328125,1.0949242115020752,1.1246228218078613,0.18139870464801788,0.34904271364212036,-2.271153450012207,0.6544826626777649,-0.6816944479942322,1.2056207656860352,0.09150330722332001,0.7850239872932434,-2.113065242767334,1.346374750137329,-1.0398842096328735,2.9869046211242676,0.14395956695079803,3.1292717456817627,-1.1099066734313965,-0.8605262041091919,-0.326308012008667,3.6033401489257812,-1.8951385021209717,-1.3527312278747559,1.299098014831543,1.9433059692382812,-0.39034342765808105,1.5426136255264282,3.997004747390747,3.4432106018066406,2.4373114109039307,-4.246451377868652
heart_failure_clinical_records,2041.643798828125,-29945.271484375,3469.736328125,12836.791015625,-2595.38916015625,-2685.682373046875,-26597.068359375,5960.4697265625,-6913.83203125,12971.0859375,-801.6041259765625,15560.7314453125,-25944.4609375,1076.864013671875,-7574.49853515625,26644.203125,-1605.2666015625,27637.384765625,-13492.4267578125,-5093.0556640625,-9697.1494140625,31168.568359375,-27411.208984375,-13854.564453125,17304.029296875,23093.197265625,408.12109375,10987.9072265625,35621.6015625,26446.962890625,19263.009765625,-40117.29296875
estimation_of_obesity_levels_based_on_eating_habits_and_physical_condition,0.3355468809604645,-6.58230447769165,1.9230165481567383,2.515833616256714,-0.7202585935592651,-0.39076370000839233,-5.405371189117432,1.6410996913909912,-0.6648218035697937,2.1209206581115723,0.12331640720367432,3.2865405082702637,-5.595183849334717,1.4577662944793701,-1.842284917831421,6.350706577301025,0.4450696110725403,5.838037014007568,-3.0517916679382324,-2.170057535171509,-2.2470669746398926,6.887460231781006,-5.3265838623046875,-2.635774612426758,4.142772674560547,4.271702766418457,-0.12541647255420685,2.3517653942108154,7.883663177490234,6.5980401039123535,4.186432361602783,-9.12277603149414
rice_cammeo_and_osmancik,347.9295959472656,-5120.11279296875,595.2551879882812,2194.58056640625,-444.0022888183594,-459.5093688964844,-4547.9658203125,1020.2277221679688,-1180.1029052734375,2217.01220703125,-136.07119750976562,2660.351806640625,-4436.291015625,185.0193328857422,-1295.7919921875,4556.4111328125,-274.0462341308594,4725.48193359375,-2307.150146484375,-871.55078125,-1658.5029296875,5329.00390625,-4686.27978515625,-2368.35400390625,2959.7939453125,3947.62060546875,69.13301086425781,1879.025634765625,6091.10498046875,4524.16943359375,3292.712890625,-6859.94287109375
bone_marrow_transplant:_children,2507.5751953125,-30487.953125,3441.44970703125,13083.837890625,-2668.517333984375,-2545.56884765625,-26771.71875,5910.62646484375,-7413.20947265625,13211.2236328125,-1031.0777587890625,15777.6689453125,-26350.92578125,1453.130859375,-7552.6201171875,26990.78515625,-1421.326904296875,27953.515625,-13752.3798828125,-5285.2060546875,-9703.998046875,31895.82421875,-27747.76171875,-14155.5810546875,17359.00390625,23384.09765625,451.5296936035156,11117.927734375,36157.51171875,26606.509765625,19884.98046875,-40798.2890625
hcv_data,2.455925464630127,-44.176307678222656,5.772972106933594,18.406177520751953,-4.157469749450684,-4.100048065185547,-39.21779251098633,9.006134986877441,-9.229717254638672,18.63534927368164,-0.9824804067611694,23.60116195678711,-38.25658416748047,2.473905324935913,-11.235366821289062,39.78836441040039,-1.491058349609375,40.53444290161133,-20.164844512939453,-8.416704177856445,-14.817861557006836,45.996036529541016,-40.182613372802734,-20.247730255126953,26.08060646057129,33.143951416015625,0.9259017705917358,16.009891510009766,52.47406005859375,39.3640251159668,28.111846923828125,-59.472434997558594
myocardial_infarction_complications,0.678324818611145,-8.954458236694336,2.0026965141296387,3.5950660705566406,-0.9193178415298462,-0.29072874784469604,-7.382293701171875,1.807996392250061,-1.3613560199737549,3.1365437507629395,-0.27793240547180176,4.186423301696777,-7.6912360191345215,1.5893393754959106,-2.5330796241760254,8.556313514709473,0.24891643226146698,8.153841972351074,-4.12476110458374,-2.5115761756896973,-2.8162360191345215,9.294607162475586,-7.395092964172363,-3.8134777545928955,5.323952674865723,6.372880458831787,-0.25084105134010315,3.5058083534240723,10.833210945129395,8.51964282989502,6.0520219802856445,-12.335411071777344
ai4i_2020_predictive_maintenance_dataset,16.12392807006836,-240.654052734375,28.537792205810547,102.8394775390625,-21.0313663482666,-21.27170181274414,-213.76535034179688,47.77824020385742,-54.9030647277832,103.83662414550781,-6.491534233093262,124.94343566894531,-208.3798065185547,9.571859359741211,-61.2408561706543,214.6454315185547,-12.251396179199219,222.1819305419922,-108.62043762207031,-41.52344512939453,-77.91212463378906,250.70913696289062,-219.90847778320312,-111.27134704589844,139.27609252929688,185.15545654296875,3.1159729957580566,88.7176742553711,286.6163635253906,212.9532928466797,154.92636108398438,-322.69256591796875
dry_bean_dataset,645.40283203125,-9196.8994140625,1057.7696533203125,3949.69384765625,-791.6827392578125,-812.056640625,-8164.5185546875,1819.076171875,-2145.48876953125,3992.98974609375,-255.79336547851562,4764.529296875,-7962.2001953125,336.807861328125,-2327.98193359375,8177.39306640625,-497.6014709472656,8493.5029296875,-4139.96728515625,-1553.862548828125,-2959.2939453125,9585.0439453125,-8415.990234375,-4260.1953125,5295.8193359375,7102.74853515625,118.6781234741211,3386.553955078125,10945.3369140625,8112.64990234375,5932.44384765625,-12317.478515625
predict_students_dropout_and_academic_success,45.72459030151367,-392.4582214355469,25.82779884338379,174.68630981445312,-29.219318389892578,-19.658252716064453,-346.7809143066406,57.165924072265625,-120.97526550292969,186.34103393554688,-26.544702529907227,192.82437133789062,-333.2006530761719,14.677942276000977,-98.67645263671875,343.13800048828125,-22.996179580688477,369.6164245605469,-175.83038330078125,-52.5673828125,-105.4048080444336,422.4356384277344,-364.35784912109375,-190.4497833251953,203.2969207763672,316.8144836425781,4.175604343414307,155.99423217773438,471.935791015625,320.10003662109375,272.50714111328125,-518.5037231445312
glioma_grading_clinical_and_mutation_features,0.5150351524353027,-4.626952648162842,1.518580675125122,1.7639659643173218,-0.21482086181640625,0.4606526792049408,-3.6285293102264404,0.7608340382575989,-0.6296414732933044,1.623806357383728,-0.1916271448135376,1.2927641868591309,-3.766108274459839,1.4396785497665405,-1.6355431079864502,4.731462478637695,0.23674459755420685,4.597424507141113,-2.0923571586608887,-1.392362356185913,-0.8597291111946106,4.7685370445251465,-3.3437812328338623,-1.8994779586791992,2.3981895446777344,3.3151168823242188,-0.6385250687599182,2.342607021331787,6.017067909240723,4.845388889312744,3.485506057739258,-6.425400733947754
sepsis_survival_minimal_clinical_records,2.100600481033325,-28.88920021057129,4.1215620040893555,12.329315185546875,-2.3273961544036865,-2.137500286102295,-25.559925079345703,5.724997520446777,-6.487273216247559,12.394514083862305,-0.6248193979263306,14.6668701171875,-24.624374389648438,2.0754613876342773,-7.665844917297363,25.94600486755371,-1.0420494079589844,26.8345890045166,-12.992939949035645,-5.288265228271484,-8.768139839172363,30.549510955810547,-25.99184799194336,-13.19421100616455,16.390872955322266,21.91737174987793,0.14279556274414062,11.015579223632812,34.68623733520508,25.96042823791504,18.858200073242188,-38.79243087768555
raisin,2395.421875,-35231.609375,4091.48681640625,15104.880859375,-3056.044921875,-3155.52099609375,-31298.146484375,7012.765625,-8126.43115234375,15263.359375,-941.6041259765625,18296.234375,-30529.603515625,1269.505859375,-8919.025390625,31353.271484375,-1886.369140625,32519.755859375,-15879.470703125,-5987.91796875,-11403.9140625,36669.08984375,-32252.396484375,-16299.912109375,20361.765625,27170.5,470.2328186035156,12936.998046875,41919.17578125,31123.912109375,22661.04296875,-47201.73828125
cirrhosis_patient_survival_prediction,-5.653391361236572,-43.71070098876953,11.089702606201172,17.734716415405273,-4.397255897521973,-7.0991973876953125,-42.87104415893555,13.612039566040039,0.5044113397598267,16.197528839111328,3.929461717605591,22.653141021728516,-40.21580505371094,-1.261427402496338,-14.454610824584961,42.891483306884766,-3.7258095741271973,42.103675842285156,-20.327945709228516,-8.576769828796387,-18.159677505493164,41.01802444458008,-40.64965057373047,-17.723674774169922,32.09894943237305,33.036827087402344,-1.498090386390686,16.8238582611084,54.1166877746582,47.931514739990234,22.010807037353516,-60.673667907714844
support2,170.0481719970703,-2271.578125,234.191162109375,984.0119018554688,-190.73379516601562,-181.02676391601562,-2026.6422119140625,419.2831115722656,-561.6871948242188,1013.7293090820312,-82.57743835449219,1160.540771484375,-1961.830322265625,71.97294616699219,-580.22900390625,2017.877197265625,-127.4778823852539,2114.972900390625,-1025.985595703125,-357.8313903808594,-702.6781005859375,2381.194580078125,-2096.398681640625,-1064.989013671875,1282.44775390625,1778.9429931640625,25.728076934814453,858.3801879882812,2717.42236328125,1969.2398681640625,1485.5673828125,-3032.524169921875
national_health_and_nutrition_health_survey_2013-2014_nhanes_age_prediction_subset,3.210833787918091,-49.092491149902344,6.270240306854248,20.856679916381836,-4.215724945068359,-4.228585243225098,-43.59026336669922,9.815333366394043,-10.9782075881958,21.091548919677734,-1.1346807479858398,25.626184463500977,-42.19893264770508,2.5725860595703125,-12.634288787841797,43.92804718017578,-2.086939573287964,45.36696243286133,-22.145587921142578,-8.827527046203613,-15.708124160766602,51.495994567871094,-44.66197204589844,-22.59683609008789,28.33248519897461,37.369300842285156,0.7230895757675171,18.176916122436523,58.539588928222656,43.63199234008789,31.633325576782227,-65.86243438720703
aids_clinical_trials_group_study_175,19.62117576599121,-243.879150390625,27.433422088623047,105.74881744384766,-20.151365280151367,-19.152637481689453,-216.2229461669922,46.267127990722656,-59.8640022277832,107.4279556274414,-8.170438766479492,123.7277603149414,-210.0795135498047,10.527570724487305,-62.51667404174805,216.4335174560547,-13.424413681030273,226.43014526367188,-109.3797378540039,-39.660640716552734,-75.06364440917969,256.4151306152344,-222.70443725585938,-113.7335205078125,137.49317932128906,189.7532501220703,1.7947113513946533,92.3087158203125,291.6141052246094,213.99850463867188,159.9181365966797,-326.2283630371094
cdc_diabetes_health_indicators,0.7013377547264099,-4.523592948913574,1.372605562210083,1.8467756509780884,-0.11554126441478729,0.3430465757846832,-3.6843419075012207,0.7620199918746948,-0.9176521301269531,1.733088731765747,-0.08947005122900009,1.4610297679901123,-3.523232936859131,1.4991042613983154,-1.5978567600250244,4.406180381774902,0.15448197722434998,4.43109655380249,-1.892728567123413,-1.1447169780731201,-0.7078008651733398,5.0540618896484375,-3.3282127380371094,-1.9006589651107788,2.203803539276123,3.2362136840820312,-0.49567899107933044,2.2885947227478027,5.844137191772461,4.705867290496826,3.4639294147491455,-6.250255107879639
national_poll_on_healthy_aging_npha,0.7665230631828308,-2.266007900238037,1.2480018138885498,1.0096954107284546,0.17548778653144836,0.2670421004295349,-0.9937883615493774,0.9349789619445801,-0.3669266104698181,0.35791754722595215,0.390644371509552,0.28987592458724976,-1.5848535299301147,1.3978378772735596,-0.7048611044883728,2.1605703830718994,0.38394397497177124,1.8545825481414795,-0.6744058132171631,-1.1807907819747925,-0.11467504501342773,2.5042672157287598,-1.0447381734848022,-0.42932456731796265,1.0271937847137451,1.159426212310791,-0.35829654335975647,0.7827110886573792,2.6688480377197266,2.6105992794036865,1.6437714099884033,-2.9995322227478027
regensburg_pediatric_appendicitis,0.21775874495506287,-8.045805931091309,2.1989331245422363,3.132216691970825,-0.7944700717926025,-0.43080711364746094,-6.766237735748291,1.9629757404327393,-0.6457962989807129,2.5737907886505127,0.10231184959411621,3.7772293090820312,-6.98550271987915,1.4018359184265137,-2.423534393310547,7.889164924621582,0.22392158210277557,7.356514930725098,-3.711613178253174,-2.432666301727295,-2.732445478439331,8.082504272460938,-6.581057071685791,-3.2215499877929688,5.143558025360107,5.59324312210083,-0.27132701873779297,3.092805862426758,9.798257827758789,8.195442199707031,5.095035552978516,-11.180412292480469
olivetti_faces,0.5140050053596497,-1.8652887344360352,1.4398866891860962,0.8014122843742371,-0.13171371817588806,0.19380781054496765,-0.805814266204834,0.9475225210189819,0.0181882381439209,0.24615831673145294,0.3251565396785736,0.22750945389270782,-1.4718222618103027,1.4408115148544312,-0.5634387135505676,1.9075689315795898,0.4404427409172058,1.5382938385009766,-0.7549657821655273,-1.183768391609192,-0.23177404701709747,2.1833038330078125,-0.8261429071426392,-0.41293373703956604,1.0417959690093994,0.7211840152740479,-0.49097004532814026,0.7786264419555664,2.2681522369384766,2.4284863471984863,1.2673132419586182,-2.5847649574279785
20newsgroups_vectorized,,,,,,,,,,,,,,,,,,,,,,,,,,,,,,,,
covtype,8.915875434875488,-209.5925750732422,28.999004364013672,88.76087951660156,-19.991724014282227,-19.639690399169922,-188.47372436523438,43.6964111328125,-41.449371337890625,89.08590698242188,-3.6258301734924316,108.16304016113281,-183.81570434570312,8.004127502441406,-55.241676330566406,189.61257934570312,-9.597668647766113,193.69178771972656,-96.50474548339844,-37.07706832885742,-70.13668060302734,215.82144165039062,-192.23532104492188,-95.95936584472656,125.63874816894531,159.79379272460938,0.9075652956962585,77.99687194824219,251.32861328125,190.04737854003906,131.52072143554688,-282.5728759765625
credit-g,7.0145134925842285,-74.0453109741211,7.8016676902771,30.870220184326172,-7.20468282699585,-4.836901664733887,-63.60721969604492,12.778644561767578,-18.939682006835938,32.18926239013672,-3.966765880584717,38.534263610839844,-63.92717361450195,5.560340404510498,-17.441308975219727,65.91056823730469,-0.5357414484024048,66.89983367919922,-34.59290313720703,-14.276102066040039,-23.083179473876953,77.47999572753906,-67.24937438964844,-34.572776794433594,41.3863639831543,55.28411102294922,1.9888007640838623,26.2830867767334,87.38224792480469,61.5857048034668,49.364349365234375,-98.71754455566406
blood-transfusion-service-center,34.42250442504883,-499.0403747558594,58.03417205810547,213.9532928466797,-43.21027374267578,-44.012840270996094,-443.2745666503906,98.73902893066406,-115.63127136230469,216.51211547851562,-13.7449951171875,258.73095703125,-432.00152587890625,18.972864151000977,-126.61539459228516,444.20587158203125,-26.309677124023438,460.93524169921875,-224.95687866210938,-84.77815246582031,-160.70921325683594,520.2808837890625,-456.60382080078125,-231.1232452392578,287.7236328125,384.80267333984375,6.438714504241943,184.0191192626953,594.1875,440.5575256347656,321.70855712890625,-668.583740234375
monks-problems-2,0.9509584307670593,-2.7813353538513184,1.6964184045791626,0.5932599306106567,0.32996582984924316,1.238128662109375,-0.9760335087776184,0.43163222074508667,-0.6104713678359985,1.2021478414535522,-0.2222972810268402,-0.641081690788269,-1.710030198097229,2.133141279220581,-0.8245689272880554,3.0496723651885986,0.5967551469802856,3.252347230911255,-1.2293367385864258,-1.397060751914978,0.36744123697280884,2.5039305686950684,-0.7620474100112915,-1.0595872402191162,0.5022510290145874,1.3039336204528809,-1.2032201290130615,1.7097187042236328,3.7642459869384766,3.2247586250305176,2.5705151557922363,-3.7160773277282715
tic-tac-toe,0.9320894479751587,-2.7559974193573,1.6319916248321533,0.6137339472770691,0.3219802975654602,1.2254557609558105,-1.0126519203186035,0.40895920991897583,-0.6092732548713684,1.1959288120269775,-0.23479776084423065,-0.6242375373840332,-1.713976263999939,2.0874128341674805,-0.8428098559379578,3.0299696922302246,0.5635515451431274,3.2292561531066895,-1.2153072357177734,-1.3422882556915283,0.3733421266078949,2.499882459640503,-0.794716477394104,-1.0602848529815674,0.5159609317779541,1.3376917839050293,-1.1726442575454712,1.735497236251831,3.7522785663604736,3.174389123916626,2.5625178813934326,-3.687451124191284
monks-problems-1,0.9505613446235657,-2.7917399406433105,1.7129818201065063,0.5837944149971008,0.3279661536216736,1.2427469491958618,-0.9638108015060425,0.44560593366622925,-0.5992894768714905,1.2002166509628296,-0.21336448192596436,-0.6416415572166443,-1.7205111980438232,2.1478211879730225,-0.8179744482040405,3.069020986557007,0.6143454909324646,3.2622292041778564,-1.2402794361114502,-1.4255279302597046,0.3636309504508972,2.4919724464416504,-0.7598463296890259,-1.0459342002868652,0.5101633071899414,1.293100357055664,-1.206876277923584,1.701285719871521,3.7712740898132324,3.234940767288208,2.5642127990722656,-3.729307174682617
steel-plates-fault,16775.001953125,-145592.796875,13663.3359375,65328.5625,-10991.263671875,-7247.1484375,-128172.875,23566.169921875,-42342.59765625,67525.859375,-8253.845703125,69084.4609375,-124446.3515625,7744.9560546875,-37796.203125,127782.078125,-8702.892578125,136640.421875,-65078.9296875,-20121.103515625,-38966.5546875,156213.34375,-133066.1875,-69631.9453125,76671.984375,116388.328125,-1094.949951171875,58793.9375,175959.171875,123731.671875,100199.359375,-193577.15625
kr-vs-kp,0.9864908456802368,-2.5618655681610107,1.5960133075714111,0.8794057965278625,0.3149982988834381,0.9687280654907227,-0.9527277946472168,0.5556991100311279,-0.6429613828659058,0.8559583425521851,-0.027242019772529602,-0.5512823462486267,-1.6223360300064087,1.7891740798950195,-0.8484567403793335,2.6776163578033447,0.41540655493736267,2.7640836238861084,-1.0439667701721191,-1.311371922492981,0.3318377137184143,2.5119071006774902,-0.8981105089187622,-0.8154283761978149,0.6564428210258484,1.422930359840393,-1.022494912147522,1.4731216430664062,3.4177658557891846,2.9455387592315674,2.347750425338745,-3.379270553588867
qsar-biodeg,0.7069761157035828,-4.002447128295898,1.2452309131622314,1.645726203918457,0.0015098333824425936,0.44021812081336975,-3.0754997730255127,0.6863056421279907,-0.8066852688789368,1.4190231561660767,-0.07845804840326309,1.074323058128357,-3.0683295726776123,1.4061479568481445,-1.4330860376358032,3.955069065093994,0.14843416213989258,3.952235460281372,-1.614969253540039,-1.1108744144439697,-0.5094395875930786,4.401937007904053,-2.7931060791015625,-1.6245561838150024,1.8765144348144531,2.8942227363586426,-0.49029740691185,2.054068088531494,5.194705009460449,4.164734840393066,3.147799253463745,-5.505473613739014
wdbc,5.662499904632568,-82.6064682006836,10.702863693237305,35.46732711791992,-7.058234214782715,-6.697691440582275,-73.38941955566406,16.38902473449707,-18.543476104736328,35.4841423034668,-2.127747058868408,41.8787841796875,-71.37406921386719,4.212245941162109,-21.672922134399414,74.0128173828125,-4.0893354415893555,76.5942611694336,-37.214439392089844,-14.286572456359863,-26.013330459594727,86.42105865478516,-74.95252990722656,-38.05890655517578,47.59076690673828,63.5822639465332,0.2883254885673523,31.330408096313477,99.03602600097656,74.02556610107422,53.51519012451172,-111.0038833618164
phoneme,1.0040994882583618,-3.019674062728882,1.9754610061645508,0.5053764581680298,0.3598843216896057,1.2851120233535767,-0.8412208557128906,0.6194535493850708,-0.5887951850891113,1.2153490781784058,-0.14593882858753204,-0.6682261228561401,-1.8127467632293701,2.32423996925354,-0.7207251191139221,3.2819836139678955,0.77469801902771,3.4684081077575684,-1.395092487335205,-1.770611047744751,0.26236075162887573,2.5476605892181396,-0.7208576798439026,-1.1012860536575317,0.5882432460784912,1.1804802417755127,-1.2806212902069092,1.6000277996063232,3.94573974609375,3.4729721546173096,2.6324737071990967,-3.9743900299072266
diabetes,3.545356035232544,-60.01581954956055,7.623124599456787,25.256147384643555,-5.5006303787231445,-5.283088684082031,-53.397003173828125,11.943384170532227,-12.989889144897461,25.719762802124023,-1.5029751062393188,31.52960777282715,-51.967735290527344,3.143126964569092,-15.401949882507324,53.95414352416992,-2.2397308349609375,55.290130615234375,-27.394912719726562,-10.886903762817383,-19.62206268310547,62.55841827392578,-54.741554260253906,-27.630901336669922,35.0570068359375,45.44011306762695,0.9563506841659546,22.101030349731445,71.5501480102539,53.27911376953125,38.450138092041016,-80.66482543945312
ozone-level-8hr,-6.315515041351318,-397.6485290527344,72.04397583007812,156.8813934326172,-44.27040481567383,-61.38298797607422,-357.3802795410156,108.66544342041016,-43.88911056518555,147.8841094970703,12.484350204467773,231.622314453125,-355.19403076171875,10.924827575683594,-98.87226867675781,364.5952453613281,-13.120849609375,354.2441711425781,-183.82676696777344,-92.37449645996094,-166.45164489746094,391.080078125,-360.63812255859375,-171.1931915283203,268.1694030761719,282.1316833496094,13.739446640014648,123.08772277832031,462.84283447265625,383.73699951171875,223.1273193359375,-542.6929321289062
hill-valley,728.9691162109375,-11432.390625,1399.1502685546875,4887.15625,-1012.74853515625,-1047.002685546875,-10160.2822265625,2324.273681640625,-2551.778564453125,4913.876953125,-268.8326110839844,5939.81787109375,-9933.3876953125,435.8270568847656,-2905.561279296875,10198.408203125,-587.84130859375,10531.294921875,-5169.50927734375,-1978.9613037109375,-3740.571044921875,11865.1591796875,-10449.28515625,-5266.3193359375,6666.7841796875,8770.9658203125,135.9054718017578,4183.6025390625,13604.84375,10174.521484375,7305.85302734375,-15340.1015625
kc2,79.7760238647461,-1344.869384765625,166.1514129638672,577.2327270507812,-115.11328125,-125.7105484008789,-1202.4952392578125,276.54937744140625,-295.6718444824219,579.363525390625,-26.697723388671875,695.9981079101562,-1167.172607421875,43.00782775878906,-347.5428161621094,1201.2757568359375,-79.6578140258789,1246.700927734375,-603.9854125976562,-226.89334106445312,-439.3414611816406,1395.714111328125,-1230.7747802734375,-619.0304565429688,785.9027099609375,1039.337158203125,12.145068168640137,498.248046875,1604.9068603515625,1207.28076171875,856.56689453125,-1805.4205322265625
eeg-eye-state,403.7808532714844,-5885.8837890625,676.5325927734375,2522.056640625,-510.8324279785156,-526.580078125,-5226.3076171875,1167.350341796875,-1363.9066162109375,2551.4482421875,-161.2081298828125,3061.53271484375,-5098.52490234375,211.8402557373047,-1486.1285400390625,5236.013671875,-312.47198486328125,5431.08349609375,-2653.158935546875,-1001.5634765625,-1905.421875,6127.66552734375,-5389.66015625,-2724.70947265625,3398.426513671875,4538.69921875,84.0875015258789,2157.811767578125,6999.73583984375,5189.2578125,3788.818359375,-7883.49755859375
climate-model-simulation-crashes,1.8966796398162842,-26.145212173461914,3.952580213546753,11.131357192993164,-2.0435738563537598,-1.8890800476074219,-23.156818389892578,5.25848913192749,-5.754928112030029,11.221334457397461,-0.4504503309726715,13.164319038391113,-22.219287872314453,2.080296754837036,-7.0195770263671875,23.54706573486328,-0.9551893472671509,24.418378829956055,-11.710144996643066,-4.782057285308838,-7.841167449951172,27.720935821533203,-23.358150482177734,-11.933677673339844,14.789636611938477,19.75353240966797,-0.00811691302806139,10.101621627807617,31.486083984375,23.822147369384766,17.060617446899414,-35.17455291748047
spambase,0.13124465942382812,-9.867294311523438,2.5237977504730225,3.8526415824890137,-0.7308560609817505,-0.4868575930595398,-8.529561042785645,2.3505465984344482,-0.9323714971542358,3.5515823364257812,0.11893177032470703,4.3314208984375,-8.455381393432617,1.3093496561050415,-3.085998058319092,9.611832618713379,-0.21775607764720917,9.457563400268555,-4.430323600769043,-2.496077299118042,-3.1626760959625244,9.819341659545898,-8.12426471710205,-4.137643814086914,6.094110012054443,7.17099142074585,-0.5399929285049438,4.098339080810547,12.20398998260498,10.233819961547852,6.262686729431152,-13.624870300292969
kc1,21.102453231811523,-373.12957763671875,46.40760040283203,158.46951293945312,-34.25458526611328,-34.34547805786133,-332.88885498046875,75.52314758300781,-80.92158508300781,160.49424743652344,-8.64031982421875,194.76539611816406,-325.0584411621094,14.211004257202148,-95.2560806274414,334.3351745605469,-17.052038192749023,343.643798828125,-170.43502807617188,-65.31364440917969,-123.06522369384766,386.38720703125,-342.3786315917969,-171.8498992919922,219.24087524414062,285.0169982910156,4.895617485046387,136.46432495117188,444.6377868652344,331.58770751953125,237.15658569335938,-500.90655517578125
ilpd,4.238410949707031,-64.90499114990234,8.105764389038086,27.56613540649414,-5.67299747467041,-5.6153388023376465,-57.66515350341797,12.89245891571045,-14.56810188293457,27.950756072998047,-1.6278254985809326,33.84870529174805,-55.96088790893555,3.214641571044922,-16.633249282836914,58.068817138671875,-2.819610595703125,59.95103073120117,-29.367868423461914,-11.53155517578125,-20.87886619567871,67.9331283569336,-59.150169372558594,-29.967016220092773,37.52740478515625,49.48759841918945,0.9246368408203125,24.017559051513672,77.39484405517578,57.56444549560547,41.809295654296875,-87.08821868896484
pc1,19.444774627685547,-2350.350341796875,355.19635009765625,962.5031127929688,-229.62014770507812,-314.12579345703125,-2125.09619140625,577.0259399414062,-361.9114685058594,938.0279541015625,29.765649795532227,1314.830322265625,-2072.5478515625,36.26432418823242,-598.4873046875,2133.36328125,-124.56938171386719,2143.835205078125,-1066.989013671875,-470.85565185546875,-900.6863403320312,2359.10107421875,-2153.72216796875,-1042.2447509765625,1501.885498046875,1748.1318359375,62.08576583862305,789.4006958007812,2766.5439453125,2203.982421875,1384.459716796875,-3182.986572265625
pc3,125.2214584350586,-1510.483642578125,104.770751953125,639.814697265625,-125.60333251953125,-138.05807495117188,-1332.8218994140625,266.34100341796875,-403.3090515136719,673.1087646484375,-68.47903442382812,829.8179931640625,-1290.360595703125,25.524023056030273,-352.1478576660156,1325.447998046875,-79.5826416015625,1391.3560791015625,-675.3869018554688,-254.2357177734375,-493.5029296875,1583.580078125,-1404.7017822265625,-714.2068481445312,845.7742309570312,1178.33203125,69.0848159790039,527.4122314453125,1769.8740234375,1249.2828369140625,992.7238159179688,-2002.4693603515625
SpeedDating,0.5822795629501343,-3.06962513923645,1.2115869522094727,1.1996418237686157,0.03562517091631889,0.6833707690238953,-2.1098780632019043,0.4673210084438324,-0.39747244119644165,0.90953528881073,-0.1633276492357254,0.3535577654838562,-2.386544704437256,1.4221677780151367,-1.2358615398406982,3.3126492500305176,0.24210485816001892,3.1668124198913574,-1.3020590543746948,-1.0757334232330322,-0.2003188580274582,3.14862322807312,-1.8402990102767944,-1.1341729164123535,1.3860759735107422,2.2072129249572754,-0.6464112401008606,1.813269019126892,4.1552510261535645,3.38128399848938,2.591313600540161,-4.291805267333984
mnist_784,2.253164768218994,-44.33441925048828,6.8501482009887695,18.497804641723633,-4.356637001037598,-3.6527252197265625,-39.35546112060547,9.043664932250977,-8.421297073364258,18.309499740600586,-1.0374294519424438,22.57453155517578,-38.67878723144531,3.2714462280273438,-11.970892906188965,40.49319839477539,-1.3509079217910767,40.80607986450195,-20.359970092773438,-8.543787956237793,-14.709424018859863,45.989776611328125,-39.65899658203125,-20.183761596679688,26.469518661499023,33.191162109375,-0.1656043976545334,16.853734970092773,53.29681396484375,40.82495880126953,28.402362823486328,-60.226165771484375
banknote-authentication,0.2555915415287018,-3.896960735321045,2.1282401084899902,1.445412039756775,-0.34995031356811523,-0.5724387168884277,-3.0633556842803955,1.7743785381317139,-0.05067777633666992,0.9394733309745789,0.754223644733429,1.978324294090271,-3.021005630493164,1.4615398645401,-1.0974366664886475,3.572155714035034,0.19501471519470215,3.234179735183716,-1.541405200958252,-1.6282581090927124,-1.5252609252929688,4.476959228515625,-2.605483055114746,-1.3676246404647827,2.7071728706359863,1.9190673828125,-0.2692744731903076,1.1748638153076172,4.488245010375977,5.081628799438477,2.173105239868164,-5.488265037536621
Titanic,0.7615138292312622,-2.308769702911377,1.1346814632415771,0.824213981628418,0.2833285331726074,0.9411042928695679,-1.1738344430923462,0.3613065183162689,-0.5815899968147278,1.0020482540130615,-0.16053953766822815,-0.47780871391296387,-1.5251383781433105,1.4630992412567139,-0.8726992607116699,2.5081634521484375,0.11843721568584442,2.7794711589813232,-0.9030498266220093,-0.845356285572052,0.3780119717121124,2.4371325969696045,-0.9781002998352051,-0.9788759350776672,0.5669466853141785,1.5211067199707031,-0.9121977686882019,1.724596381187439,3.313992977142334,2.644951581954956,2.2065606117248535,-3.126372814178467
Satellite,7.1923322677612305,-114.59971618652344,13.623188972473145,48.55103302001953,-10.26710319519043,-10.39488410949707,-101.86408996582031,22.829214096069336,-25.632755279541016,49.290428161621094,-2.9917678833007812,60.30133056640625,-99.26677703857422,4.78936767578125,-29.005939483642578,102.4576416015625,-5.217286586761475,105.58349609375,-51.98155975341797,-20.291643142700195,-37.598506927490234,119.25770568847656,-104.87977600097656,-52.889617919921875,66.71793365478516,87.56904602050781,2.0475144386291504,41.83857345581055,136.254638671875,101.15504455566406,73.44134521484375,-153.7030487060547
bank-marketing,2.7291762828826904,-43.17668151855469,6.847973823547363,18.340496063232422,-3.5375571250915527,-3.6870155334472656,-38.05427551269531,9.426767349243164,-8.644338607788086,17.66135597229004,-0.47281914949417114,21.627410888671875,-37.19266128540039,2.801861047744751,-11.56148624420166,38.96177291870117,-2.2941536903381348,40.01646423339844,-19.14895248413086,-8.226297378540039,-13.998847961425781,44.90034866333008,-38.26638412475586,-19.490081787109375,25.409534454345703,32.77580642700195,-0.2730720639228821,16.323802947998047,51.765220642089844,40.37508773803711,27.6434268951416,-58.3952751159668
one-hundred-plants-texture,0.5656737089157104,-2.258471727371216,1.2060915231704712,1.010439157485962,-0.09962546080350876,0.7097598314285278,-1.175584077835083,0.42470359802246094,-0.05374488979578018,0.36150872707366943,-0.13096661865711212,-0.04105358198285103,-1.9238202571868896,1.448938012123108,-1.0066442489624023,2.66422176361084,0.44697409868240356,2.167802095413208,-0.9855421781539917,-1.1465388536453247,-0.015176129527390003,2.171095609664917,-1.130853533744812,-0.4986240267753601,1.1005973815917969,1.540004849433899,-0.6978203654289246,1.4009116888046265,3.067314386367798,2.582864999771118,2.005608081817627,-3.2446510791778564
arrhythmia,0.18111953139305115,-14.563425064086914,3.324192762374878,5.566946983337402,-1.7805858850479126,-1.8637338876724243,-12.714510917663574,3.8072543144226074,-1.7356750965118408,5.160559177398682,0.28052330017089844,8.312210083007812,-12.627723693847656,1.430518388748169,-3.5942306518554688,13.414358139038086,0.07947101444005966,12.822525024414062,-6.811675071716309,-4.052464962005615,-5.9911322593688965,15.036603927612305,-12.718416213989258,-6.401710510253906,9.645544052124023,9.844047546386719,0.31132298707962036,4.587634086608887,16.981128692626953,14.204431533813477,8.634729385375977,-19.977642059326172
amazon-commerce-reviews,0.5442749857902527,-2.390568256378174,1.218837022781372,1.0013115406036377,-0.16503360867500305,0.6000336408615112,-1.2964441776275635,0.5137301087379456,-0.09825446456670761,0.45021986961364746,-0.0815155953168869,0.1881668120622635,-2.030348300933838,1.4819390773773193,-0.940717339515686,2.7005226612091064,0.5504494905471802,2.177945375442505,-1.0934340953826904,-1.187281608581543,-0.13854622840881348,2.3591198921203613,-1.3001668453216553,-0.5804526805877686,1.2037980556488037,1.4750049114227295,-0.5765925645828247,1.2931430339813232,3.12666916847229,2.6168975830078125,1.9754825830459595,-3.3759052753448486
one-hundred-plants-shape,0.5748682022094727,-2.2648701667785645,1.2328213453292847,1.0258666276931763,-0.10146035999059677,0.6996533274650574,-1.1676881313323975,0.44857606291770935,-0.04587273672223091,0.3385547995567322,-0.11784033477306366,-0.03674020618200302,-1.9240825176239014,1.4614455699920654,-1.0113708972930908,2.661273241043091,0.44324398040771484,2.161140203475952,-0.9765447378158569,-1.1660419702529907,-0.020726298913359642,2.188411235809326,-1.1181873083114624,-0.4929046630859375,1.1131290197372437,1.5363900661468506,-0.7062921524047852,1.401965856552124,3.0688419342041016,2.6120762825012207,2.0038464069366455,-3.258359432220459
Bioresponse,0.6751142144203186,-2.4645121097564697,1.1402924060821533,0.7280200719833374,0.12625201046466827,1.0640043020248413,-1.2910209894180298,0.141586571931839,-0.46945062279701233,1.0274887084960938,-0.41845613718032837,-0.3587566018104553,-1.7537485361099243,1.6142202615737915,-0.952008068561554,2.824747323989868,0.3324395716190338,2.893042802810669,-1.1149299144744873,-0.9419590830802917,0.2267901599407196,2.3997766971588135,-1.045606255531311,-1.0440313816070557,0.6512792110443115,1.5953108072280884,-0.9367799758911133,1.7860809564590454,3.501286745071411,2.7371697425842285,2.4235455989837646,-3.413602352142334
v0_2___lung_cancer,1.0357751846313477,-2.2239506244659424,1.4420320987701416,1.1359220743179321,0.36659619212150574,0.2548137307167053,-0.6391783952713013,1.1486475467681885,-0.6224746704101562,0.35138049721717834,0.6132408380508423,0.01567530632019043,-1.367142915725708,1.4459871053695679,-0.582999587059021,1.9041322469711304,0.3370870351791382,1.7259324789047241,-0.5101271867752075,-1.2587320804595947,0.08404187858104706,2.564220666885376,-0.8664697408676147,-0.29463306069374084,0.8224881887435913,1.0419304370880127,-0.47002679109573364,0.5621585249900818,2.484252691268921,2.6097562313079834,1.6048583984375,-2.7866597175598145
v1_2___lung_cancer,1.091940999031067,-2.2762539386749268,1.46950364112854,1.184312105178833,0.41155824065208435,0.25107938051223755,-0.6368834376335144,1.1918573379516602,-0.668319821357727,0.36841756105422974,0.6638435125350952,0.017105674371123314,-1.380535364151001,1.475093126296997,-0.5898150205612183,1.925691843032837,0.3470207154750824,1.7490564584732056,-0.4903348982334137,-1.2702217102050781,0.1156577616930008,2.627544641494751,-0.8793460726737976,-0.27710071206092834,0.8095189929008484,1.0634243488311768,-0.4694702625274658,0.5372558236122131,2.5189056396484375,2.6657464504241943,1.634263277053833,-2.8381080627441406
v0_2___connectionist_bench_sonar_mines_vs_rocks,0.7588258981704712,-2.5327212810516357,1.2663828134536743,0.7791959047317505,0.17533238232135773,1.0446579456329346,-1.317167043685913,0.2721042037010193,-0.5185397267341614,1.0733007192611694,-0.29739564657211304,-0.37789297103881836,-1.7449951171875,1.7410167455673218,-0.9698331952095032,2.8207902908325195,0.3324613571166992,2.9578938484191895,-1.0866782665252686,-0.9563850164413452,0.30866914987564087,2.5558645725250244,-1.0360525846481323,-1.0412298440933228,0.6481066346168518,1.5530669689178467,-0.9748023748397827,1.8289518356323242,3.5884978771209717,2.8941314220428467,2.410106658935547,-3.4808075428009033
v1_2___connectionist_bench_sonar_mines_vs_rocks,0.8294933438301086,-2.5766658782958984,1.4016005992889404,0.7924519777297974,0.22373633086681366,1.0298813581466675,-1.2377536296844482,0.3915530741214752,-0.5313944816589355,1.0485289096832275,-0.19355686008930206,-0.41245216131210327,-1.7227118015289307,1.8341023921966553,-0.9459093809127808,2.8259968757629395,0.3707124590873718,2.968920946121216,-1.0738794803619385,-1.0621706247329712,0.33133164048194885,2.5921177864074707,-0.9751180410385132,-0.9878451228141785,0.6461712718009949,1.4871480464935303,-1.0083982944488525,1.7726020812988281,3.5955467224121094,3.0020339488983154,2.3935999870300293,-3.5141806602478027
v0_2___student_performance,0.26529747247695923,-3.118598461151123,1.4856038093566895,1.1380029916763306,-0.30516940355300903,0.037262845784425735,-2.1501336097717285,1.0343821048736572,0.09240029007196426,0.5466665625572205,0.2935715913772583,1.2153494358062744,-2.632014036178589,1.4255337715148926,-1.0027261972427368,3.282102108001709,0.6338863372802734,2.6175570487976074,-1.417426347732544,-1.5285513401031494,-0.8940558433532715,3.193178653717041,-2.045541524887085,-0.8805586099624634,2.0440263748168945,1.6575454473495483,-0.22953125834465027,1.1202768087387085,3.7818305492401123,3.506577730178833,1.969125747680664,-4.42580509185791
v1_2___student_performance,0.38511720299720764,-2.4795448780059814,1.4602304697036743,0.9246524572372437,-0.20254835486412048,0.14843705296516418,-1.4855163097381592,0.9524099230766296,0.038731981068849564,0.43931230902671814,0.34432968497276306,0.6919375658035278,-2.0241217613220215,1.4760308265686035,-0.7787653803825378,2.5980701446533203,0.6365596055984497,2.0581583976745605,-1.1159733533859253,-1.3135359287261963,-0.515325665473938,2.676832914352417,-1.430108904838562,-0.6367732882499695,1.5066684484481812,1.116673469543457,-0.3515779674053192,0.9145124554634094,3.0209035873413086,2.9255380630493164,1.583158254623413,-3.473693370819092
v0_2___credit_approval,0.7780900001525879,-2.428954601287842,1.0831400156021118,0.9550569653511047,0.275036484003067,1.0055580139160156,-1.2976858615875244,0.1927066296339035,-0.5811812281608582,0.8810343742370605,-0.2894517481327057,-0.42833924293518066,-1.6746330261230469,1.5040524005889893,-1.0681579113006592,2.6560916900634766,0.20554426312446594,2.7068049907684326,-0.925218403339386,-0.7970596551895142,0.363649845123291,2.4571521282196045,-1.0565098524093628,-0.9149486422538757,0.637218713760376,1.7466109991073608,-0.8637683987617493,1.7268683910369873,3.431039333343506,2.731126308441162,2.4491336345672607,-3.3126931190490723
v1_2___credit_approval,5.456105709075928,-71.00064849853516,8.3101167678833,30.600351333618164,-5.683382987976074,-5.501580715179443,-63.0034294128418,13.491076469421387,-16.976207733154297,30.930694580078125,-2.217386245727539,36.07050323486328,-60.85639572143555,3.2903709411621094,-18.492008209228516,63.334869384765625,-3.8525192737579346,66.1800765991211,-31.67138671875,-11.937744140625,-21.877099990844727,74.69158172607422,-64.54872131347656,-32.93793487548828,40.12390899658203,55.223960876464844,0.5417510867118835,27.05019187927246,85.03871154785156,62.735374450683594,46.606285095214844,-95.09583282470703
v0_2___qsar-biodeg,0.7255526185035706,-2.8357245922088623,1.1667646169662476,1.1767399311065674,0.18260514736175537,0.592926561832428,-1.8620195388793945,0.5627220869064331,-0.555264949798584,0.8587072491645813,0.013463497161865234,0.30441683530807495,-2.0255494117736816,1.4428999423980713,-1.0978158712387085,2.8951327800750732,0.21717777848243713,2.8658506870269775,-1.0459016561508179,-0.9607353210449219,-0.04595985263586044,3.1655259132385254,-1.5889967679977417,-1.050269365310669,1.150254249572754,1.9318370819091797,-0.5694180727005005,1.6073068380355835,3.796299457550049,3.1614058017730713,2.3969216346740723,-3.9145779609680176
v1_2___qsar-biodeg,0.6575781106948853,-5.132050037384033,1.3779208660125732,2.101229190826416,-0.20765919983386993,0.2749550938606262,-4.2634429931640625,0.8451529741287231,-0.9851838946342468,1.9278579950332642,-0.14498038589954376,1.8246361017227173,-4.116401195526123,1.3836880922317505,-1.759028673171997,5.000818252563477,0.1079307571053505,4.988895416259766,-2.198561191558838,-1.2876293659210205,-0.9917065501213074,5.607594966888428,-3.9697659015655518,-2.179734230041504,2.6332783699035645,3.7969613075256348,-0.43293532729148865,2.484675645828247,6.567532539367676,5.175889015197754,3.8295249938964844,-7.07012939453125
v0_2___spambase,0.6899647116661072,-4.318398475646973,1.314389944076538,1.709214210510254,-0.11377210915088654,0.7481142282485962,-3.332282304763794,0.46036869287490845,-0.8398148417472839,1.7085464000701904,-0.39950481057167053,0.8267092704772949,-3.4493515491485596,1.4751471281051636,-1.6192764043807983,4.453176498413086,0.13942083716392517,4.512141227722168,-1.928140640258789,-1.11713707447052,-0.45120325684547424,4.558973789215088,-3.0373687744140625,-1.8866779804229736,1.9245197772979736,3.2892355918884277,-0.8080600500106812,2.529775619506836,5.806395530700684,4.430405139923096,3.5579471588134766,-5.977147102355957
v1_2___spambase,0.5196046829223633,-15.163137435913086,3.039684772491455,6.1089043617248535,-1.2816822528839111,-0.898608386516571,-13.253812789916992,3.2448363304138184,-2.283644437789917,5.944009304046631,-0.1507563591003418,7.1484694480896,-13.060678482055664,1.5818488597869873,-4.382533073425293,14.287191390991211,-0.27198904752731323,14.24217700958252,-6.948939323425293,-3.3686141967773438,-4.825590133666992,15.436065673828125,-13.083691596984863,-6.670266628265381,9.100975036621094,11.15949821472168,-0.3830062747001648,6.018041133880615,18.50400733947754,14.612358093261719,9.729751586914062,-20.68253517150879
v0_2___bank-marketing,1.3550896644592285,-15.167132377624512,2.696578025817871,6.490286350250244,-1.0502721071243286,-0.4030431807041168,-13.076594352722168,2.788665771484375,-3.279384136199951,6.304133415222168,-0.5380848050117493,6.573266506195068,-12.795527458190918,1.783085823059082,-4.452953338623047,13.994677543640137,-0.5183292627334595,14.449972152709961,-6.7595930099487305,-2.9475064277648926,-4.021762847900391,16.013513565063477,-13.006916999816895,-6.85079288482666,8.3184232711792,11.65379524230957,-0.6600446701049805,6.512714385986328,18.69643211364746,14.16156005859375,10.421844482421875,-20.52094078063965
v1_2___bank-marketing,7.2438507080078125,-86.70222473144531,9.741588592529297,36.94348907470703,-7.531296730041504,-6.9335784912109375,-76.05586242675781,16.419652938842773,-21.265846252441406,37.46306610107422,-3.1633076667785645,45.01056671142578,-74.50519561767578,4.448782920837402,-21.466115951538086,76.9037094116211,-3.715501308441162,79.68543243408203,-39.14013671875,-15.483309745788574,-27.4771785736084,91.12245178222656,-78.84962463378906,-40.40015411376953,49.14965057373047,66.4432144165039,1.5433852672576904,31.734539031982422,102.8944091796875,75.22456359863281,56.88391876220703,-115.92320251464844
v0_2___covtype,7.802807807922363,-246.12277221679688,37.39793014526367,102.7794189453125,-22.871049880981445,-28.68914794921875,-220.4225616455078,57.9373664855957,-42.9072380065918,99.33963775634766,0.5495132207870483,132.14590454101562,-215.5147705078125,8.140708923339844,-63.75883865356445,222.28439331054688,-13.807391166687012,225.56533813476562,-110.5910873413086,-47.634437561035156,-88.94023132324219,250.8693084716797,-222.77099609375,-110.2269287109375,152.49099731445312,184.94479370117188,3.0712249279022217,86.83198547363281,291.63726806640625,230.582275390625,149.9556121826172,-333.33099365234375
v1_2___covtype,7.579023838043213,-169.4765167236328,22.460479736328125,70.73501586914062,-15.687532424926758,-18.3848876953125,-150.90455627441406,37.07002639770508,-33.2498893737793,69.83256530761719,-2.0292251110076904,91.55287170410156,-147.54812622070312,5.607159614562988,-42.762245178222656,152.28030395507812,-8.649452209472656,155.28036499023438,-76.36998748779297,-32.37193298339844,-59.95122146606445,174.0263214111328,-154.198486328125,-77.01243591308594,102.6084213256836,128.15164184570312,3.539865016937256,59.635040283203125,200.265625,153.8556365966797,105.5514907836914,-228.4958953857422
v0_3___credit-g,0.6917862892150879,-5.164679050445557,1.4458386898040771,2.160212993621826,-0.17570972442626953,0.3384016156196594,-4.302406311035156,0.8549371957778931,-0.9866401553153992,1.9332988262176514,-0.12667563557624817,1.707423448562622,-4.155850887298584,1.428594946861267,-1.8479524850845337,5.052013397216797,0.08139963448047638,5.054518699645996,-2.1984245777130127,-1.2604954242706299,-0.890785813331604,5.610387802124023,-3.971501588821411,-2.12748646736145,2.62170147895813,3.8849730491638184,-0.5162075757980347,2.591315984725952,6.673283576965332,5.283872127532959,3.8729400634765625,-7.113245964050293
v1_3___credit-g,0.7187873721122742,-2.494546413421631,1.2329926490783691,0.7377931475639343,0.15539231896400452,1.0735141038894653,-1.2414617538452148,0.22119489312171936,-0.4618157744407654,1.0215704441070557,-0.3482256829738617,-0.407496839761734,-1.7535549402236938,1.6890169382095337,-0.9498111605644226,2.8511948585510254,0.3682689070701599,2.919238567352295,-1.1153690814971924,-1.0121151208877563,0.27309611439704895,2.399308443069458,-1.0065467357635498,-1.0031551122665405,0.6570878028869629,1.546854019165039,-0.9715743064880371,1.7898967266082764,3.529097318649292,2.800102710723877,2.4112963676452637,-3.442835569381714
v2_3___credit-g,14.280255317687988,-233.8947296142578,28.30475425720215,98.93879699707031,-20.6043701171875,-22.651269912719727,-207.3848876953125,48.229774475097656,-51.40031814575195,99.41221618652344,-4.916961669921875,124.0604476928711,-202.54998779296875,8.585047721862793,-58.5785026550293,208.6599884033203,-11.613985061645508,214.89144897460938,-105.3157958984375,-42.208229064941406,-78.34761047363281,242.30386352539062,-213.44570922851562,-107.34654235839844,137.2203826904297,178.4108123779297,4.635415554046631,83.69602966308594,276.9413146972656,207.8960418701172,148.76589965820312,-313.7765197753906
v0_3___hill-valley,718.6170043945312,-11601.6982421875,1387.166015625,4947.26708984375,-1026.157958984375,-1088.036376953125,-10321.2216796875,2358.75146484375,-2586.27685546875,4986.50244140625,-269.3133239746094,6075.8603515625,-10075.201171875,400.8956604003906,-2934.04833984375,10347.1767578125,-605.3355712890625,10688.3359375,-5241.61376953125,-2013.505126953125,-3827.12109375,12029.349609375,-10624.6181640625,-5345.85400390625,6778.2451171875,8905.7763671875,174.7908172607422,4217.73681640625,13786.435546875,10299.4892578125,7398.92333984375,-15559.6484375
v1_3___hill-valley,851.3740234375,-11608.765625,1317.5546875,4997.7548828125,-994.8759765625,-993.9630737304688,-10295.8603515625,2265.893310546875,-2753.954345703125,5062.2880859375,-348.59454345703125,5983.68505859375,-10043.5107421875,443.2044372558594,-2939.50927734375,10313.0517578125,-623.6041259765625,10726.9248046875,-5227.4365234375,-1942.2470703125,-3695.197265625,12121.412109375,-10622.4189453125,-5389.34228515625,6646.8759765625,8980.171875,137.63027954101562,4297.453125,13826.990234375,10207.0751953125,7522.37744140625,-15539.7080078125
v2_3___hill-valley,803.3580322265625,-11610.1611328125,1335.94091796875,4981.3134765625,-1003.4967651367188,-1031.341796875,-10310.4970703125,2299.388427734375,-2697.78564453125,5038.1689453125,-319.8587951660156,6024.28564453125,-10055.3310546875,419.9242248535156,-2937.2470703125,10326.927734375,-623.4328002929688,10719.6064453125,-5230.6064453125,-1966.267333984375,-3745.89990234375,12092.955078125,-10629.3154296875,-5376.4482421875,6695.0986328125,8961.3720703125,155.5703125,4268.48291015625,13814.8388671875,10240.6494140625,7480.53369140625,-15550.3515625
v0_3___one-hundred-plants-texture,0.5655605792999268,-2.258307695388794,1.2046606540679932,1.00974440574646,-0.09894245862960815,0.7106194496154785,-1.1757466793060303,0.42339205741882324,-0.0544997937977314,0.362646222114563,-0.13178719580173492,-0.041739702224731445,-1.9234998226165771,1.4483492374420166,-1.0065399408340454,2.6644930839538574,0.4467387795448303,2.168635606765747,-0.9857368469238281,-1.1455947160720825,-0.014592980965971947,2.1701858043670654,-1.1310862302780151,-0.49903902411460876,1.099597692489624,1.540602207183838,-0.6975743174552917,1.4011400938034058,3.0675387382507324,2.581712245941162,2.0063509941101074,-3.2441208362579346
v1_3___one-hundred-plants-texture,0.5643503665924072,-2.257925510406494,1.205302119255066,1.0097095966339111,-0.10122611373662949,0.7086833119392395,-1.176879644393921,0.4245123267173767,-0.05306649208068848,0.36244598031044006,-0.13071176409721375,-0.03925442695617676,-1.9246238470077515,1.448354721069336,-1.0059998035430908,2.6637582778930664,0.4481489062309265,2.166614055633545,-0.9863265752792358,-1.1455409526824951,-0.016084838658571243,2.171278953552246,-1.1325347423553467,-0.49872952699661255,1.1013071537017822,1.538811445236206,-0.6967174410820007,1.3999828100204468,3.066371202468872,2.5812087059020996,2.0035769939422607,-3.2439045906066895
v2_3___one-hundred-plants-texture,0.5670698881149292,-2.2591629028320312,1.208130955696106,1.0117590427398682,-0.0987912267446518,0.7099785208702087,-1.1743457317352295,0.4260179400444031,-0.05387401580810547,0.35984933376312256,-0.13056495785713196,-0.04200153425335884,-1.9232854843139648,1.4501583576202393,-1.0073038339614868,2.664307117462158,0.4460268020629883,2.1682801246643066,-0.9846698045730591,-1.1481714248657227,-0.014831328764557838,2.1721131801605225,-1.1290929317474365,-0.4984011650085449,1.1007230281829834,1.5405021905899048,-0.6991405487060547,1.4017333984375,3.0680980682373047,2.585531234741211,2.0069546699523926,-3.2459113597869873
v0_3___one-hundred-plants-shape,0.5748220682144165,-2.2647576332092285,1.2327649593353271,1.0258078575134277,-0.10143176466226578,0.6997160911560059,-1.167598009109497,0.44850367307662964,-0.045860908925533295,0.3385642468929291,-0.11789031326770782,-0.03688845783472061,-1.9240106344223022,1.4613691568374634,-1.0113458633422852,2.661202907562256,0.443202406167984,2.16111421585083,-0.9765497446060181,-1.1659858226776123,-0.02066984213888645,2.1882247924804688,-1.1181316375732422,-0.49289408326148987,1.113045573234558,1.5363647937774658,-0.7063316106796265,1.4019687175750732,3.0687637329101562,2.611943483352661,2.003805160522461,-3.258195161819458
v1_3___one-hundred-plants-shape,0.5748379826545715,-2.264846086502075,1.232908010482788,1.025877594947815,-0.10150142014026642,0.6995933651924133,-1.1676685810089111,0.4486604332923889,-0.04579305648803711,0.33847832679748535,-0.11777649074792862,-0.036721277981996536,-1.924085259437561,1.4614434242248535,-1.0113601684570312,2.6612377166748047,0.4432535171508789,2.1610705852508545,-0.9765300750732422,-1.1660884618759155,-0.020777512341737747,2.188416004180908,-1.1181600093841553,-0.4928799271583557,1.1131917238235474,1.5363256931304932,-0.7063069343566895,1.4019278287887573,3.0687918663024902,2.6121268272399902,2.0037498474121094,-3.2583439350128174
v2_3___one-hundred-plants-shape,0.5749437212944031,-2.2648963928222656,1.2330238819122314,1.0260188579559326,-0.101532481610775,0.6995140910148621,-1.1676169633865356,0.448793888092041,-0.04577936977148056,0.338319331407547,-0.11769568920135498,-0.036678265780210495,-1.9241358041763306,1.4615339040756226,-1.0114105939865112,2.6612048149108887,0.4432713985443115,2.1609580516815186,-0.9764504432678223,-1.1661872863769531,-0.020780514925718307,2.1885294914245605,-1.118118166923523,-0.4927956461906433,1.1132705211639404,1.536324143409729,-0.7063206434249878,1.4019100666046143,3.0687777996063232,2.612239122390747,2.0037269592285156,-3.2584242820739746
v0_3___ozone-level-8hr,4.512007236480713,-104.31168365478516,13.922821044921875,43.14360427856445,-9.936491012573242,-11.554287910461426,-92.77377319335938,22.917572021484375,-20.45938491821289,43.15204620361328,-1.0802993774414062,57.27470779418945,-90.77200317382812,3.9061036109924316,-25.798328399658203,93.61771392822266,-4.239259243011475,94.99432373046875,-47.45823669433594,-20.433549880981445,-37.1629638671875,107.18880462646484,-95.23051452636719,-47.36994171142578,63.273780822753906,77.8302230834961,2.95098876953125,35.86200714111328,122.79913330078125,93.94001007080078,64.59769439697266,-140.39862060546875
v1_3___ozone-level-8hr,65.9364013671875,-905.8070068359375,105.9018325805664,394.78387451171875,-76.41224670410156,-69.53633880615234,-809.6011962890625,171.7667999267578,-216.7191619873047,402.4132080078125,-29.0079402923584,451.943359375,-784.8363037109375,35.387577056884766,-237.53173828125,807.58349609375,-51.23637008666992,844.9080200195312,-409.9427795410156,-141.61764526367188,-276.232421875,949.5396728515625,-831.7144775390625,-422.67535400390625,513.73291015625,708.0743408203125,-0.04135742038488388,349.539794921875,1089.8782958984375,799.7364501953125,590.7396850585938,-1212.670654296875
v2_3___ozone-level-8hr,13.027725219726562,-197.77528381347656,22.4827880859375,84.76188659667969,-16.778799057006836,-17.64932632446289,-176.51048278808594,38.9012565612793,-45.834999084472656,86.27980041503906,-5.2725324630737305,102.9686279296875,-170.79342651367188,6.552725315093994,-50.464866638183594,176.1827392578125,-11.047189712524414,183.50230407714844,-88.91908264160156,-33.13009262084961,-63.64342498779297,206.48043823242188,-181.57388305664062,-91.78235626220703,113.9348373413086,153.1778106689453,2.868450880050659,73.28711700439453,235.7438507080078,174.4763641357422,127.39241027832031,-264.781005859375
v0_3___kr-vs-kp,1.088472843170166,-2.6120715141296387,1.7500032186508179,0.9676052331924438,0.37405505776405334,0.8874222040176392,-0.8528569936752319,0.7275770902633667,-0.7371254563331604,0.7804946303367615,0.1195131316781044,-0.5663809776306152,-1.5791434049606323,1.788891077041626,-0.7837758660316467,2.5874178409576416,0.420297235250473,2.684563159942627,-1.0285542011260986,-1.4422481060028076,0.3066818118095398,2.6280055046081543,-0.8986786007881165,-0.7757279872894287,0.6874774694442749,1.3832546472549438,-1.015432596206665,1.2948229312896729,3.369361162185669,3.011960744857788,2.3217902183532715,-3.3637142181396484
v1_3___kr-vs-kp,0.9087677001953125,-2.5254900455474854,1.4920376539230347,0.8479099273681641,0.2647079825401306,0.9914132952690125,-1.0447683334350586,0.46415120363235474,-0.5719429850578308,0.8858319520950317,-0.10945840179920197,-0.511885941028595,-1.657832384109497,1.7622013092041016,-0.8950058817863464,2.7211334705352783,0.3883712589740753,2.7988803386688232,-1.0460946559906006,-1.2130542993545532,0.3266376852989197,2.475125789642334,-0.9217978715896606,-0.8499655723571777,0.6634296178817749,1.4639060497283936,-1.014690637588501,1.5884666442871094,3.4453647136688232,2.908372163772583,2.348958969116211,-3.38988995552063
v2_3___kr-vs-kp,0.9823594093322754,-2.604402542114258,1.6119378805160522,0.8331280946731567,0.3035607635974884,1.0101157426834106,-0.970089316368103,0.5324002504348755,-0.6233322620391846,0.9089749455451965,-0.06696315109729767,-0.5437185764312744,-1.6537586450576782,1.8685963153839111,-0.855711817741394,2.7570536136627197,0.4543690085411072,2.849822998046875,-1.0768566131591797,-1.330308437347412,0.33418914675712585,2.5184543132781982,-0.8775609731674194,-0.8505401611328125,0.6423032879829407,1.4044034481048584,-1.0520668029785156,1.531860113143921,3.4879794120788574,3.001377582550049,2.3880534172058105,-3.4585959911346436
v0_3___optical_recognition_of_handwritten_digits,-0.004233503248542547,-6.1336350440979,1.7966110706329346,2.1978094577789307,-0.8854181170463562,-0.3935665190219879,-5.170657157897949,1.4406497478485107,-0.2203863561153412,1.8942970037460327,0.049820996820926666,3.2658042907714844,-5.43378210067749,1.4668657779693604,-1.794273018836975,6.1821675300598145,0.685745358467102,5.368075370788574,-3.023597240447998,-2.1232190132141113,-2.2997732162475586,6.19965124130249,-5.04666805267334,-2.4309048652648926,4.117399215698242,3.827409029006958,-0.0168764591217041,2.1948561668395996,7.383547306060791,6.1507368087768555,3.794818878173828,-8.65443229675293
v1_3___optical_recognition_of_handwritten_digits,-0.005018138792365789,-6.84774923324585,1.8840770721435547,2.4828104972839355,-0.9715017080307007,-0.49374818801879883,-5.838568687438965,1.580932855606079,-0.35521095991134644,2.192218065261841,0.023889636620879173,3.697341203689575,-6.056443214416504,1.4334197044372559,-1.9611564874649048,6.818504333496094,0.6262227296829224,6.029932498931885,-3.3573150634765625,-2.2702248096466064,-2.608126163482666,6.940377235412598,-5.731125831604004,-2.78981876373291,4.573884010314941,4.38546085357666,0.013972187414765358,2.4265127182006836,8.21934986114502,6.797350883483887,4.234640121459961,-9.622288703918457
v2_3___optical_recognition_of_handwritten_digits,-0.020288800820708275,-6.349474906921387,1.863287329673767,2.2867283821105957,-0.9184005856513977,-0.42024779319763184,-5.3932108879089355,1.4915891885757446,-0.2297336608171463,1.9859991073608398,0.05234718322753906,3.3758609294891357,-5.632359981536865,1.4849258661270142,-1.8719406127929688,6.389594554901123,0.6696067452430725,5.575009346008301,-3.1292755603790283,-2.1590895652770996,-2.385554790496826,6.427680015563965,-5.243485927581787,-2.537048816680908,4.26902961730957,3.9872429370880127,-0.03783164173364639,2.2952327728271484,7.660935878753662,6.401767730712891,3.9230754375457764,-8.965503692626953
v0_3___support2,188.1450958251953,-3200.8955078125,393.2438049316406,1359.502685546875,-285.346923828125,-312.27642822265625,-2846.339111328125,665.109619140625,-695.6167602539062,1363.1614990234375,-63.9022216796875,1688.4683837890625,-2781.83642578125,110.51121520996094,-807.2979736328125,2857.00732421875,-166.2845458984375,2942.63525390625,-1444.503662109375,-567.5391845703125,-1072.6263427734375,3310.85888671875,-2926.10107421875,-1469.0086669921875,1884.82421875,2446.719970703125,52.779396057128906,1152.2239990234375,3796.71435546875,2857.335205078125,2029.052734375,-4297.28125
v1_3___support2,132.67758178710938,-3671.61279296875,521.7908935546875,1534.6085205078125,-329.9590759277344,-441.79949951171875,-3280.122314453125,863.3038330078125,-671.2971801757812,1490.2568359375,7.418286323547363,2000.6597900390625,-3204.20166015625,96.29461669921875,-929.6642456054688,3295.45263671875,-219.44296264648438,3359.11181640625,-1636.248779296875,-704.8952026367188,-1332.5225830078125,3742.61474609375,-3331.82763671875,-1646.0413818359375,2260.817138671875,2766.438720703125,74.9413070678711,1268.0413818359375,4326.16455078125,3407.15869140625,2238.9951171875,-4958.54931640625
v2_3___support2,1.5478260517120361,-32.12394332885742,4.782050132751465,13.262269973754883,-3.187685966491699,-2.864927291870117,-28.508434295654297,6.603764533996582,-6.160290241241455,13.202459335327148,-0.6933597326278687,16.941120147705078,-27.8857479095459,2.178931713104248,-8.405817985534668,29.247894287109375,-0.8604618310928345,29.476455688476562,-14.779950141906738,-6.47927713394165,-10.929472923278809,33.4077033996582,-28.94358253479004,-14.657183647155762,19.26101303100586,23.90683364868164,0.35869941115379333,11.830406188964844,38.35247039794922,29.179718017578125,20.430179595947266,-43.504722595214844
v0_5___olivetti_faces,0.5312913656234741,-1.8659791946411133,1.4174505472183228,0.8069464564323425,-0.12015000730752945,0.2010091096162796,-0.7842140197753906,0.9456822276115417,-0.021298622712492943,0.24308986961841583,0.3108202815055847,0.20547273755073547,-1.4579797983169556,1.4077188968658447,-0.5476747751235962,1.8855632543563843,0.4113600254058838,1.5445746183395386,-0.7533751726150513,-1.194096565246582,-0.22952723503112793,2.1853184700012207,-0.8330051302909851,-0.4272235929965973,1.031860113143921,0.7446350455284119,-0.4883407950401306,0.7746900916099548,2.2660679817199707,2.3920812606811523,1.278959035873413,-2.563011646270752
v1_5___olivetti_faces,0.5146920084953308,-1.8644717931747437,1.4345871210098267,0.799209475517273,-0.1338547170162201,0.1941123604774475,-0.8069178462028503,0.9429082870483398,0.009971166029572487,0.2542232871055603,0.32104191184043884,0.22846989333629608,-1.4702963829040527,1.436936855316162,-0.5587303042411804,1.9031881093978882,0.4404028356075287,1.538523554801941,-0.7590919733047485,-1.1805047988891602,-0.23195695877075195,2.1861329078674316,-0.8319441080093384,-0.41907089948654175,1.03878915309906,0.7200881242752075,-0.4886777997016907,0.7770635485649109,2.2665185928344727,2.418123722076416,1.2680943012237549,-2.579779624938965
v2_5___olivetti_faces,0.5258850455284119,-1.8666452169418335,1.4277973175048828,0.8059691190719604,-0.11828122287988663,0.19410887360572815,-0.7895058393478394,0.9533849954605103,0.0014377832412719727,0.23449242115020752,0.32440176606178284,0.22056595981121063,-1.4608148336410522,1.4253467321395874,-0.5577846765518188,1.8966195583343506,0.42217594385147095,1.539074182510376,-0.7427490949630737,-1.1929752826690674,-0.23103466629981995,2.181422472000122,-0.8208009004592896,-0.4109170436859131,1.036335825920105,0.7351263761520386,-0.48546066880226135,0.7719730734825134,2.262761116027832,2.4173946380615234,1.2726236581802368,-2.575652599334717
v3_5___olivetti_faces,0.5167511105537415,-1.8663009405136108,1.4320772886276245,0.8030120134353638,-0.12970586121082306,0.1970609724521637,-0.7939035892486572,0.9521108865737915,0.008869814686477184,0.23847243189811707,0.3191865086555481,0.2160859853029251,-1.4702537059783936,1.4256055355072021,-0.5561977624893188,1.9008090496063232,0.4272884726524353,1.541197419166565,-0.757270336151123,-1.1938531398773193,-0.23495113849639893,2.179500102996826,-0.8286155462265015,-0.41879209876060486,1.0440586805343628,0.730141282081604,-0.4903806746006012,0.778366208076477,2.26884126663208,2.414724111557007,1.2679091691970825,-2.576117992401123
v4_5___olivetti_faces,0.496662437915802,-1.8728758096694946,1.4392515420913696,0.7995060086250305,-0.14754219353199005,0.19663451611995697,-0.8287901878356934,0.9424862861633301,0.03771955892443657,0.24811851978302002,0.31426841020584106,0.2377290427684784,-1.491552472114563,1.4401260614395142,-0.570219874382019,1.9297780990600586,0.4407988488674164,1.5563554763793945,-0.7710239887237549,-1.1833789348602295,-0.2451428920030594,2.1895151138305664,-0.8398734927177429,-0.42744117975234985,1.0590150356292725,0.7312557101249695,-0.4933963418006897,0.7988465428352356,2.2885243892669678,2.440685749053955,1.271394968032837,-2.6048953533172607
v0_5___cirrhosis_patient_survival_prediction,0.5367757678031921,-2.236313581466675,1.162549376487732,0.9129506945610046,-0.08474147319793701,0.7009111642837524,-1.116880178451538,0.4347330927848816,-0.023322056978940964,0.346075177192688,-0.11439625918865204,-0.03757157176733017,-1.923766851425171,1.4219019412994385,-0.9472697377204895,2.666043519973755,0.5038802027702332,2.1191768646240234,-1.0093250274658203,-1.1862421035766602,-0.047666072845458984,2.019275188446045,-1.1186511516571045,-0.43769484758377075,1.0972007513046265,1.4784908294677734,-0.6188514828681946,1.2804981470108032,2.976447582244873,2.489659309387207,1.9315264225006104,-3.1567375659942627
v1_5___cirrhosis_patient_survival_prediction,0.5372695922851562,-2.2341909408569336,1.1618174314498901,0.9118295907974243,-0.0854165107011795,0.7023729085922241,-1.1147032976150513,0.4320949912071228,-0.023534823209047318,0.34708359837532043,-0.11555423587560654,-0.04008021205663681,-1.9231979846954346,1.4227694272994995,-0.9471935033798218,2.66511607170105,0.505804181098938,2.1170620918273926,-1.0094285011291504,-1.1851142644882202,-0.045456551015377045,2.0157456398010254,-1.1175211668014526,-0.4357621669769287,1.0948420763015747,1.477069616317749,-0.6195195913314819,1.279874563217163,2.9738099575042725,2.486006259918213,1.931037187576294,-3.1535427570343018
v2_5___cirrhosis_patient_survival_prediction,-7.403656005859375,-169.63845825195312,41.61779022216797,67.2059326171875,-22.087072372436523,-23.044178009033203,-153.86209106445312,48.61709976196289,-9.585726737976074,61.488914489746094,7.340548515319824,90.24409484863281,-156.39129638671875,11.154582977294922,-47.03226852416992,160.60122680664062,-0.49291229248046875,150.74411010742188,-83.11143493652344,-40.461280822753906,-68.96538543701172,163.86111450195312,-152.45050048828125,-70.93846893310547,118.77732849121094,116.66285705566406,-1.9547913074493408,57.44890594482422,203.1019287109375,172.37359619140625,92.40788269042969,-234.50955200195312
v3_5___cirrhosis_patient_survival_prediction,3.2256863117218018,-18.035524368286133,1.7501392364501953,8.254257202148438,-1.1120983362197876,0.5302063226699829,-14.936945915222168,2.0763866901397705,-5.973830699920654,8.30999755859375,-1.7573597431182861,7.099752902984619,-15.112455368041992,2.30051851272583,-4.970095634460449,16.20974349975586,-0.5389440655708313,17.2022705078125,-8.013639450073242,-2.806478977203369,-3.4537880420684814,19.653100967407227,-15.743685722351074,-8.446876525878906,8.436360359191895,14.694598197937012,-0.7317575216293335,8.13361930847168,22.238862991333008,14.750055313110352,13.697283744812012,-23.885774612426758
v4_5___cirrhosis_patient_survival_prediction,0.4526819586753845,-3.297301769256592,1.311563491821289,1.298468828201294,-0.23262591660022736,0.4843319058418274,-2.144970655441284,0.6845453977584839,-0.12625256180763245,0.7422291040420532,-0.09934898465871811,0.7032358050346375,-2.8596677780151367,1.3750860691070557,-1.1985142230987549,3.636540651321411,0.4704953134059906,3.0645129680633545,-1.5158652067184448,-1.440186858177185,-0.5822194814682007,3.09358286857605,-2.1421594619750977,-0.9459179043769836,1.8544790744781494,2.239664077758789,-0.5179322957992554,1.5723040103912354,4.197201728820801,3.4762635231018066,2.509747266769409,-4.618518352508545
v0_5___arrhythmia,-0.7576185464859009,-20.345691680908203,4.886636257171631,7.608860015869141,-2.531956434249878,-3.340418577194214,-18.157201766967773,6.053236961364746,-1.155798316001892,6.757376194000244,1.00250244140625,12.131063461303711,-18.0528564453125,1.3955084085464478,-5.207666873931885,19.0589542388916,-0.24379844963550568,17.92680549621582,-9.430194854736328,-5.757151126861572,-9.206052780151367,20.147876739501953,-17.824779510498047,-8.580957412719727,14.406082153320312,13.658363342285156,0.5650388598442078,6.144467353820801,23.630857467651367,20.81740379333496,11.166139602661133,-28.207141876220703
v1_5___arrhythmia,0.14649924635887146,-14.682154655456543,3.228679656982422,5.675407886505127,-1.7173773050308228,-1.8330777883529663,-12.931528091430664,3.748889207839966,-1.7819093465805054,5.287386894226074,0.2554691433906555,8.32310676574707,-12.706354141235352,1.340226411819458,-3.7347304821014404,13.56712532043457,-0.03677959367632866,13.07880973815918,-6.812321662902832,-3.929346799850464,-5.917300224304199,15.1788911819458,-12.885103225708008,-6.459901332855225,9.645471572875977,10.10930061340332,0.28534451127052307,4.790162086486816,17.225749969482422,14.297033309936523,8.76121997833252,-20.13947868347168
v2_5___arrhythmia,-0.04460735246539116,-9.673826217651367,3.0688202381134033,3.5535426139831543,-1.3013689517974854,-1.475311040878296,-8.33514404296875,3.0822510719299316,-0.6655129194259644,3.0408592224121094,0.6136583089828491,5.579378128051758,-8.307093620300293,1.306713342666626,-2.343541145324707,8.90868854522705,0.20057716965675354,8.279930114746094,-4.532835960388184,-3.1851444244384766,-4.355070114135742,10.103803634643555,-8.128096580505371,-4.133752822875977,6.81566858291626,6.005300045013428,0.05445871502161026,2.782911777496338,11.16692066192627,10.224329948425293,5.415480613708496,-13.385342597961426
v3_5___arrhythmia,0.3204292356967926,-14.257833480834961,3.1487958431243896,5.583367824554443,-1.6062824726104736,-1.6935495138168335,-12.502392768859863,3.6261184215545654,-1.8604522943496704,5.133484840393066,0.20177145302295685,7.909979343414307,-12.294103622436523,1.3731300830841064,-3.6662724018096924,13.123866081237793,-0.1882108747959137,12.77473258972168,-6.528655052185059,-3.761472702026367,-5.619481086730957,14.839543342590332,-12.405500411987305,-6.309979438781738,9.24537467956543,9.930806159973145,0.15596885979175568,4.800423622131348,16.780988693237305,13.9791259765625,8.63203239440918,-19.57266616821289
v4_5___arrhythmia,0.5543590784072876,-13.405706405639648,2.8932883739471436,5.280777931213379,-1.5377752780914307,-1.2932136058807373,-11.621614456176758,3.1177618503570557,-2.033564805984497,4.953656196594238,-0.04490261152386665,7.206774711608887,-11.52412223815918,1.557875156402588,-3.4451370239257812,12.347118377685547,0.06595249474048615,11.977460861206055,-6.2298054695129395,-3.501619338989258,-4.998538017272949,14.089317321777344,-11.624544143676758,-5.994210720062256,8.432182312011719,9.330278396606445,0.06265964359045029,4.62421178817749,15.85302734375,12.8355073928833,8.407883644104004,-18.359756469726562
v0_5___regensburg_pediatric_appendicitis,0.5522354245185852,-15.62516975402832,2.9547953605651855,6.272514343261719,-1.5174223184585571,-1.235906958580017,-13.56346607208252,3.457958936691284,-2.29923939704895,5.840847015380859,-0.12136383354663849,7.963440895080566,-13.567228317260742,1.5319626331329346,-4.279572486877441,14.652036666870117,-0.11027030646800995,14.313382148742676,-7.195631980895996,-3.782876491546631,-5.395105361938477,15.9088134765625,-13.62292766571045,-6.761931419372559,9.653234481811523,11.362561225891113,0.006781387142837048,5.745920658111572,18.732006072998047,14.743426322937012,9.861505508422852,-21.32588768005371
v1_5___regensburg_pediatric_appendicitis,0.7087534666061401,-9.098608016967773,1.974452018737793,3.751192569732666,-0.8631256818771362,-0.17662152647972107,-7.781047821044922,1.6328213214874268,-1.588213324546814,3.425586700439453,-0.3499526083469391,4.1029767990112305,-7.739854335784912,1.5133450031280518,-2.7294249534606934,8.664385795593262,0.12935400009155273,8.493566513061523,-4.206033229827881,-2.2627577781677246,-2.609203815460205,9.664685249328613,-7.68668270111084,-4.023753643035889,5.23893404006958,6.720794677734375,-0.36539506912231445,3.852470874786377,11.242412567138672,8.616122245788574,6.274477005004883,-12.502531051635742
v2_5___regensburg_pediatric_appendicitis,0.48380082845687866,-2.3964285850524902,1.209053635597229,0.9351252317428589,-0.06718038022518158,0.5649955868721008,-1.3363641500473022,0.5658267140388489,-0.04700436443090439,0.3974812626838684,-0.006488817743957043,0.20643487572669983,-1.9919261932373047,1.3997464179992676,-0.9299837350845337,2.727804183959961,0.5044189691543579,2.232819080352783,-1.0883724689483643,-1.2199338674545288,-0.19837959110736847,2.285043239593506,-1.2946841716766357,-0.5868502855300903,1.2519567012786865,1.4892326593399048,-0.5025187730789185,1.2274858951568604,3.1395392417907715,2.6701419353485107,1.9239696264266968,-3.3602569103240967
v3_5___regensburg_pediatric_appendicitis,0.14812393486499786,-12.317121505737305,2.677576780319214,4.78729248046875,-1.3397929668426514,-1.1205909252166748,-10.755118370056152,2.8688302040100098,-1.3489608764648438,4.3073248863220215,0.03144826740026474,6.531075954437256,-10.728960037231445,1.3540616035461426,-3.424579620361328,11.723993301391602,0.094385527074337,11.178682327270508,-5.734515190124512,-3.341961622238159,-4.592296123504639,12.47773265838623,-10.659692764282227,-5.257712364196777,7.950263977050781,8.71781063079834,0.05470466613769531,4.407179355621338,14.740524291992188,11.955159187316895,7.607012748718262,-16.97574806213379
v4_5___regensburg_pediatric_appendicitis,0.4249975085258484,-3.13517165184021,1.3319348096847534,1.2063052654266357,-0.1784958690404892,0.43547359108924866,-2.1888883113861084,0.6734421849250793,-0.12094102054834366,0.6942507028579712,-0.011502397246658802,0.7507699131965637,-2.6169867515563965,1.4164178371429443,-1.1746211051940918,3.4246304035186768,0.4610137939453125,2.9577536582946777,-1.4287807941436768,-1.3368992805480957,-0.5444366335868835,3.1626663208007812,-2.013166666030884,-1.0068626403808594,1.7618955373764038,2.0700535774230957,-0.46787986159324646,1.552046775817871,4.08246374130249,3.435925245285034,2.3678500652313232,-4.451346397399902
v0_5___amazon-commerce-reviews,0.48669615387916565,-2.2967171669006348,1.2388923168182373,0.9558004140853882,-0.1526324599981308,0.5732124447822571,-1.23844313621521,0.5408065915107727,-0.008436108008027077,0.37352263927459717,-0.03546981140971184,0.15724945068359375,-1.9594147205352783,1.4511425495147705,-0.9332605600357056,2.6336140632629395,0.5348936319351196,2.0940616130828857,-1.0440688133239746,-1.1846415996551514,-0.1469869166612625,2.2322897911071777,-1.2145756483078003,-0.5183194875717163,1.2024109363555908,1.4005727767944336,-0.5735722184181213,1.2487634420394897,3.0176894664764404,2.598071336746216,1.868503212928772,-3.2634615898132324
